-0.008407725675276059,0.008557272406221518,-0.008355569415982578,-0.007584278529227792,0.009179168822952572,0.01123099601377713,0.001696435004306324,-0.01742404696030917,0.004298371262030165,0.01407013768114092,-0.007207100481924464,-0.02016621089958565,-0.01422807257541081,0.003857733374222276,0.01162315272544131,0.0129392231855561,-0.005029274006508104,-0.02632257742692342,0.003335140064792758,-0.008882598549603195,0.002416413585241251,0.01430848109675089,-0.00697882373399075,-0.001676286954793344,-0.007678995260114535,-0.02300658716951252,0.0001936768932087845,-0.001663486332003279,-0.002840217245082314,-0.01544932970268435,-0.01001254819600751,-0.004511024473211425,-0.002799989154230841,0.02391270129700728,-0.002505363705377656,-0.00357039945741635,0.01305953072631218,0.003408100171131179,-0.01004065577143438,0.00290450390051485,0.01819144941875288,-0.01258094380969496,-0.01771536499878227,0.001675611277805564,-0.009397785296132654,0.0009885865941955431,-0.01957412852145283,0.0009257643847306988,0.01170985677299079,-0.005448677167976227,0.01680576009696685,-0.01170544024990075,0.003525478227891271,-0.006975210156641667,0.01414639656390263,0.003948724852855192,-0.01428018518101582,0.0108570720131572,0.01055381239555046,-0.01342311405541279,-0.007525119902842623,0.002825572116750659,0.008401455919793544,0.008376965258452709,0.00554082669170284,-0.004151714814466936,0.006392850468598778,-0.006137434680788407,-0.004222508864989555,0.0008067868539455817,0.002533615222622953,-0.0003818801405292311,-0.001365552557713592,0.005352123571089561,0.01801129968011737,0.008373646658545777,-0.0127951089281972,-0.00372930177186528,0.00112285740920039,-0.006058169323011038,0.001888697361528901,0.002476669334780635,-0.01178531329076207,0.006379938383918913,-0.003986454286792376,-0.001790109676502878,0.007393902707727934,0.001756971286609864,0.007796438978191544,-0.002016394122603435,-0.008236646111012699,0.00380857812249851,0.01335325390201356,0.007921781036157359,-0.00322393074527502,-0.02557106521019563,-0.02195857130365067,0.007588948853086019,0.0002786384451552581,0.006530832414347597,0.0004090388625616724,0.01108041169769901,-0.01330250569158144,-0.01510203513018564,0.00171517956450945,-0.002641612402772641,0.01365191954495729,-0.002027090853030991,-0.02311798022549985,0.005865281115823642,0.007393007046474187,0.0009796853940617638,0.02448310696728738,-0.005219200541422987,-0.005216462444071542,-0.01076794713235703,0.01671257605775125,0.01008622312720044,-0.0006216385942331735,0.002260886853868399,0.01922105990263508,0.01509483560057343,-0.003028532081729964,0.006042991929369663,0.006121506423706433,0.01601748465392865,-0.008059966997110325,-0.001204714831069165,-0.006889524304508613,-0.005956165873333171,-0.009567591346264552,-0.004303228046576534,-0.01449149193007484,-0.004660153438157252,0.01175515463475627,-0.01930055413096764,0.01570480733167682,0.01142389009714007,0.007343510728554749,-0.009085546717846638,-0.005766381404324268,-0.006080197300064132,-0.001574501037998876,-0.009384650459020044,-0.007609955958197578,0.007621724731653968,-0.001242553759946048,0.01431732506088058,0.009676805337831423,0.003574426029218885,0.01194009752872671,0.004629009497361598,-0.009666556429486739,-0.01823802983900143,-0.01151471236055649,-0.003874835508449508,0.01400673630519516,0.009286460473732142,0.006385093029497743,-0.006613135494745678,0.002168322880564357,0.01741916445024703,-0.0001642515267052298,0.009397637229708971,-0.006029982829105777,-0.002882109451943888,0.01192933239438287,-0.02589004262320184,0.01266941644832406,0.009924540128725123,-0.004221434520427891,0.0005260254898368245,-0.006617069787668684,-0.01078630317887698,0.01434144154262476,0.009983291201865545,-0.0006929030561861057,-0.02112393970375242,0.007478921076718182,0.005378199252583597,-0.01937139255389854,0.0009586330483014427,-0.003507930421670662,0.002620842002340179,-3.032874768696855e-05,0.003310586450279215,-0.008970408517783805,0.001593078256859359,-0.01627047378476644,0.004937045757088714,0.005242915478511483,-0.003066399938325924,0.006945439014779716,-0.006653145282136974,-0.009868610435668139,-0.006715691236981091,0.005271004713961777,-0.006556906691607472,-0.007133536898809805,0.00565719008096814
0.01536063269626583,-0.01340070347598331,0.004814870101996912,0.01402164132872681,-0.001211854900208357,-0.003017149198361917,0.01992117052013983,0.004844582112030875,-0.008875057149333704,-0.02084478541229135,0.002688942917276955,-0.01490658472375909,0.008619981848856959,0.004280517016062656,0.0008445821913178968,0.01100666721630636,-0.01262425814121533,-0.01178651208165609,0.002163241725864586,0.008586855690878381,-0.0008023257949954742,0.00595518629201896,-0.01036047883691801,-0.00737501874855154,0.01220342272425085,0.01340493823221296,0.0007931363712521738,-0.001373294297111567,0.0007352156436018012,0.0003200754756846219,0.02571686544850234,-0.002065508175677543,-0.01459339233074062,-0.005782788984945472,0.001596089167272105,-0.02022121541629961,-0.01976793507560111,-0.001988994637704985,-0.002271625371902128,-0.01447148527606049,-0.01416487754507277,0.004255288901416705,0.03185927574492278,0.006907649150178806,0.005198343877899504,0.01435380170087424,0.006579512396064522,0.0006637969166486386,0.003158944967333202,-0.006566310267935145,-0.002404496667217363,0.01805395684677729,0.008781397700164851,-0.0197502863861046,-0.004554498072833266,-0.005974552195262918,-0.01551068695220146,-0.01369521785802306,-0.009611663621219109,-0.004043869220223985,0.02150833182621757,0.01168654222126322,-0.01375992914079734,-0.01069603653395983,0.01022308185645718,-0.004364160754686783,-0.01183954848158856,0.006419928349415118,-0.0215545080787659,-0.001496942680297004,0.002412741346856112,-0.008897938590483939,-0.003505481255377764,-0.01134181275779338,-0.01140557587409274,0.02668091647403922,-0.01842292020668372,0.008639308123635175,-0.01722507917394336,0.002042176573211316,-0.001900852657426766,0.006159151536587945,-0.01524344397921353,0.01647144434061975,0.007590283258916399,0.01929996357650963,-0.007508589661269508,0.003809233728413358,-0.005538572205214647,-0.001370878576874164,-0.0083156275812972,0.008224453070931288,0.002824317464488747,-0.003447013505158603,-0.004572541227592131,-0.003280537169954704,0.003738691655297401,-0.0008547677839292455,-0.005646303700493616,-0.03450675564174843,0.01809251742903172,-0.007667481533078584,0.004618537225594502,-0.003284385317895568,-0.0004241930268623242,-0.005258452885903842,-0.001604359179749626,0.01059316200326763,0.0009990296172353024,0.009198404374112111,0.0009706191342316384,-0.001213769646581253,-0.01258640057067298,-0.01126083801237546,0.007176467568845381,-0.009983193551859228,0.001158526721741608,-0.005329580276564896,0.0006454856500528691,0.006948099445551909,0.007680806065333716,-0.002391417231828192,0.009071509783237059,-0.01189762847796591,-0.008104406534611447,0.007721851252825347,-0.0193576446159328,-0.002033111033040894,-0.01427018647276603,-0.009230844571940422,-0.01224595581946908,0.003402824895730355,-0.01267800178146212,0.01564535945040987,0.001698057031159416,-0.0001466685273098563,0.01474616092995827,0.008635747988946703,0.0002236783447895414,0.004240458218942842,0.003232497264774581,-0.01235675895344701,0.003109476696978956,0.001835814744843277,0.001778600193253157,0.009713134825340829,-0.008374722591555117,-0.02391074816273645,0.01258783808306869,-0.009963023631812425,0.005135569809156269,-0.0084180393231881,0.01195434932412483,0.01372921679413582,-0.01288346345576453,0.01099063936913625,-0.001408731320371981,-0.004930734493917758,-0.002287595156042033,-0.00458845400719058,-0.004882200114358298,0.01989187721564264,0.004317587460262833,-0.01456995643123024,0.01290861891435719,-0.003593431508649579,0.00407423533124169,0.00108988595797973,0.01200499727770701,0.007382006643023183,0.004810369352954261,-0.0004685935470703913,0.01796498730759109,0.01769604409527202,-0.002796058860853045,-0.007996217514513276,-0.005595955559293814,0.003907685487777657,-0.004543215906036585,-0.008855758485735242,0.01061490481427114,-0.01589396466558322,-0.002439527947131848,0.007399660337568691,0.00210616615201162,0.003429128363295196,-0.004419700515484848,-0.02504611176723678,-0.002061751320451014,-0.02265166907826204,0.008497093217067207,0.007922121107828377,-0.004514782843623822,0.002952247364889105,-0.01157537545665901,0.01204540967359468,-0.01506564514587547,-0.009558104879157977,-0.0173858023973067,0.01856876775669079
-0.006594104730505011,0.005484602017144797,-0.00906981346146535,-0.00742167748535141,-0.01312317216054237,-0.01139025067671856,-0.02086183880898007,0.01285952934048394,-0.003440787255018831,0.001569140963252,0.007382363036972056,-0.002073586485663257,0.0007173517040301577,-0.01566008829328489,-0.008962786521758047,-0.003127918668441404,-0.01724879825418924,0.00332804565646832,-0.02221622574185077,0.0183914090922093,-0.002806868242286508,0.001337170751387199,0.00744379950088662,0.002278743831061282,-0.006367275831197203,-0.01034420190252577,-0.02490141246904705,-0.003800260736608701,0.004344424494878837,0.001640342931336433,-0.01564636331957671,-0.001672578954837717,-0.00264049128685131,-0.003562106559161117,0.001185200895217784,0.007939086133889368,-0.00212501991621484,0.003368121938386527,0.007576812420303653,-0.001586537248489674,0.009523457562347919,-0.007674774756205978,0.002115896915247099,-0.01114924018926453,0.008027038155781719,0.009075986587980613,-0.01293171944363896,-0.005399703598407224,0.008359758505751429,0.0002586637925672599,-0.002394370830330301,0.02189324042392719,0.006891284271879202,-0.0008041091609868019,-0.01408792109098666,-0.02494729738208926,0.004233431025626307,-0.004878534551327253,-0.003033361566313001,-0.002033209060194953,-0.004686375903932943,-0.005548503006738565,0.004595051262763424,0.00114785376432468,-0.001627219328758956,0.00577217990281871,-0.004507501268212866,-0.004135127590305395,0.01524820434277688,0.001530249007333066,-0.01267804627577116,-0.01089553191061053,0.003836288028571477,0.006813845835169641,0.002054933541589809,0.01797649516106198,-0.004764513828829375,0.001922047377109238,0.0003108109135303085,0.001156475755643736,-0.005915311963817923,-0.004758060020533228,-0.003100831573245753,-0.01708529411965745,0.00781838990642259,0.007821334073004515,0.006928147073578959,0.006108973831568627,0.01264667319285733,0.02274939421687334,0.002621539480793416,0.001965992978182506,-0.00184574019975567,-0.001036082026669336,0.008023909831561541,-0.002271974064915249,-0.009675777130994481,-0.0006080669900931848,-0.008925355413055728,0.007773548265463947,-0.004724015689979204,-0.009365899470444606,-0.01418330876317773,-0.003879482956778374,-0.004803019506638374,0.0008624859655181236,-0.005617248277838264,-0.002933567368893871,-0.00184695282590708,0.004068113293122077,0.00337747395046694,-0.004157486672213276,0.003311200602862226,-0.01335471457139391,-0.008353379469928875,-0.008328908647052892,0.006369771898081663,0.009580208563745342,-0.02533586512380889,0.01165502629568193,0.002729662493564143,0.004219807199860813,0.02701553623272297,-0.01990969801436946,-0.006191636822380455,0.005035820917906154,-0.009485560368061226,0.02610202179445821,0.01091762071337961,0.01581342037935028,0.006944013511726796,-0.0124923192206303,-0.006810908644591541,0.000419958859244334,-0.01481911301035105,0.01146451235914052,0.01230580186486805,-0.006379020704765936,-0.001224760734353723,-0.0006483781061694359,-0.006621555767608092,-0.01622790868949528,-0.01875208539086796,-0.005703342697256144,0.01549631511710073,-0.00687635653625209,0.009319541445610209,-0.00269614097208629,0.008279856065710411,-0.008830854174170144,-0.007785583849802199,-0.004207147297219567,-0.003264570136371953,-0.002498323820849083,0.004481462364398997,0.001814259837509743,0.01603632896179959,0.01659447673159836,-0.0141317853325677,0.01176532026622568,0.005136817600764514,-0.01085039529946746,0.02075217647773133,0.007777386528937925,0.007563372370948263,-0.006307089715266907,0.008219569507900306,0.01463981355319018,0.001986138508587769,0.0005947492446028805,0.00670801833477127,-0.01014865140892183,0.002460045936807913,0.006217092075548501,0.01792136924087379,0.008355663320892107,-0.0095639932869286,-0.005477526054285808,0.01855960568589492,0.0006510756932497541,0.003140250445503392,0.01657370541969948,0.01055210363465097,0.003434727255051111,-0.02195351772745988,0.002078297696604991,0.01560142846332722,0.03108406727590916,0.001864882556132983,0.01775726626378422,0.001773273235022811,-0.01333025404058034,-0.008832598630660106,0.002157417475562807,0.01298997627391564,0.0112424399009816,-0.008612746969328304,0.004596179282446123,0.00667040747789782,0.004555146657243885
-0.005166159234242074,0.01283436820834069,0.005041033782671064,-0.002501456641700362,-0.01214361595811142,0.007164123865125119,0.00230802823954644,0.006981689143393297,-0.007027730493148566,0.01645086545511121,0.003440913269335742,0.005485960766531501,-0.00421626129677017,-0.0003314041997859751,-0.006404525165121313,-0.01988180042911427,0.01388008624014643,0.008248481032729476,-0.005664583240497558,0.01360866661071827,-0.0006311684965291613,-0.009160684201432404,0.007294832343274846,0.006751963787831643,-0.005348308448137003,-0.001553122101847966,0.01552093192167068,0.0001896552352550696,-0.003476717794399087,-0.01667228138738788,0.003057554143241391,0.007997063723914621,-0.007477702219642332,0.005731670149547304,-0.006826613179493995,-0.002088044475163569,0.006641168858784039,-0.0007017698922804153,-0.0006938459793938877,-0.01527816662200649,0.01077981799316702,0.001978332173718874,0.01566103699865498,-0.01298964218920425,0.002023500173141224,-0.00347402313852695,-0.007794834309153268,-0.00198983953721312,-0.01521726495092335,0.006576254047756916,0.02184678478620545,-0.009152977438317564,0.002357643497562654,0.01372777782635337,0.002411506026525018,-0.01279930832906569,-0.00767769073044008,0.00672177775262842,0.01779737367793669,-0.01678945778931914,-0.006674255483797783,-0.02150397426752558,-0.005023746344079599,-0.01094638852862339,0.001084362146904596,0.001170804006720354,-0.006587571218007914,-0.002737143795475535,0.003697196541667926,0.002511156491012094,-0.006343441797834482,0.009453862878598914,-0.003180175637109693,0.009561450625878284,-0.01068763833399515,0.01775684352174407,-0.01288470302120549,0.01084483695601535,-0.009705951671731002,0.003731597021884687,0.0006526581792203468,0.003023058530664618,0.006248122270068726,0.01093374313957886,-0.01034420362800728,0.0005312662080007743,-0.005511653339133783,-0.01021654092855073,0.001314362557813877,-0.01473765413598254,-0.003842108886092785,0.01350505933046578,0.008834038150082213,0.01063895976197943,0.007657803592608057,0.02164483422525403,0.01199551454821758,0.01861714311188586,0.01100564515977653,0.012396713907158,-0.004379823036314229,0.003584197344374668,-0.0007925640741475617,0.001503740132692306,0.001931872660238203,-0.009088668335124953,-0.006652606956421368,0.001743863735107954,0.007193820016933503,-0.005544495252215123,-0.008972296262657387,0.00616652033552724,-0.01236298108515205,-0.007701685258052526,-0.0009903689631204286,0.008287261091798288,-0.001752480630162849,0.000858602297853345,0.004698860678185296,0.004489410669083259,0.01174974972937791,0.02180294654919638,0.0138152410599374,0.01053537295990456,0.006832615358466423,0.009318672892674844,-0.007171134518953089,-0.0008096905065042976,-0.009964652736012203,0.008507648286824711,-0.01452067316489394,-0.005426175868816379,0.00261435676486021,-0.002055687690343763,0.005110439000135045,-0.01922305538870119,-0.01897943041321024,0.008190147143352903,0.004692363078550142,-0.01204642556276319,-0.01226017823081942,-0.006644247526836912,0.01189942120536594,0.006677769816259156,0.02794077269855777,0.01899562334654191,0.008847687076336461,0.01313830686863501,-0.006386064668985346,-0.009333800328593015,0.002040820744160149,-0.00837257696397292,0.009499976395022066,0.006158880502233294,-0.007751707655702962,5.089039752633894e-05,0.004370269428736222,0.002294002177546144,0.005726949785103538,-0.000550283068206681,0.008185577211182671,0.00810892710409904,0.006534443920002659,-0.002078619810459619,-0.001676659183124506,0.006584747688695454,-0.00306806486594732,-0.004955772973783783,-0.004899452055968857,0.001605850716411459,0.002623957415380382,0.001891531881082365,-0.01128601795258719,0.003100320260572919,-0.01645294053526799,-0.008165390139439696,-0.008674164094688939,0.007473963132119988,0.01221359957731017,0.01169692177744096,0.007667875588721056,-0.01130435424065514,0.001763459151330382,-0.0124138554214438,-0.00362586426572358,0.006971960758897714,-0.008219828886336211,0.01356453658387785,-0.02334881042094603,0.0009855953386684578,0.007468101956104369,-0.002372558586077175,0.002400815100494638,-0.005837197750347111,-0.007029097853323643,-0.005111129872127331,-0.007512096021408557,-0.004029743675801447,-0.02649065963655427,0.001261853288003767
0.008683608227735123,-0.0002810692759725689,0.02384614701951197,-0.006282080187191125,0.008109750973296442,-0.00363631834576133,0.002250344267064902,-0.00424423062045272,-0.01441538655117978,0.001801585336427693,0.0006235535722976528,0.009878333046637698,-0.007436104883752131,-0.01001827605817912,-0.007195138365564228,0.005288408775961448,0.007903468465712878,0.01300858374362969,0.02569319700532475,-0.001457398549383314,-0.01337791867426555,-0.0004361963148510178,0.01437210071572446,0.005817384456978487,0.006090302184507792,0.007080095263607289,0.004245229260062669,0.009480598856280239,-0.006849772076247441,-0.004702233185132628,0.01175667306669145,0.03191921651035249,0.0101183175243095,-0.00796295564208091,-0.001776418724469491,0.01624134555333877,-0.01774321392067611,0.003064865070718442,-0.008449608406056764,-0.009619036646662638,0.002524836717721186,-0.009496636761511197,-0.0015660642276119,0.007602397687538793,0.003785652526759616,0.008117832221815783,0.01103647428807286,0.001148151783258342,-0.002144534371809036,-0.005503736576884269,-0.0007678931613663974,-0.003166908107921107,-0.01007703335422784,0.005557498170296644,0.009360336120507878,0.01792147931884544,0.01576937596981865,0.004039309513666689,-0.007561480635726938,0.002541032367749927,0.004534595821016603,-0.009729701956338764,-0.01302479976932185,0.009262273426849862,0.01023551681228003,-0.004284928213795071,-0.01206747720353262,-0.02287456039718042,-0.0009120995000155076,-0.009345733590619723,0.002440892026984169,-0.003196839687756347,-0.001607611619323903,0.005217177802984817,0.005469944808112823,-0.01223373598202289,0.01143296352803894,0.01041834298535883,0.0002139635184214509,-0.00903830028534373,0.01125096708433537,-0.009829662503955273,-0.0008997758062403953,-0.01372692816488173,-0.003058712360155653,-0.002642053740069249,0.001567105170671173,0.00168052529515844,0.01041926819451424,-0.01054900625355241,0.002297144959370292,-0.0139304147028504,0.01372017351132416,0.01649043422781673,-0.01817193806389395,0.0002877760408155397,-0.005488390303786245,0.01175922610816453,-0.009158324992911268,0.001309875620816154,-0.001699613488095746,-0.003979145661045479,0.01143642220912441,0.008436508419669449,0.009764419220749651,-0.001230653540160208,-0.002145513073048054,0.0005878727327161899,0.001489343658200716,-0.01243580464506425,-0.001810129349415172,0.008252211288083124,-0.00744837503544249,0.03706510090616538,0.005072476152068723,-0.01624112456545198,0.004966502690127985,-0.008197931915500632,0.01009789760576458,-0.0106183333384182,0.01269347571055689,0.008474503332172745,-0.002641578276464649,0.0005054821385237599,0.006298115462088794,-0.01840216165874827,-0.007655562022803947,0.005295606928544852,4.395311950303551e-05,0.002944672282261463,-0.00606363686795815,0.01491162031797645,-0.007104509321476573,-0.0004499072128851323,0.004307900533397488,0.0009535515925728706,0.008996175960552322,-0.007026296550991023,-0.01750056595071459,-0.005440807020158481,0.006220360310661671,-0.01772712932145003,-0.007306709497372819,-0.002089533564151693,-0.009383995283044471,0.0003511931912362594,0.008720091956788037,-0.01672278685579502,-0.006012473128808943,0.009669507035404265,-0.01301654079814998,0.01589616330684842,0.006940354252970091,0.009285703057615309,0.004725502926171594,-0.002688235736425287,-0.008857642062802975,-0.002182652083229974,-0.01783998560482061,-0.001141409823566862,0.009840070274941666,-0.03443772114948362,-0.004818921723766097,0.006536404248283067,-0.001013369525410202,-0.004713735191937563,-0.0002058837311977162,0.0045762670297746,0.002642341521863336,-0.0335699679509952,0.0007565101270178514,-0.006257030077640301,0.0265836597323427,0.01478075801892148,0.000606612711733209,0.01393975670293837,0.01138408414281904,-0.00846523902887868,-0.02727626369057642,0.002833227483852634,0.01366652311746474,-0.006413808592576064,0.01217673370849827,0.002646627694075722,-0.01651850436606124,0.000359865944227307,-0.001348025039101245,-0.002090783452580886,0.003827996571377404,-0.00300074120675135,-0.01724951049733291,0.001098580939081939,-0.0001017272090392383,-1.476870775069332e-05,0.01191343459202289,0.02190133148334815,-0.006047281180871079,0.0126985028005958,0.01004356032466317,-0.008190246689027146
-0.01025685873810046,0.0140776895284041,-0.005614726041483478,-0.005242355064405215,0.01497031238169518,0.007228969796176812,-0.02905939632535744,-0.01402731364658811,-0.03000389408804288,-0.005462414135415313,0.00200879658376465,-0.01144177783361927,-0.005600090535952818,0.006611601334942999,-0.008250931348946436,-0.0184984920649242,0.007370833074425201,-0.003916441570980596,0.001952992133549467,-0.0002982652112489576,0.006291714779056993,0.0112506493806985,-0.001772464301083904,-0.003212298933412229,-0.003839955655779026,0.006938668807648864,0.01058091236680576,0.01287647247751909,0.0003864268349098299,0.007390569428054984,0.001419058847647914,-0.008962416132171597,-0.001301982983092493,-0.004736911983471543,0.009314277743598359,0.008382687046480554,0.004379284738711201,-0.003643798764128489,-0.008830237469199791,-0.01231162346899792,0.003211111217276583,0.01028512308154202,-0.007174961848915781,-0.004721189163269341,0.01138248346542044,-0.008339515106395676,0.008990471933420958,-0.0112405505275784,-0.001060171106685734,0.01498867128340017,0.009417817915336519,0.000706001984193231,-0.004405396175972619,0.01484464486174255,-0.006890457569864358,0.007181733124076205,-0.001305298121575036,0.02123782369461959,-0.01232907644727446,0.006734190663285991,0.003458821706403488,0.008992185805770813,0.007276334645026045,0.005375313460825783,0.01536347959432984,0.01084899561365933,-0.009273405316848261,0.01452287453697206,0.005194661328450834,-0.004308067889287292,0.0002788197114396282,-0.01170854346003078,-0.004622490989525934,0.004222584658956193,-0.008645857513187447,-0.005110004203517549,-0.0006752715231613027,0.003265015646662931,0.003241808714865094,0.001787653804654182,0.004153241285394731,0.006232546276497933,-0.01013814476532762,-0.006471154354336975,0.007321024737957508,0.002328927008927246,0.003055406964261291,0.00907700393421537,0.00405354877642028,-0.007897422362272618,0.0006040835209916252,-0.01300839577374673,-0.005972622624461692,-0.001395817656065941,-0.01282985764171032,0.0004395809239278967,-0.0005495999371462246,-0.01186729055624323,0.002548105436700587,-0.009051317735610177,0.01205629217780623,-0.01049040732414968,0.007236842374672517,0.0002294883624153212,-0.004592448162898164,-0.009702911705933435,0.02078143069619831,0.01263509244167912,0.0172559596568712,-0.01488793934831943,0.02057520066848932,0.00226236234747504,-0.007611775821687854,-0.009791620071932385,-0.01458442276184851,-0.005476438702128451,-0.004923093790785577,-0.005902972044077192,0.008040708155510348,-0.0007835055656722267,0.001784700721044169,0.004642239290933732,-0.02498211846106206,-0.0109467064515309,0.01573381434985399,-0.006323875179612896,0.007726249735322034,0.006331980664304803,-0.01274317650133068,-0.0047391906448217,0.009826153131124471,0.01282847472008485,-0.001583248664706632,-0.0179123050612504,0.001933083924667285,-0.007070139480504999,0.001355730268992027,0.003956095000991843,-0.002339181652723303,-0.003466099373440804,0.003735135929265416,0.004039576574768784,0.0007684622689994428,0.007929800147658279,0.004610832770080013,-0.0138393063882974,-0.009185089723047749,-0.01329280450499617,0.007636702927765347,0.01473552937602075,-0.01613863632587078,-0.01358027790490404,-0.005468546452005512,-0.003464856415822208,-0.01938537576861253,-0.007423253803751138,-0.01581252155752571,-0.01249407199668576,0.002404749979009189,0.005584177629868441,-0.007126481521854789,-0.01246786538307521,0.008673573626010338,-0.01093190855650424,-0.01471115288535479,0.01903277369805637,-0.004948562397918652,-0.003360240602177568,0.01165604517619324,-2.427308015788942e-05,0.0159247088185267,-0.001399585124259329,0.02018259769310157,0.004047315130009351,0.004832858853745632,-0.001294121047897824,0.008658076147819318,0.007145162713916848,-0.01240378133696672,-0.006281631807178125,-0.003835342684165642,-0.006092584864645903,-3.962288904099025e-05,0.009457958365826094,-0.007223081258537651,0.007988398223762856,-0.01086909812601774,0.01007671119472077,0.004330267799288791,0.004331425220751479,0.004183389024431025,-0.01278807606765177,0.02140043036733684,0.002194560001782698,0.003754835413393337,-0.03387668972595106,-0.006486475911479269,-0.001270368987289412,-0.01023992230856643,-0.004174998798051031
0.01201683095281041,0.01486545634663765,0.003616513965005282,-0.003998708212393325,0.007622057466855,-0.0238862336078433,0.003126254322004489,-0.007357144278180123,0.00199078395436027,-0.003294835847666201,0.01356430794171931,0.004614615065370681,0.004348012571087126,0.02272078762856302,0.002053599063987453,0.010696380923069,-0.006024170304694145,0.008285359306675826,0.005661857103388825,-0.002258004883523908,-0.002742009503086113,-0.01802284047363263,0.01288891293594968,-0.005809693173916004,-0.007807100910124409,-0.02062747144397814,-0.01714410127304663,0.01602020081783471,0.008022526202249856,-0.002148309652208089,0.0118012834975302,-0.003615235299156002,-0.01054768999242073,-0.005978082982660092,-0.002624740834581636,-0.009271768445068905,-0.001385355469465807,0.003464870728227807,-0.01850663216948218,-0.0001117539128607888,-0.006686438137342083,-0.01033669274922824,-0.002052506645790632,0.004426493727748075,0.008459668611909676,-0.01272117447243913,-0.004665137244035006,0.01216021265348521,0.02320715807593222,0.007940846620506349,0.006823217924538803,-0.004896891566851786,-0.008218148356917806,-0.005790734515502004,0.01201601634458633,0.004591229549757902,-0.0002469885993657748,-0.02073896444598149,0.0043683799613941,-0.005338211328186304,0.0004324668537325172,0.0007441538828473016,-0.002243190068030514,0.01251747315611427,0.01308579939397786,0.008490168181475478,0.009488563352974339,0.01424194875870865,-0.01330221262363905,0.002727897001301784,0.004168408128795154,0.004857568857090307,0.01449857749738745,-0.02249502651018245,0.01845859073022144,-0.003575988040084097,-0.0137566428697215,0.001933558082184423,0.01423585802870824,0.007685802840921776,-0.002533943063594843,0.005856538383909624,-0.009022330235638637,-0.01336795182850432,0.00533748876379462,-0.009534783568774782,-0.002399341835954923,0.002420966726695129,-0.00869564748283509,0.01504771396635624,0.003174528524634312,0.003936223149029069,-0.002219377747935247,-0.01907477026968423,0.006155545254057451,0.01553658030735235,0.0209880826720242,0.008028142334652792,-0.002373121047806443,-0.0004024970768672272,0.01319083380832137,-0.01702002438908978,0.001528543776076031,0.01004451316390185,0.002450993781352303,0.003937068094547836,-0.01617546040381474,-0.009338156905428382,-0.01674185021144464,0.00974876517240501,-0.004360735702237482,-0.01488178445062865,0.005591229073289109,-0.02283043211830247,0.008898842350577566,0.0160891772752724,-0.02294471157971256,0.008105592221834965,-0.01767952077246734,-0.008810048992682624,-0.004486942532177352,-0.0178071595102838,-0.01301375068384068,-0.004520036961990949,-0.004697326029689406,0.01306247684559671,-0.0004539029974711405,0.0116567760484941,-0.0081446512272037,-0.005696582183272921,-0.01902155299124154,0.02344024341680355,0.007722791330706356,-0.01045439648090468,0.00547821210223265,-0.0103636931468809,0.01394833561839001,0.011350026353058,-0.009880180519294185,-0.002080096703949859,0.002321044014112565,-0.006430303481866391,0.004462245312863807,0.001856468800405953,0.001442866437235326,0.002858943259228837,0.003260496695604063,0.0133182873482694,-0.007515681454680376,-0.0119592593200737,0.008443878448873616,-0.00948582120891164,-0.003963631152536329,-0.006685724753986142,-0.004647804640995941,0.01395120982466401,0.0117439502722395,0.01138725764612538,0.003897647828152476,-0.001551842693305995,0.01060178914498059,0.01772902215563996,-0.002210768090978087,-0.01423138420970142,0.009722098800730902,0.0001120805128310998,0.004811730398777335,-0.006721221160107474,-0.004473420778305286,0.009199846744903463,-0.01534880263569541,-0.003470956442108142,-0.002364808391637629,0.0009434288444962125,-0.004699325543562416,0.0009091503657748242,-0.004072405946293471,0.008756179319685595,-0.0007944181221068372,-0.006595661963079444,-0.003271429348485996,0.000884906240302916,0.0002233558528190399,0.009975416562544892,0.01168300591303528,-0.007386667119877997,0.003871572865896656,0.01116753319359381,0.001573708480606773,-0.02378984613587935,-0.004250327285406892,-0.0005293956705440856,-0.003943027471859265,0.0209856463596698,-0.009466226773386321,-0.006505177880607744,-0.008566260541547426,-0.01368485589187042,-0.00647888507202621,0.01918352192648549
0.008765548359496344,0.001997135780138147,-0.009214089330388749,0.01350564934591955,-0.005413224575292924,-0.008472739255251608,0.006161181231050705,0.01404105821059007,0.01073785574496868,0.005528892102114649,-0.01351394569425082,0.01751668686655616,0.0003739008198793212,-0.0181633155669786,0.002448076508543421,-0.009440920598494287,0.001265938630304236,-0.007799939999277247,-0.01440086050025485,-0.005382295754295472,-0.01702439193296917,0.006297178274736818,0.01798572577080863,0.01192879877645119,0.004353294902204432,0.01758809245359675,-0.0002787424019854716,-0.01230339346179648,0.002855752118011124,0.00250251088495835,0.01089373181725898,0.0141948341843178,0.005619476652590007,-0.01217744798994593,-0.01120862130729724,-0.01448958209843283,-0.0149684920461945,-0.002737287649025918,0.0008573399638946088,0.009425368891577454,0.007904905528634484,0.01174402582596106,-0.009204492779828561,0.0150737096015713,0.01780197766262652,-0.0001592408897142702,0.002314834878383509,-0.01074810793172872,0.007335511236662088,0.01689704760893888,-0.01098236898412013,-0.001674681547803304,0.0006472161503107832,0.01122085853256042,0.001709718485428205,-0.005748743528053188,0.01432154665492882,0.00938829383963379,0.01319368270671307,-0.01563456532156086,-0.01964075050570995,0.001285367041498033,0.001837815343995749,-0.004712840052405572,0.01152160910270942,0.0237687119747379,0.007412044584687047,-0.01832646210618134,0.004203089756643225,-0.003964183210758828,-0.01462848577430564,-0.006597362106054327,-0.0002522576319441273,-0.01497345046203845,0.002647737246407085,0.006564106203595018,0.003068468680640322,0.008456224468132283,-0.002844011562572653,0.0226695905323317,-0.003548508376603539,0.001567391969523719,-0.006075464944555145,-0.005602819067322586,0.01704911008993061,0.0005703399567157277,0.00270161611998876,0.004459622184500574,-0.01298569026700613,-0.02153184680737435,-0.005575876745027705,-0.001577937564596229,0.006674697349339148,-0.005537476351122316,-0.01959997161177652,-0.01847328738514701,0.01127406862471686,0.004858377054045753,-0.006713893102758588,-0.0001641813140185869,0.01345535934807484,-0.004161212366530658,-0.0008855771720255994,-0.001367125358915735,-0.003094442123860694,-0.0007429914067699718,0.01251459682222142,0.006931425224206185,-0.01173149356633186,-0.005054544172682239,-0.01503022616415598,0.00836121747551574,0.01136753816382374,-0.002486416446814582,0.01414396071759517,-0.02426672400070245,-0.01883888087620639,0.001139208924130489,-0.009038236036135204,0.004187391980908073,0.01429774863763612,0.008334296138637792,0.01506816271877425,0.02154755055563575,0.006293668280817098,-0.009673562458337207,-0.004995516559136643,-0.005125726160153058,-0.01062727859776669,0.01057746524007339,0.002141744187650986,0.01079856384411954,0.001699672254234464,-0.005133006231881418,0.008658782306651024,-0.004731409979729063,0.0007612326983064518,0.007196169970572559,-0.01706159297988783,-0.0003961785157396437,0.0008782389023988603,-0.001117443770736576,0.01177417138987623,-0.001605094925671438,0.01821862001475793,-0.005289483397793451,-0.003062308156115483,0.004053227848090572,0.003830523603472781,-0.01081446578712449,0.01710621334986435,0.004423261438589603,-0.005464247331169382,-0.004263267843800243,-0.01215777638709093,0.01173061404433595,0.0003873226537452384,0.005792621406618241,-0.008304445813914809,-0.005325243422589191,0.02813847095499467,0.006894348186143032,-0.004162034188293638,-0.006791724372765259,0.00775395001641898,0.0205730276960074,-0.002965670228710201,-0.01339091798617382,-0.008664545727245426,-0.004923832164851991,0.003798760475332686,0.002287330005222038,0.004475074022745459,0.01547130886149234,0.006336173683416979,0.01475911347535974,0.009741807991828668,-0.01168893013167607,-0.00757685095069278,-0.01054391600628497,-0.0008648843687842447,-0.02331574571448925,-0.01896530998125107,0.006675305689865299,0.006862143592344439,0.0005833091203009492,0.005459431824291701,-0.001838281911652424,0.008739325164369344,-0.0054547680165002,-0.01886030401024903,-0.01797898963484715,0.008215605613337808,0.003730563349914853,0.004641669483614602,0.003434052611978646,0.008988087652666989,0.001168759793156693,-0.003169868368975389,0.0009447615308206979
0.002404445616425107,-0.01252184895078376,-0.01357299093341731,0.002974426975580366,0.02183994249363662,0.002273723875266505,0.002965430215520162,-0.00842685167151906,0.005254185456388146,0.02837867786419313,0.01153162028425369,-0.007998782042861722,0.008269062988464377,-0.02099393099185949,0.004105811153295439,-0.005740970099858441,-0.0144535782103904,0.001577447488109375,-0.01249773162944239,-0.001397774815437882,-0.006889576484853122,-0.008714446648564167,-0.008148014754672276,-0.0069671341425085,0.002701326237984722,-2.189684459156981e-05,-0.002250699835180992,-0.000647081081787254,0.02350986151543156,-0.006466827727729692,0.009567915371189612,0.0001154782799256598,0.0220669533554369,0.002411848069583703,-0.01030824505800749,-0.007263371552353936,-0.007536285730056569,0.01210612113251912,0.0163506845972204,0.008162547096021202,-0.009710971613628404,0.001200710767290846,-0.0122270054192705,0.004589930267932825,-0.004074557886216495,0.01097326457089026,-0.008736784760142268,-0.007407288902590711,-0.02027159587807971,-0.01360462859495874,0.008617373123261315,0.001638355567420127,-0.01159460705659653,0.001406483887448858,0.01519016354607278,0.0239584478890618,0.01060091177780745,0.005655170250547035,-0.001502725054665886,-0.01166222998302649,0.002519410581180787,0.00895882053505667,-0.01533583038893492,0.001781924159013695,-0.003329287403845217,0.001456141596010695,0.00888230632588834,-0.01157507203223393,-0.004947267280673676,-0.01044753836777975,-0.01047047536958162,-0.0001278374983810429,0.0005619634212411933,-0.02087491392285861,-0.009735915522769322,0.01900565255227958,-0.00379521146790438,-0.005725432501802249,0.0001529365360917935,0.002144436379726744,-0.00369307443632025,-0.007376038113062232,-0.002749813918627845,-0.01439423047392305,0.01322365049245415,-0.005068114831251682,-0.001358169957449688,-0.005994875683321277,0.006550918267738887,0.0002670142620874814,-0.009954958472016755,0.005687614404749974,-0.00610923168457923,-0.008876761429735711,-0.002100635342864061,0.01771371277472198,0.01009890074624368,-0.006682696338637237,0.008017125582647028,-0.006384207112071418,-0.01478271301218077,0.01703336507557113,0.002687291785022185,-0.008906250630971203,0.01213979038115183,0.01206602069759768,0.01103812651948561,-0.001621349660756271,0.01237687362631071,0.005572059307410442,0.007602641892737882,-0.003078598967882414,-0.0193935882321145,0.01295353624758449,-0.002866180690959017,0.007684962319881087,0.00220079505638188,0.01279438325318109,0.02107715232444345,-0.000258671090052947,-0.0005425827490613519,-0.007935103476957629,0.0005892354758142264,-0.0115398824374191,-0.03456324143972555,-0.0009678733326306832,-0.00771585246703228,-0.01760396202640386,0.007800329329320733,-0.02138311668257161,0.01341672150316838,0.004350921144403488,0.0122269513405687,-0.001233714486898508,0.01296669910003034,-0.0007259807704297351,0.007007424641747283,-0.00114377290366901,0.01339099690696101,-0.005758406683873053,0.003950446326507042,-0.00392357196939136,-0.002240097332971699,0.008315946209550852,0.003689859462597633,-0.01242751721963053,0.01391086735603627,0.002914180444105786,-0.002691651239403391,-0.01226626683146904,0.00526507056010917,0.01861340192290802,0.005507508377303189,-0.01602517534140943,-0.01587934465120539,-0.008564939420877488,-0.007588698780973477,-0.0004361723104249771,0.00138812091057806,-0.0119425615816593,0.02502205770107757,0.003546719482218312,0.006249379729103667,-0.00656825847644262,-0.02151881408951447,0.006326653724122847,0.02068156589355959,-0.01153571225090977,0.01161071614487618,-0.009916521078161161,0.002267784306488394,-0.006268805459863867,-0.004486581675350002,-0.0003751685606422637,0.0005835114085901388,-0.01132283650395037,0.007508877409951954,0.02007554206144284,0.003032138293670017,-0.02153009308665894,-0.0003138385263018227,0.00549259210959735,-0.01861796439231521,-0.003591676330953021,0.000782317440132804,0.01033027465784453,0.01231156708226315,0.01805930938840757,-0.01069585677963301,-0.005946672684546062,-0.02389304616882799,0.01179639347575637,0.0008941342370021523,-0.003366834508991924,0.0001663766305952345,0.01300737813898041,-0.01626797410360375,-0.0007336344489667924,-0.002035323272331871,0.0005265563326328426
0.00161003591555409,-0.004421969397403921,-0.008096602548000884,0.00276950592354028,-0.008313352935271582,0.005931517144990579,0.003193977516531014,0.01595749922614885,-0.01211813047023611,-0.01526224214727665,-0.005497354885360507,-0.000680885224829732,0.01235559209996353,-0.01252496814669136,0.01054363214029333,0.0123037607442144,0.001146823891492719,0.001938023319267316,0.01574130255879613,0.00882456161074768,-0.002075973472846472,0.006808419244064823,0.003847443875087782,0.01382961966931599,0.008211900537058602,-0.006007220630687646,0.009160933198400367,0.02127267016400325,-0.0008400932894147773,-0.001197948080300166,0.01264322951928163,0.00346740299734223,-0.01000901390961136,-0.01184599246825659,0.002403075715279762,-0.009938265391645934,-0.007340104754023626,-0.00610449052408093,-0.002024038354038161,0.002346544748667896,0.002211620192529419,0.0112326286243012,0.0003354987732199134,-0.007174763118241447,-0.004399377363970859,0.01112628872077683,0.005541437427820473,-0.004714805779643777,0.006438939364250726,-0.009734279787008434,0.006304877345258034,0.009236080049352623,-0.01876044071596939,0.003617975367768833,0.001798106200764193,0.002775363593114368,-0.001502700448079979,0.007390583046826849,0.002509032666612555,0.00632703009700282,0.003307475635004322,-0.005207126476950426,-0.004008949056008275,-0.002276889420797764,-0.005580691758354146,0.0007604682043403984,-0.0124683261069985,0.00708637845136618,0.005894337622403217,0.00364572919605031,0.01699947206994048,-0.004868671892946541,-0.001555335681722954,-0.02704438643223512,0.001465015640613315,-0.001174234575819067,-0.002977506643139511,-0.02299847600153689,0.004667509193608591,-0.005134747458921259,-0.01693451515467184,-0.01751361814874602,0.00659227522010793,0.0004795727849787792,-0.007548517334746699,-0.005237500818105336,0.003262224278748614,-0.001790260419504325,-0.01249395852574054,0.004788077336522478,-0.007031284816927131,0.003169602386484067,-0.003535454583449903,0.004588929488455419,-0.01245179453929653,-0.003220662338543355,-0.002379116890146628,0.0004258117315711303,-0.003579098199438301,-0.008552814754231926,-0.0004847217969297039,0.0122375244545177,-0.008361760879148727,-0.003774270841205734,-0.007397992722979278,-0.004020585640435445,-0.01033971863654933,-0.01150394709193055,-0.002147231318691396,6.011219792981729e-05,0.007434941596932906,0.003799278021578108,0.002131455021364181,0.006470287192635814,0.002256300729023942,-0.003128359185234538,-0.009006859608371914,0.01061413577528601,-0.00231697121378082,-0.000622716145136787,0.01034266335112601,-0.008208824406645934,0.003058962780318479,-0.006640406098990134,0.01022073125305732,0.005346631588645767,-0.008235939243509927,-0.004074994939555637,0.009853937271081664,0.01727009533803067,-0.0009251548832448699,0.01405297295239743,0.006949372498344696,0.013141544835595,0.01188610503350949,-0.008233196175785948,0.01051329893265572,0.01650843174323628,0.01257345321330628,0.0068564754776885,0.02287781218512562,0.01917189344657429,0.00909215036915159,-0.01264207123343701,0.0155135671218734,-0.003322782302532696,0.008208986647773631,-0.01341191097370931,-0.006882407829791029,-0.007557467152119728,-0.01525094751347289,-0.01744767885996894,-0.008987096086336771,0.005009876069411045,-0.01766605584545711,-0.002734347130783099,-0.001878347446495375,0.005808460525840241,0.002666740182396644,0.015668975382754,0.008666256111304798,0.002442217845391819,0.006695909815155405,-0.01350116136965029,-0.008303761511885027,-0.007230089430153538,-0.02742903208129936,0.0117868616106135,-0.004767831612232435,0.01301782166222351,0.00481283548230446,0.01856680692364665,0.02642133613391321,-0.01102616072755457,0.007351833885785722,-0.01207013638405352,-0.0009622157813728336,-0.01320061178394493,0.01709320402844493,0.002719651614332293,-0.01260746323231704,0.004592238202844265,-0.01764215217886352,-0.008135752145004426,0.01675429110282273,-0.01221790000867391,0.006873563175894506,0.003372464363255361,-0.005377515369283388,-0.00987460300127301,-0.01068224957433453,0.007020687655331579,0.0001897710271437641,-0.00219249875195902,0.00767950439782941,-0.02532104091772151,-0.003558856426610922,-0.01535195867306451,0.01455271998642704,-0.002100571608139898
0.001463832449325731,-0.02992255491217913,0.0123940989355944,-0.00603600207884693,-1.827119909213724e-05,0.00680768236361259,-0.01271043016615621,-0.0007236834108611802,0.02226041944691773,-0.01916627255497796,-0.01191669482931163,0.009650452087065697,0.0101112926796383,0.005201723016109078,0.01215670835439023,0.004276562828144216,-0.01261883960823272,-0.001771708815262885,0.02030311215627995,0.004715708012753658,0.009463663371710925,0.0006364942600115926,-0.004428116168993209,0.0202858197736255,0.0008037694414329709,-0.002992003412475521,-0.01807480854837294,-0.01249456624417738,-0.007176428942455222,-0.002704856781831708,-0.002585850443399315,0.009556955562775421,0.006731273841074553,0.0003605785403372183,-0.000182163788828345,0.003534312163258085,-0.00887631780812535,0.01410980304694508,0.002654809413272897,-0.008539228442441951,0.006085531027026669,-0.009742937287680619,-0.01078829294116654,0.01717920093145716,-0.005303744036354648,0.0085237494843992,-0.01717005159734594,0.005700964632731584,-0.0139419458708352,0.005768949414479605,-0.01587434133773755,-0.004132942534119085,0.009301773864141773,-0.001789069769819611,0.01453260277734159,0.004355848285907384,0.00993206783781324,-0.009466115683357066,0.009912953252564286,-0.005643296313388469,0.004409871432172795,-0.00689518747791411,0.005288169291551521,-0.005451787611093051,-0.01450447143084499,8.205624122059873e-05,-0.007461533346981583,-0.01106830809183157,0.004393576769510206,0.0003130637641658506,-0.01797018650407779,-0.01507321098351507,-0.0006805041112120918,0.01176528120360138,0.001207397963957726,0.001522293021589579,0.007785351047522131,-0.005925445369197636,0.002660343196581579,-0.01198934276522803,-0.007484047549151233,0.01527282107850992,-0.01273829426154933,0.005851546828912831,0.008158877564486321,-0.00724330027112549,-0.004409585723557622,0.006597445697569847,-0.008073378318642431,0.01512476665857096,0.01415944436929113,-0.01883653509506356,-0.006238016692815389,-0.002461160554931729,0.009447890206361942,0.001327626339671774,-0.008184039810709315,0.003648659793040173,-0.01587623853887177,0.007137158169477796,-0.02160192136233518,0.005721325363991203,0.0005134615661450628,0.006464690066950314,-0.008834103792632119,-0.01674121564506602,0.01418671671863511,-0.003366313922414321,0.01161102378022863,0.007603885907823136,-0.01245496807125776,0.01816880930164682,0.009395293305597893,-0.005539778297383648,0.003489406790310776,-0.002507419661597887,-0.001466699589656629,0.01561016541718866,-0.00492813873928111,-0.01368110901368703,0.009845388689046429,0.02760772696176602,0.01471746912187659,-0.01196196095049283,-0.01144637546404818,-0.005056503176561073,0.007085686790501513,0.01075495415035707,0.007113636446122637,-0.01966273282443307,-0.002539449572105893,-0.005940395900755293,-0.007257253471838788,-0.01493102840430073,0.001029761056459975,0.003667178250748775,-0.002105885370802473,-0.002085204895903294,0.0007911345235822802,9.431115405987868e-05,0.003909740821063935,0.002682936474344699,0.00306540262062717,0.008932083393834256,0.01010344390421002,-0.009373516665426143,0.0020964254932934,-0.004448154074820688,0.001656574760103322,0.01305449826541182,-0.01602283011419195,-0.00154915568475267,-0.002447282370754676,0.0006990610087996022,-0.003909061604938493,0.006011467164880261,0.004763845255015931,0.005699190919841614,-0.01029030237017181,0.006705735583385618,-0.01076606063005741,-0.008633701447215132,-0.01343743639482953,0.004715793933436271,-0.004011081560060846,0.01378239636907468,0.008214494729220137,0.01056165552134129,-0.01536449522404137,0.01422748413907075,0.007371163836649049,0.01631991072277597,0.002571681787991388,0.008295268165774057,0.003907393889674731,-0.007839209643251818,0.006990449798016905,0.002003185390758794,-0.009232620053072018,0.002894632380468513,0.003929135040575129,-0.003228352856566648,0.009490042186109843,-0.0002551914605335294,0.008705928829064669,0.006774011777591097,0.004219034530437584,0.007595474547594108,0.009808753845825021,-0.008918554946840249,0.02745880576342696,-0.004481851019315822,-0.01203806035882227,0.002290121141012643,0.01082161650371509,-0.005261491479752519,0.02095358025717884,-0.01415355431945197,0.007417990771656372,0.0009125638265231866
-0.01244342311453777,0.003232500197165567,0.005280889251417152,0.03354434301644004,0.01270831591803082,0.003619533246915859,0.00672945230370478,-0.001495886188895445,-0.01776291081782831,0.01368246195120669,0.009655743796052996,0.003464952261143737,0.008092814578943917,0.01928470774729157,0.008155692934285396,-0.003098468470406216,0.004413036935326881,-0.01256006985010719,0.0009855034290695013,0.004277502501274395,0.005059387353561442,0.005337555706258774,0.003519720284403639,0.002471059674914383,-0.01073095166992272,-0.001358154593577809,-0.005968310515666984,0.01200522067163376,0.009078656836649379,0.01500786030825183,0.007747105738073779,-0.008927715906462236,-0.0005018745642928465,0.01734920333431933,-0.02104110173880986,0.003503013985795832,0.009826921509150819,-0.004120446277120144,-0.02247820435860636,0.01127665988580434,0.01494569601537327,-0.001185417970788076,0.02278539810520407,0.00693653520332049,0.007280087428328077,-0.000962134252194138,-0.01032795589733473,0.005435009078419191,-0.003853161418139441,-0.01108230378607737,-0.001826349402246568,-0.003601415147872917,0.009344550145936943,0.01530416270322617,-0.01158594008813946,0.00965327221989493,-0.001868913477219299,0.008344152603689425,-0.001513201556481804,-0.01640104227011089,2.235298542690291e-05,-0.000389681626874089,-0.006868593437443747,-0.01642910318150649,0.006233563554197337,0.002333027901162169,-0.007871911556620785,0.01235546252983025,0.0008050295631244096,-0.00748212014807908,-0.006244623207827637,0.005398359530848966,0.007157745883121929,-0.0005206943449030202,-0.003605485020867273,0.008388926414324538,0.004696346580183963,-0.003581665902929742,-0.001972730489853071,-0.0007220400031213362,-0.0007279717723967673,-0.01006874785408373,0.001520740027827758,-0.009730549298291202,0.002036040421665518,0.004059147001833037,-0.00752348134042995,-0.01040619834105703,0.002100239135648248,0.002633692692261386,-0.007476753152526672,0.0007237466792764185,-0.003431172815063684,-0.005739435971260133,0.007771328983602248,0.01298275951449112,-0.009907597363752366,-0.009238343986122298,-0.007404843941173888,0.006719788538245136,0.02254141235524039,0.000906645770810234,0.009557178703049646,0.0003597398581216664,-0.01390056496725243,0.0128009191210171,-0.005223959877268744,-0.005523311392904118,0.00829426174650722,0.004644889810059214,0.005624773638998908,0.003170412442244843,-0.008938988041827741,-0.003658104282075974,0.006393546995182549,0.0001176034365792403,0.0161008889065647,-0.005274993933719305,-0.02170305852708755,0.008358366109084091,-0.02248017669118558,-0.002734948496590811,0.007309945784424775,-0.007024185062098544,0.01034262066773451,-0.01234229948364148,-0.002463267336819635,-0.003134462089126782,0.007638146583134723,0.0160572055166924,0.01814397838254451,0.002842362394870493,3.511584529076475e-05,-0.01345138686454661,-0.001646462385304053,-0.003777073825717999,0.01050468587075026,0.007373028028215539,-0.003071325574571768,-0.008186722108816756,-0.01031170476734223,-0.002802510223262358,-0.01182030616462449,-0.001085550804493811,0.00458831343785882,-0.02085808990236566,-0.005621144484404142,0.0008535506818090012,-0.004105484259815931,0.009431000071881433,0.00707133945626104,-0.02161268117712098,-0.01400981389000721,0.00884026172056564,0.01229745602183747,-0.01959713465345467,0.005119797699061783,0.01181114446665107,-0.004087870791484874,0.005627021405274299,-0.0006121192531252096,0.003700613613619843,0.01091144622768931,0.007882655394470228,-0.003638514727533999,-0.0003050119979624916,0.0002506165318785509,0.01273914478435155,0.005385336327760693,-0.01328971068734738,-0.01081406919610963,-0.000636673165216056,0.02601547708474464,0.007253531683520486,0.01631780195701097,0.007766264554219148,-0.001534518071347069,0.009141434991772153,-0.0002818714799815213,0.01850068655489757,0.01124367020977773,0.003847757243087418,-0.007059891023890583,-0.00193130874351461,0.01259166529985315,0.0187507431781458,0.007518082142321117,-0.002162921194453839,0.01457700925672381,-0.004730558334361068,0.0006649687991958637,0.005453229480097194,-0.003615917682360074,-0.01096698740758901,0.005213793894359177,-0.005167398858602628,0.006788420226233521,-0.005764840749401497,0.02712898859985891,0.006656114286300459
-0.004630410147107076,-0.004666547316100126,0.002196459120570441,0.0180719537446093,0.0109558181543449,-0.007784260454407595,-0.00735418387931268,0.003025697290057439,-0.01293428095493897,0.007581440322352496,0.007591433940531587,-0.01296308845591026,0.003904179679553254,-7.673330533394953e-05,-0.008374568074109412,0.007808105111715575,-0.001743050374718384,-0.01125326489455955,-0.00165035680871004,-0.005941606918925768,0.009661131253624618,0.003604831673573344,-0.00517840200471484,-0.01102582995419296,0.00362663779398792,-0.0265167025498892,0.004320422629377054,0.003650949924555116,-0.003670279861666289,-0.007926559089102484,0.006278065536156128,-0.008180607812024393,0.02886235272545484,0.0181186296895786,0.0004265087243016861,-0.02096486016343693,0.01334628673156411,0.001230832119776645,-0.003654478634209448,-0.0160908683432473,0.003051481966122577,0.01447627551505601,-0.005243839181177437,-0.01051942314106852,-0.01401841719858648,-0.003461074474123843,0.001187194076896974,-0.008521290415840016,0.0009408129019787314,0.009816399483605284,-0.006286560019994656,0.002047364097056379,0.01171906014211195,0.0008826339026543137,0.01133773712711188,0.0001589390513735869,-0.005715977915167494,-0.01228641825398441,0.0001765097243595762,0.001545724028645467,0.01822756538310097,0.0001118489406979059,0.008608926499254026,-0.01120170849688435,-0.004755440481646135,0.0003443019733888636,0.006868782454750868,-0.0006830317850411503,-0.001635847465075551,-0.003205874902047306,0.007380862425011296,-0.006400254983312289,-0.0001865010567740163,0.008868363729110644,-0.0133140751362625,0.00296059168053512,-0.005852503810536813,0.004076597326858805,0.01348937374524875,-0.002683954532357087,-0.003355178581265634,0.009042013701685964,0.01122802338109243,-0.003237478582846578,0.002704778217698481,0.006990530722949042,0.005369313043675266,0.011620786722732,-0.00738752353569335,-0.01291020334774274,-0.006068977543347362,-0.01183853432705447,-0.002317247682336925,-0.0009626599243025945,0.02156297462175195,0.01740881382653489,0.01508031382404184,0.01207366632204356,0.002659457132513709,0.008803435388296739,0.005569687032672889,0.0004197718036771183,0.004866950206721249,0.00185264369335906,0.01241766640008787,-0.001295055374953805,0.005781313505061354,0.01049904662335172,-0.01046776401529607,-0.004109946222926609,0.01151042250417498,0.0005491041687356899,0.008365009184926052,0.002451105666793691,0.0004946150242659394,-0.008748172205703017,-0.006848838392960622,-0.002883914786269006,0.0003694206904262509,0.006394676283976418,0.01794867050471822,-0.001071310055190301,0.01964188884073208,0.008439603666349566,-0.005547529401570626,0.02076705455242031,0.002366398885502503,-0.0104128947495136,-0.001139858063216304,-0.002876832420653435,0.0213268448229796,-0.003602817923696339,0.01347491160207454,0.004904286016004817,0.002708090854839909,-0.01130943835911479,-0.003006003212517233,-0.009929824482295976,-0.005357188160331528,-0.007585229740644988,-0.01693297649651768,-0.007598519115169717,0.009639503914912594,0.008174223957067106,0.006637847161077555,0.007285249270436556,-0.004215719302852593,-0.0008184483432996195,-0.01370546215770339,-0.0004166069254289944,0.005575938311875614,-0.006160666316354096,-0.02204922437582888,-0.006347571315398622,0.002288411457347625,0.0009618268371311406,0.007716266273584472,0.005398405336959302,0.01401124579856949,0.006900276292109686,-0.005195066796968315,0.0039360342155713,0.003166310933656847,-0.00397749041845713,-0.01486629282375289,-0.001115958700414708,0.003291110389867439,-0.001576930916154102,0.002384905241080028,0.01694279185508732,0.004131386251156158,-0.01737107478616626,0.01124674128870751,-0.01439184695962083,0.01123016150819835,0.006713134822046971,-0.008544692879895937,0.004575852293410305,0.001194724814966122,-0.01615991437418134,-0.003278686278141182,0.005277352687812297,0.006642518921788298,0.0004246504068818112,-0.01182520110530424,0.01567487909169571,-0.008389510263439637,0.0047692112959668,0.002480896578104428,-0.01319908054907356,-0.003062647207200651,0.007985264864528278,-0.004508882164437928,0.003899605417738999,0.01201918146179893,-0.000551804949136118,0.001127805601010049,-0.007584442184485382,-0.003104816681639938,-0.01700884124439251
-0.001861627768028199,-0.008186140570256571,-0.01451504581968991,-0.004522653550199496,0.002082924556671651,0.006461836659768135,-0.002296750024944255,0.001413233470447051,0.009390682661011939,0.02678075163491441,-0.004838530988626352,-0.005241597190626269,-0.0009285038999695384,0.02120078149097483,0.001140101419838866,0.0002445156961971218,-0.01490024798088869,-0.009090935842608484,0.01601746482937797,-0.01068095646447836,-0.003412542832154745,-0.004013692277700227,0.00417885805631308,0.0052617227863572,0.003569800702798915,-0.005720413928652999,-0.01516144944737062,0.0009518745805132352,0.01307421834822162,-0.00498711734059905,-0.01518726215880693,0.00793454564646906,0.000895036700659964,0.006607224564263985,-0.003050088015132654,-0.01021645131045369,-0.01672075370460399,0.004351208149027118,-0.007784537473628942,0.01612449737753478,0.002051786860803663,-0.01301521070726415,-0.01199852626929949,-0.0006533554718156706,-0.01127957106944847,0.0006054538100040832,-0.003313772047373083,0.0167801739130141,0.000269448333309742,0.00462418162346805,0.01374542822780393,0.003134711602160694,-0.009913590285690638,0.005570218092451102,-0.01087261037925655,0.002980622044244119,-0.009682595302301816,0.00776647357780554,-0.01295532662474094,-0.006148729260111414,0.008129739047660334,-0.01716549953424067,0.006767427962994626,0.006497195312466869,-0.004511614910013647,0.002177111796498724,0.01305820094650937,-0.007227820617320563,-0.006936879592127909,-0.00600694086973447,0.002642761964536701,-0.004209896987680642,0.01725639297695625,-0.01654782724865427,0.01279785559498191,0.0116789033809231,-0.01151890594527395,0.01828391085892768,-0.006132579834773708,-0.006303317307447764,0.006845742637296529,0.002281808163915143,0.001665212772802795,0.001914780555395572,-0.004750620973369399,-0.003017011208287878,-0.001986874244204878,-0.00712165777452971,0.001021524164173227,0.01866177730695295,0.01839512787663925,-0.01973279153154872,-0.006835881255097109,0.0003878086759200267,0.004913847066507755,0.008263839716256646,-0.0141500821167976,-0.01022305890032298,-0.004063561424023106,0.008906248321938589,0.001109319112738398,0.002261913397695884,0.0002153819788813948,0.009800282900565572,-0.003545554481522953,0.003765362458891414,-0.0005951692438100034,-0.003052003956808957,0.00464484640628501,0.01272407854063554,-0.01586945405837716,0.003213495155059463,-0.002247594636175672,-0.0009754792590439254,0.009122520083145125,0.0003198243727834666,-0.005893541920502938,0.0006527645665786284,0.01189305664210208,0.005270520347392124,0.01419597752782056,0.0038340927190025,8.204290942022029e-05,0.001950103161579279,0.008513856569532907,0.007185761149771874,0.007696591586595749,-0.01015763880711251,0.0005666066864174065,0.001610596135533956,-0.004535990640152027,-0.01624288440093544,0.002410559686136241,0.003134353226378707,0.005174410361960236,0.009698192419656615,-0.01173471252949703,0.01101780825232671,0.01976373262451207,0.02579050594721085,-0.002266420970073205,0.004121877542618004,0.003940823878981825,0.01148852017734664,0.002689998710018517,-0.0004182818546454011,-0.004672547277114567,-0.002546846205623789,0.005106934121938712,0.01348055227439905,0.002402229589871387,-0.004253201571508459,0.01619071502046306,-0.009152669160325351,-0.015274641616592,-0.01430802241342492,-0.005635648127650923,0.004453732591486649,-0.005100676752632622,-0.01049012343502145,0.004507230541651757,-0.006733504592453162,-0.0134210412819535,0.001124961332884049,-0.007148875435021003,0.002139122893699783,0.0065209630302608,-0.001285346089949219,0.0005377205065923376,0.0003977946504014805,0.01636899454982681,0.001952035663536122,-0.002306444758977883,-0.01696219315442075,0.009234659302573901,-0.005019503000345544,-0.005190050993021408,0.007876149077040524,0.008590961805587801,-0.005936840689288545,0.007470064751113721,-0.000142407809181076,-0.0005409474927960174,0.01299930828777221,-0.002130253477809322,0.0178567965756906,-0.004654726132986817,0.005295995032317653,0.007333421340148238,-0.005527824707992331,-0.003408077672565168,-0.00135957497073443,0.01561733216714813,-0.02579186094680372,-0.02113255929377659,0.01058156742380154,0.007340863644031911,-0.01238620292171157,-0.0188570506653827,0.02626547666994152
0.007556104760050968,-0.009716904977781155,0.005926649080060738,-0.002954141841716044,-0.01076650460459958,-0.01093669929657024,-0.006724530459753085,0.01454359684302151,0.01771703893283568,-0.007921194154798687,0.008295441920198742,0.002507830679317515,-0.005200325041344921,0.008626291687694588,0.019788544417933,-0.008592808471074572,-0.008666852667074686,-0.00332672049237346,-0.01319424640735341,0.006415573232082092,0.01058048072941997,-0.01664572967280925,0.002951696004986594,-0.0006276461982906137,-0.005662623402553548,-0.003315080619021607,0.002633418224117291,0.01032435502908085,-0.008160384301268288,0.004156687238676888,0.01105406398769633,-0.01424463796875222,0.006084914886541403,0.001506070061465851,0.008564590358644607,0.01128049896982535,0.004267798083146606,0.0003209241164256255,0.01661320833967821,-0.002183706069389021,-0.006776295966688457,0.0009305579251077591,0.01465126998283568,0.01580371797125013,-0.0122285903751994,0.01226848337323927,-0.01003576175838178,-0.002186251042994249,-0.007113170407707314,0.009016099797263862,0.02077524722816798,0.005699039542005386,0.01258551911636028,0.008828497464180971,-0.004239668325709392,0.001911235976617938,-0.03056894821449012,0.004285461329491615,-0.004277055224716334,-0.01570390583690471,-1.712936283990389e-05,0.02142101495386128,-0.0002004343982617491,0.001903903615357607,-0.004917196776371103,0.000280267403482546,-0.003079554582791976,-0.03129321355662334,-0.01538287472550548,0.009429675698812567,0.002745537310427895,0.006511290876645255,-0.006557160287592571,-0.006371638051263873,-0.0009895264310647472,0.003405668784397702,0.003719042291437133,0.001725810551235353,0.01185149351203589,0.002877732556962631,0.006645360852348929,-0.002644397192871629,-0.003727372291808032,0.004067737540152863,0.009454311170667895,0.0007034740631885789,-0.01776947934722152,0.01080990548196359,-0.006733622796686849,0.01954875756913513,-0.002339841568224732,0.01092503510653331,-0.0008305247708495289,-0.004573100421258473,-0.006729461472355754,0.0008512659256346412,0.01067133789636935,-0.007404829421233019,0.006797556931924104,-0.005049288090637953,0.002248980745234007,-0.01199040769227807,0.001472625827301947,-0.00591601697183294,-0.0001563502747706095,0.000633879460522226,-0.004399569579653498,-5.52204621626675e-06,-0.01355027622274361,0.003371350386515853,-0.01126256063203225,0.004217237583478285,0.005673922776983292,0.01525650945997942,-0.006182744102110724,-0.00937676815840211,-0.007909074368240974,-0.0004560435936304576,-0.01127236340293876,0.0006558991078802758,0.003428109698305788,0.01594117225044527,-0.001890764555669978,-0.01730550219198106,0.007418549191931282,0.0004592453250378157,-0.002072360628281524,0.005613491432513728,-0.01598038665613237,0.003785244405123355,0.009006970001656022,-0.005240349710339482,-0.009008027963942445,0.005656278377405847,-0.0003798550190551695,-0.000407983781425854,-0.00289249224613518,0.005364566583698501,0.0001288196294277082,0.01077356055338975,0.003599487665492581,0.008801287254180716,-0.004979805927281243,0.004211031343368424,-0.002962726526398057,0.0117467362364872,0.0005708578254730136,-0.002146106249313482,0.0008609595404877495,0.007014633856996789,-0.0001315930982736713,0.008789001107305469,-0.009049050164149575,-0.004068422780568151,0.009845172804845554,0.003717779182335127,0.003083486454585541,-0.00418678232105808,0.006317382079063844,-0.01748513463408199,-0.004114039613076915,0.01574335831716713,0.01400282864851048,0.001289014743594468,-0.01771771960732758,-0.005363835073530504,-0.008289190832700214,-0.0159632855134077,-0.00575022585677521,0.004154867517482907,0.01626562661830626,-0.009622818847115902,0.001121598884134396,0.0006592960741827641,-0.005502640769977771,-0.01516040130305928,-0.006181035902566326,-0.003510508811648234,-0.01284846057024245,0.002086826352779052,-0.01539813723912421,-0.009297971508926741,-0.002564526618773969,0.02852635905787218,-0.008956554317327638,-0.007283399938062421,0.0007468400594143548,0.01247705204999586,-0.01571840299603105,-0.005621056914800365,-0.002998955495011875,-0.01237798228924881,-0.002494046072960854,-0.01871319390893367,-0.004828621448431132,0.0053993064321282,-0.001576624412721988,0.005273723765837021,-0.005261827914594946,-0.008933574142693239
-0.004414455455445038,-0.001440413306606257,-0.0171397223104335,0.01389013196075754,-0.00545244780844075,0.01009240028690097,0.01061031685950261,-0.01080633264321042,-0.007033628265784468,-0.007080591220612487,-0.02162836169130718,0.003798211110177128,-0.01344331163127814,0.00792904876068899,0.01229300479729935,-4.091272656352279e-05,-0.00759877938262129,0.0103269189077108,0.004086602412542848,0.006962077599174494,-0.009489656782278675,0.005162926059283365,0.02508374303939541,0.004839343911712499,-0.0008933150114024267,0.003656825588284028,0.001248484790934626,0.01588506360426918,-0.006847828656422665,0.01611660021260633,0.009025615763864594,0.001938171816284894,0.01129882951167236,-0.01159919507536733,-0.00114307761590163,-0.005562458572741596,-0.00995052747770271,-0.004412146049820445,-0.007378937797909326,-0.006643394798775418,-0.009464088299173628,0.01294074431152984,0.02432070578879418,0.003177968353071056,-0.0159453735840158,-0.00394595510948189,-0.007670682313697255,0.001416527674842585,0.002602591710955511,0.0106085449368672,0.004180767818134199,-0.01015992910825596,-0.01075827553921886,0.01119537612904748,0.003822745065469686,-9.658360845591522e-05,0.0009962479616396601,-0.004400175498720628,-0.002577937690675297,-0.00334212317639557,0.00572558746031997,-0.000863261467614376,-0.01137855010578993,-0.001105016817786224,-0.008428514635840363,-0.01413096182167781,0.002622319869887668,-0.007823338500152779,0.0001504548981837741,-0.00348883534393942,0.02017766452757747,0.0222247184194957,-0.00136531456899455,0.008091990464610063,0.008511533715508734,0.0150474780170519,-0.005581383392612922,0.001640083387214272,0.002813432307267041,0.01318665815502637,-0.01838681006198548,-0.01039755176843147,-0.001592671090685483,0.01284378220840733,-0.001549930605504563,0.01057217735810223,0.0003358977428005818,-0.009323388177604532,0.00731178041228631,-0.01895325380081477,-0.01244620063283327,-0.005691425194414947,0.004381335820098133,-0.001744384596870041,-0.0006371764355074489,-0.005936902007097808,0.003970513817116631,-0.01646325508791503,0.01245445563356752,-0.009490260624829289,0.01549152007078436,-0.00632149678150217,-0.0008972554371679912,0.004667876857371938,-0.008410215417413318,-0.004881873204366387,-0.01239630027381247,0.02364598517821848,0.01009517475235633,5.556361400970869e-05,0.0007288126873444599,-0.01157413490232308,-0.01788999910105065,-0.001709178637906225,0.005228636954600854,0.0009264743236195181,0.01753112414299858,-0.009117882813440991,-0.009704329417563093,-0.004960077672070489,-0.01331145289221332,-0.01595296924941335,0.0115932870001299,0.0007919432492651657,-0.007137264393343838,-0.00383032218514021,0.005269433513738441,0.01033111148796374,0.02140690230614227,-0.009150153936206502,0.009514076798383102,0.0008425365893943211,0.005197178949995108,0.01417196965472044,0.008062203377623133,-0.01047803962999846,0.02586589126754229,0.001956796760577471,-0.001560750166475446,-0.0007452225419628161,0.008704501717067777,-0.00623344808095954,0.01114211474320535,-0.009328076757773385,0.009175756389669608,-0.0002928521313634352,0.01440141816268074,-0.007986862974368028,-0.0008222985547371656,-0.006627113985585973,-0.002979964364218925,-0.01333399234458511,-0.008793627229304379,0.01087818757179045,-0.009560443066885005,0.005226545306896664,-0.005033451917128676,-0.002385474621505799,0.002067252173284966,0.007446277435654535,0.00383778247937579,0.0151801419896732,0.004129102855301637,-0.01642463681435859,0.01428700729658419,0.007493066979154233,0.005206991271216992,-0.004410675669705729,-0.0008968588619386717,0.02167755932126748,-0.02411371792502978,-0.01809677516030122,-0.008440013539019197,-0.00670012237845216,-0.008869861787228896,0.01416864270065514,0.002866925848202629,-0.005209890138174176,-0.01224194888823299,0.004584193562131774,0.01356911551488417,-0.00147786514791631,-0.009369359565538072,0.0008588517073737471,0.003530910847788961,0.00243255530580362,0.009305268605234738,-0.001248862145206802,-0.009021083295065867,-0.01403807199432422,0.004747228139270394,-0.001603755244640035,0.001994871671443787,0.01181077273592604,0.01225226783114497,-0.009664182916077039,0.002119767581968308,-0.00639131499979625,-0.007809629896842942,0.002025273806128511
0.00410153018583248,-0.004583200766259809,0.01764213918899788,0.01335501454532449,0.007899020237887834,0.002425463263930902,0.00662864137314515,-0.007709070674384108,0.009050769011859803,-0.004792356625502818,-0.006295551556452005,0.002474215862022719,-0.01668036828211526,0.006994531551870959,-0.008822726823702063,-0.001333340489917354,-0.01419861310603907,-0.005902163956510382,0.004445866437353712,-0.01451454174530986,0.003658713680179997,-0.002992141342568865,0.008145596005490885,0.002077553135868355,0.002709947583227787,0.01355776068118304,0.01856039343312745,-0.001862989669803258,-0.005680815364644482,-0.01114476046150924,0.006595162371750265,0.01262127954137955,0.008048347933422292,0.01309204894944243,0.01654492851894319,-0.01695384210941633,-0.01379273042009464,0.005070900104386268,-0.02079852481300568,0.007923572032721713,-0.006187086429508474,0.006538304753874258,-0.007600490125976046,-0.04034858515217483,0.006592767589139006,0.01064242206622805,-0.0123656903541063,-0.005610330221026485,-0.0003869490161385993,0.0002056352824345253,-0.01130639010278409,-0.01921671468367061,-0.009627343804231584,-0.01416202614428753,0.009250794623964885,-0.004324931324373665,-0.004111894876681518,0.00747658764775022,0.00100368616744909,-0.003627279730893772,-0.006219212470123043,-0.007339447770426269,0.01095014231261448,0.005752946452831201,-0.008203244208723022,0.003479750091546926,-0.0005608573510817867,0.001196436253485242,0.007200828723145009,-0.01898483543317611,0.01071219224377021,0.005815156013707674,0.007876409586770296,-0.007255904993072701,0.002670590624065931,-0.003668018036018014,-0.005955416542625299,-0.009739501862268872,0.004538206221755809,-0.0007394048680971727,-0.004676068475052966,-0.00816125538633982,-0.002222519783231958,0.01595640938311334,0.006899026000834394,-0.0007946335039653667,0.006525163720984047,0.003873136799785818,-0.01271053092363102,0.001318061201330102,-0.01608147293696339,-0.004402851620516426,-0.001815906088273484,0.004644593277934904,0.01398543797227465,0.003774242015226619,-0.01157044400002766,-0.005372102386763019,-0.00745769645056824,0.008793972451298015,0.01021772540926692,0.00309032634186594,-0.01030579779403884,-0.01583989527114797,-0.01774029204442244,-0.007979926664795862,-0.013260896169813,-0.001052429287705721,0.002623516943814394,0.01235978572998404,-0.005404243462355149,-0.01140473759629525,-4.882937973483943e-05,-0.004472707887661505,-0.007647024539825522,-0.004107558911257477,0.003229111232270073,-0.01573193835395081,-0.0009246027060995271,-0.003734915673034164,-0.0008069611720670197,0.00886951478684501,0.0338472724358964,-0.01048625977586619,-0.00273099640275429,0.008616624124022088,0.001116325436627067,-0.002939464673260872,-0.02565254797000047,0.008890079078967938,-0.00538276534684913,0.006691945036368176,-0.01244577163634911,-0.009828923709451825,-0.006707782821910182,0.0005314225185323743,0.00827324623802515,0.004384595131955257,0.01614299679121218,-0.006667802458831185,0.0005973194639859712,0.007370866315965339,1.118893771491054e-05,0.009757728670701356,0.01060327049399904,-0.002475367309624376,-0.007346350937993512,0.004444877515135738,-0.009866290514519611,0.01340812583330521,0.0230274457526054,-0.004235734959048196,-0.001300627392314651,0.00832724114384188,0.009076741494757146,-0.009122625524127853,-0.01648684427848605,-0.009038414826704201,0.006361802359491573,0.009176422469191363,0.005907958999294768,-0.01296787921993654,0.001523870097875935,-0.01559560909901304,-0.02186041136783318,0.002735120161398353,0.0106728487583175,0.01039981183906352,0.006466876877676407,-0.0004407100918803043,0.003994937634372983,-0.01320488056806729,0.01154123383616159,0.01071803396990772,-0.004205619869149063,-0.0006977738328434743,-0.01198362191073141,-0.005131062349749801,-0.007745923429344514,-0.02370748312595863,-0.01145442859483399,0.01459200863384154,-0.0258758191574549,-0.003362008277194428,0.008936076660851987,-0.00976681799859961,0.004777681806977106,0.003998917418382432,-0.0003545164953130178,-0.01522939944337698,-0.005927157833804435,-0.002150652681004184,0.00162573179985299,0.003904130357522453,0.0001098502231088048,-0.008720569574062302,-0.008292742602345965,0.01545721367690135,0.006707356406588412,-0.007870774581491049
-0.001819215647286082,0.002150787273405791,0.01540483134839252,0.02049437589557371,0.01205103026049995,0.007253054919004869,-0.01079953302424874,0.01706324535567764,-0.004886478996746497,0.003881511678656794,-0.009007494279276381,0.001576662424200009,-0.009510222323335408,0.000298901733841793,0.01167413515055373,-3.051706997669301e-05,0.01819008417755905,0.00361587016852719,0.002619232381773068,-0.007176409764307924,0.01029019467154156,-0.009189902383377239,-0.0008977156025740624,0.007437123815677665,-0.006729061006206268,0.0006382954266610133,-0.01373781058533916,-0.005537835968519672,-0.004789497558395616,-0.003618808063579312,-0.002420671311785091,0.008028333842497379,-0.01093242179932659,-0.012968356317558,-0.007285017078019172,0.008714614746508637,0.00973251955600685,0.0120647426199405,-0.00710281119736951,0.008351463974913069,-0.006693992021567625,-0.006365577982018191,0.0007434305646584433,-0.01004989835111534,-0.001736308924152833,0.003406207879029381,0.005545892683605208,0.006564767834432946,-0.004090533369956058,-0.0002197556231404148,-0.00587370656717296,-0.005259326546276672,0.007391375652460386,-0.01580845427557802,-0.007158023750414425,0.01320145426417864,0.01098292382010117,-0.009113685895924404,-0.001118862997557649,-0.001164223518138572,0.006436229224597267,0.01833022459519679,-0.004215699972606251,0.00582602413210888,-0.001417727589445789,0.0001785104131264089,0.005081288509771394,-0.009318366282785415,0.01129365408331518,-0.006922525166702982,0.01061263401117292,-0.002360926515827995,-0.005957892885134442,-0.001870936238746537,0.0007978689651420482,-0.0099546439182739,-0.01243192694420169,-0.003532033404649481,-0.0007193040837228426,-0.008708210913135646,0.007177571154869526,-0.001019933454624679,-0.009942856300041875,-0.003482097346324189,0.01462079277773718,-0.005896462677330285,0.01372624630156572,0.002235816225802858,-0.005265309732420999,-0.01497166171282757,0.005829941078085443,0.001577209490688049,0.005692566751212009,-0.01003825918498816,-0.001337127890724419,-0.005935375232241039,0.01652040746238536,0.004481428033522586,0.01523370899341045,0.004393344273583437,-0.01155967188584048,0.01226909792078317,-0.01274298795216347,-0.001903169495253243,-0.007764180752060581,0.002026404735591463,-0.003431210428185695,-0.005531434201745977,0.003427552092570618,-0.002679900201882946,0.0009533337590304809,-0.01448347910950558,0.009723126111664709,-0.003701144841797878,0.02046810189673966,-0.01856437051020568,0.004702990073522719,-0.007606986344914001,0.01418475887892813,0.004144476503021884,0.01480095098831821,-0.00578326234916318,0.01184544233927796,0.002326079232020441,0.01124412917969726,0.01365981247317911,0.01612972191574273,-0.009012616852296169,0.001468390199292716,-0.004903894697094874,-0.01400108498178942,0.01519531376594169,0.006200382670748101,0.01801674687761308,0.004723835586194018,0.005935786435653644,0.008037109654468858,-0.005989086268859486,-0.01597077639864717,0.01250434545434485,-0.0003866023868116752,0.0002745251463027934,0.006634766530155278,0.006659516964268771,0.01066841784635231,0.007458676562355243,0.01676633438887695,0.006448027642967832,-0.008521477555592495,-0.009552570085336498,-0.005351051209075089,0.005422336507235954,-0.005837854540638399,-0.00261919937868328,0.006632320036957922,-0.008020578620842182,0.00117211703256049,0.007773271874495354,-0.01529890499450591,-0.00752307911400144,0.0001255631881262845,-0.01767257512322679,-0.007655161010762257,-0.008617026615993872,-0.005268151501958122,0.00113270632383394,0.007483339924075458,-0.006181844600888229,0.00498572868805113,0.01876610827607335,0.01160837398405024,-0.00375641933302002,-0.01103268301392987,0.006977096348529029,-0.0159116685802568,-0.001253929255798125,0.01427001953493555,0.007348087526089372,0.005933167305149908,-0.008799786100659299,-0.009101453824150077,-0.02409974728812689,0.003101846260829979,-0.01364315243548025,0.004929916848347586,-0.008198552444149581,0.01284352848071763,-0.002139592807715529,-0.004148246577507034,0.01797590712717737,-0.01799966452518699,0.006656309622799585,0.003432405436202721,0.01136442875056524,0.002831914390569369,-0.001718930394294639,-0.005862573457432538,0.01770648980693073,-0.002176109891590501,0.002966857153349821
-0.02032976482565757,-0.0166179716848979,0.01162797838487988,-0.002908622876168799,0.006695403540290749,-0.003789375824376894,-0.01341828025522462,0.0009514537785532093,-0.002644675120878583,0.002040302041831611,-0.003834649207353771,0.004702238782659216,-0.0002738481056893959,0.0001772908663225836,0.0004309351316431407,0.007369163494094346,-0.01714101152783234,-0.0104865420211734,-0.002848476634658949,0.01214573820672858,-0.001560427103096986,0.01359022582522581,-0.007306433403985261,-0.01196708509472741,0.005792251711866759,0.007815223277614134,0.001201736498903345,-0.001559261830566737,0.001427416335964718,0.00714341761410639,0.002664398527261191,-0.00617196212751709,0.001365692082348804,0.02742028918984835,-0.02472374945029198,0.01943825577203142,0.003574310209259708,-0.00748359685861134,0.00825218974139847,-0.001662736971213618,0.002752853523354582,-0.001322045736466358,-0.01955270021149573,-0.00200770008731997,-0.01853434297382602,-0.0006565341612215622,0.006811692761916593,0.001484405527624948,0.01445235779004744,0.003030914217700915,0.006486323485901819,-0.001517192621144857,0.02058052536782845,-0.005275898004866227,0.004742371142531529,-0.001795539933455531,-0.008974274722427475,0.01059798665666133,0.0001702885726964842,-0.005114423877057583,-0.006200201453206552,-0.01275209103066847,-0.002860910106863494,-0.006041062062682749,-0.006886500673667174,0.003660694738885885,-0.002616408989850244,0.002475964515313541,0.004647881834310382,-0.004773538520862039,-0.02554149391230126,-0.007375809458527724,0.006827079213658235,0.005721052437103116,-0.003342914907871701,-0.01836445133933541,-0.000514365752473405,0.006824803325696504,-0.00817011405473223,-0.001659546713979448,0.003339025855393858,-0.008250496789784829,-0.01179665273244367,0.006311983935084075,-0.007368730267494471,0.009726353704134043,-0.0106059077025891,-0.01298153481003261,-0.01115178800371406,0.010662538137787,-0.009565908201303838,0.001752637346891141,0.01571765468714556,0.000580034254344106,0.002190337191086605,-0.00440518376970677,0.01482653563913927,-0.003095213944145047,0.003789474800394137,0.01900992902268054,0.01864043080109182,-0.007859664908617808,0.01194718066352466,-1.523504026737693e-06,0.01262936518834248,-0.01398718032791329,-0.00298277262143107,0.01153517102923996,-0.006128102113238198,0.006332276156389424,-0.01716336816104426,-0.01300572366207095,0.01788031170288671,-0.007997982623666015,-0.009257443424851984,-0.01084216678800617,-0.004851004428612771,-0.002372395055317932,-0.007250222316264095,-0.005883846595729699,-0.008065624767669992,0.00664954757012482,0.003523651489913927,0.008314562975922771,-0.007979866431584716,0.008862380017006202,-0.004478908672214058,0.003657902674641428,-0.008836422804717149,0.0005208349019098421,0.004541546622395252,0.02074418967240351,-0.02073460792603848,0.003322519369579057,-0.009152394103947309,-0.006707407946139605,0.002562688939050936,-0.009695532538889813,-0.001621717636179173,-0.006235078592678323,-0.01328576498735308,-0.006332281941376862,-0.00985886484060846,0.006203188684651677,-0.01172045371442412,0.009087100013496788,0.008207849487370168,0.001599958565198526,0.002209809293773523,-0.001386066409203971,-0.006968444920920519,0.009092098261649976,-0.0008228971085806771,0.001588562445688416,-0.002801009566879171,0.006336643730482653,0.002637442079052425,0.01237259306303048,-0.006926040632694401,-0.0005575246030750479,-0.007398694039917412,-0.01460300420294889,0.01204826724419673,-0.009735967387898517,-0.001148125064123954,0.01093782428939534,0.006231803342158063,0.01328696480150401,-0.004475937205265922,0.004556914585507548,-0.01202643282234483,-0.0173495763304992,-0.0210829824225802,-0.01946501919188465,0.007174959213930317,0.0152882315582561,-0.001820471302207837,0.001868439105545835,-0.00808235211831811,-0.00769705185359539,0.001551241626366543,-0.001117724494538684,-0.01162845893350224,0.01634958249345175,0.008174609507532491,-0.0004813566269398495,0.01323796379310241,0.01379933537869171,0.007600669080467341,0.009122067508554469,0.01164697702885185,-5.961831662588847e-05,-0.000679941794855361,-0.01401956223434969,-0.005563082443866394,-0.003918405461316078,0.003076997622242437,0.0031800845302333,-0.008077800380455184,-0.006062488312352246
0.001414928527780249,-0.002707009098635041,0.003069003899904132,-0.005319687440453758,0.0001809883270595815,0.009372251075012083,0.01639726298593285,-0.008760085608295909,0.006191827863988538,0.0105084288969881,0.002157018330670873,-0.001375442194456209,-0.008252599512571323,0.01252490176971282,0.006685821965113376,0.007234700389921139,0.008191667709254386,0.006125337761674563,0.002024412943537548,0.01289858338637508,-0.002942199282596586,-0.005147657964959159,0.009730820312363442,-0.005146894610533913,-0.0101757515154186,-0.001201491639502427,0.0121625250590063,0.01472753196314626,0.004450490804402082,-0.008840002027587416,-0.002593644987987867,0.01173646962001898,0.006852678634808534,-0.0003567003656966562,-0.007146288217434199,-0.006503699387605152,-0.0004680155324937684,0.0001519628631547065,0.0008735305082007069,-0.0155254392366426,-0.007989566700300078,-0.004773335188628895,0.0005453560740282483,5.122588954712483e-05,-0.01250355191399813,-0.0003817510341046831,0.005375922558362825,-0.01469278796189881,-0.009253461664319002,-0.003963450253839432,0.01780895399094479,-0.009372111590145185,0.02845021127621936,-7.158379364137535e-05,0.008336811863223657,0.01210993251016544,-0.002907555033858576,0.009857877839944041,0.01986559622231033,0.01084918381549395,0.004598483266822416,-0.01138685172191937,-0.02308320286237037,0.005808289132026175,0.004701100481225371,0.02070544749368368,-0.006895037554569087,0.009620392002857209,-0.001547459195131389,-0.007777586454433221,-0.008531434502463285,-0.003878588913453887,0.009383644959267894,0.001605912812474504,0.009574347992233558,-0.002902483022094308,0.001282099430522048,0.01098176998842533,0.01484714199296143,0.003575721540251302,-0.01023443225260839,0.001006047789501352,-0.001600390574766157,0.005596019252893762,0.006072214416606946,0.003622057008279261,-0.00794062844023515,-0.004527953877413496,-0.006392394682761542,-0.002819551354677867,0.007034812865997218,-0.01020012093566095,-0.008248864738135211,0.004186674387161003,0.02105628703971294,0.005378278238916409,-0.007778986024446694,-0.007264191229232963,-0.007654091583018731,0.002259123482985661,-0.005615133427964982,0.002547041260020839,0.004859101276969082,0.02038567627343136,0.004150356825971192,-0.004528662159907424,-0.0111909147942305,0.01624956321540407,-0.01842499313547875,0.002109478769404958,-0.006719552244514549,-0.03218757365607312,0.005310367750564219,0.0001015566136014248,-0.004729915806308002,0.00517670704847969,0.004913721720084075,0.002852909490747894,-0.00694341849760826,-0.003600759346202377,-0.003554597301304039,-0.00867861258469663,-0.01160317866095918,-0.007317967850273821,-0.0168695720911938,-0.005345029148944818,-0.0007014586863100605,0.002054026559175448,0.001263907368651994,-0.01706298019520925,0.003151860605193885,-0.005981335268697856,0.01194434690508666,-0.006186371876305003,0.002530433311450535,0.002378893362575994,0.008944334187192614,0.01290475423114561,0.00580075592283712,-0.006438121919621672,-0.008844409887658505,-0.009360180468973089,-0.006997154313605404,0.007214383986283397,-0.009280701341421825,0.002332278602274705,0.003588089180840312,0.009919817026217068,-0.02175020918334109,-0.01062722039180621,-0.005670657584265315,0.01194071350979745,0.009658884484952945,-0.002954975407293014,-0.001021248138602128,-0.006389548984497742,-0.002433484209280276,-0.001272041332453026,0.009930256986337357,-0.007432485677791915,0.002034433439408356,0.009367900631570846,-0.003419594834180905,0.002622884908868661,0.0001302922556255198,-0.03020148507269401,0.00375981220760726,-0.009766297785592067,-0.00912191097334944,0.005257700837113895,0.009085091070492005,0.001012801395763888,-0.009781671205596148,-0.02044480745870476,0.001230755696659113,0.0109349039840583,0.0006854331645117536,-0.0003537214513937636,-0.01764477174309276,-0.00922868485689016,-0.003032757448615777,0.02025741960550632,0.0202706421506602,-0.008855005391453282,-0.003441085634825968,-0.00155690791041141,-0.01627283834515133,-0.01246512226542971,0.006768835023910198,-0.004075620164811146,-0.005895819399559408,-0.01912326472939584,-0.009471787249783722,-0.01897378372377542,-0.01417534471170436,-0.00935647386010637,0.006707818975627377,0.01494292719815085,0.002418737144227109,0.007289588788115944
0.004405576719471825,-0.004553581511614084,-0.009050724621271988,0.004607593242769516,0.006718684375017444,-0.0004404508905906908,0.009745070532220537,0.01476047163044028,0.007340045904408447,0.01579509453848476,0.007007145269551219,-0.01160776148459635,-0.002900784129626225,-0.001236906092148881,-0.006126001264010954,-0.02284533456689335,-0.01829099265355128,0.005069115946241614,0.01115697938233647,-0.002940945378319044,-0.00659565022590746,0.007828589982892228,0.0004967115658526213,0.01071499284700171,0.008481868641667769,-0.004986857953358694,-0.007428863483491582,0.005684385888057647,-0.001616897469127185,-0.0150884730940816,0.0189667915667077,0.000285426057329862,0.01568338646189159,0.01454947558689326,-0.001978818657215885,0.00727940492250147,0.007289642781644897,0.002777812635304905,-0.02136154951013295,0.007325739664778622,-0.02491783298868958,0.009433417359571332,-0.01178128099289025,-0.005013248687182204,0.005095490956319374,-0.001242954675236858,-0.0009614901686040613,-0.004593213154882419,0.01015758211301519,-0.0111569450930066,0.001030706796908759,-0.002071130721087213,0.008880007939419076,0.01224064565528512,0.01018696114984352,0.004798229744035362,-0.004127841378223436,0.007713250699719061,-0.004644170276979235,-0.006906015808118293,-0.01935695430998356,-0.003957749250393888,0.02366662675971317,0.01047353077796058,9.496251867345095e-05,0.003562099827122015,0.004247174556776457,0.002177199728494695,-0.01894089630036911,0.006276174622163363,-0.008005772465783429,-0.008099459600217618,-0.01389818897884473,0.009244496919498045,-0.003263403937051173,-0.002092941936687485,0.01450827369872576,0.003265713375730579,0.001392320696546313,-0.002325744615419566,-0.006234282491107235,0.003912167624801261,0.01677655790808159,-0.007123633899647673,-0.008684205919196671,-0.003162544593505443,-0.002433235987550836,0.005882086609658099,0.01239308991848976,-0.01124492892287054,6.474534390642773e-05,-0.02681973946285492,-0.04123809700399085,-0.0005079126434615035,-0.001468209840446734,0.01374428713209455,-0.003334552654842354,0.006959922927570647,-0.005398581375728509,0.001987658674053003,-0.006328917802783022,-0.003149934980674104,-0.009981576934239742,-0.007219173811073619,-0.01292747216058311,-0.01015087079807071,0.0004003459923249046,0.007790799006901299,0.01473999221062769,-0.02175147442660392,-0.01321567253298955,0.001477789761215542,-0.01001691099428769,-0.002609940763770713,0.006038504656192075,0.002459375064905456,-0.01116709392133171,-0.005695382381219198,0.004702679134167587,-0.002604812814521815,-0.02202955294026608,-0.01806345474991788,-0.01722546201644096,0.008537969579040535,0.001203528379376448,-0.007296497372440339,0.002657597868465298,-0.005193262602077958,-0.005604601147365201,0.004455078052927676,-0.003675008221471552,0.02372789739622399,-0.0135301089289484,0.01108222283230766,0.003107726539019727,0.03411989390518069,-0.01574948826411389,0.01323712415484112,0.008048732667028203,0.005532811789903532,-0.005470624386867329,-0.0006295851543638995,0.0142969259540912,0.004731728718824412,-0.002333007856802528,0.01029254433519513,-0.01024905755036862,-0.005508774401481905,0.004725046272866878,-0.01842649023726393,-0.005374289808662029,0.01118532106878791,-0.00792670953319481,-0.004954415439108883,0.009304181827500471,0.00252345572067697,0.001114601047043925,0.007524294811649637,-0.01512183650990516,-0.01597373778026277,-0.0009080123686113174,-0.009407664899092219,0.007001377004361494,0.01415638176020187,0.002327152378449656,-0.007536827260061996,0.0003499773493052631,0.0003780047002390825,-0.003735726094693175,-0.005958230903354033,-0.01108281898498481,0.0002238174011686489,0.006649720740173515,-0.009128237436548758,-0.001466708091578917,0.02293767078538918,0.01649202212076465,0.01081978026959763,-0.008118978950230029,0.004781081029853121,0.01590517650468028,0.005906888047070229,0.006612544486410744,0.007867530207846725,-0.004301561394407507,0.014970059674655,-0.01272259015645707,0.01623203249048834,-0.02169333803733078,0.003646548399410309,0.002616423454718689,-0.002132247870037242,-0.005037598876600209,0.02387306787840938,-0.003956401020469412,-0.01136037315088792,-0.0169946766895318,0.01271151883843197,-0.00988681872358697,-0.001442705622136188
-0.01738120163266118,-0.00576323412528214,-0.006089215725352845,0.01084328963978214,-0.01249562526298692,0.005221725128419527,-0.001934433742835237,-0.01023230339034865,0.006732964499863926,0.01373597646231188,-0.002186675553358192,0.005698149920261871,0.006433178892967698,0.00563366942356187,-0.00198633435090012,-0.003168455938189365,-0.01041250983874644,0.01782050201669202,0.01775659317320427,0.007070864686582703,-0.001446031292511623,0.004902830081264293,-0.02137238829704695,-0.009251247876946965,0.007977546025963565,0.009373551459660194,-0.009927798742114902,-0.002439162295572527,0.01793739866311045,0.006441099196974662,-0.01044895897591781,0.008940553399786536,0.01474860138472723,0.01477101923820313,0.003200697598721915,-0.001324116921894532,0.01880319040038623,0.02164308201241108,0.00835253179583462,0.005979368881378158,0.002674472387346543,-0.000966261104389508,-0.005787134243804515,-0.009601442369759417,-0.01177183385730549,-0.002079099332448496,-0.00917896322002726,0.01049007479197703,-0.003516601783582333,0.005999416180418631,0.003742549417105895,0.004567120307169304,0.01803302124753907,0.00798281098972789,0.0005778980324768804,-0.002181906266597227,0.0170306945988135,0.004670395668282665,-0.004134873074783305,0.0001998603516829864,-0.005751706863063303,0.009618179493930375,0.003573825742999328,-0.00547063871195584,0.008585207217182516,-0.008806742565183483,-0.003535924479354509,-0.001208531687479947,-0.006075422829352388,0.00208359513896849,-0.0137728462581742,0.002213012611589952,-0.009396886301454022,-0.01282957685223349,0.01277238895016176,-0.0008746951642323032,0.010762734948828,-0.01233825683667319,0.01658374548397965,0.007633721936423446,0.01371610647937178,-0.007054288087658446,-0.009507220131336759,0.007251813080212974,0.001879982734773346,0.01135761700795249,6.775563876660527e-05,-0.003779946302753975,0.01904059976331498,0.002337252035345056,-0.0154102459985153,-0.003241779234240048,0.008221233004704251,-0.00813402258645411,0.008284226913245251,0.01071673548912813,-0.01199460700519716,-0.004346520087309362,-0.007484597637037273,-0.001520952128778756,-0.01398055228035161,0.00426247513791727,0.003580406903611755,-0.0260373706521854,0.02059232512157798,-0.00645700243360512,-0.004140915097417737,-0.01627331488498325,0.003769235859338543,-0.0126741077884566,0.01810039313426293,0.004305313127139367,0.01707207295108079,-0.005122437747993489,0.02423189490842838,-0.008106226566616236,-0.007696347541318409,-0.002523585835107135,-0.0135090505706641,-0.007457056452674662,-0.002553003601485948,-0.009016263857074229,-0.01248683064311205,0.00645264284280601,0.001565777257660281,-0.004069680960951423,0.01442031021972894,0.002090997810174706,0.0006831969631775616,-0.007668278942871524,-0.007907354359804733,0.02014803104911253,-0.004579937370889196,0.01116513572436727,-0.007543640675078008,-0.002307749095332019,0.01153809389846332,0.008869101891838762,-0.006526509677847982,-0.008345584561789195,0.004358129008830405,0.006099059342617081,0.001433999650037962,-0.01624459655307808,0.00729899833758444,-0.001253063868751136,0.01656922410234169,0.006586901721696911,0.01001672773603887,0.002078018701928863,0.001744391132966166,-0.002337138206420255,0.002615522163380843,0.00708632991199312,-0.005931471530388525,0.001722519005174824,-0.004508283052699064,-0.0007087331898787475,0.004125535393498548,-0.0008118593481693556,-0.002908830941685948,-0.005209147441165701,-0.006917186913657422,-0.005355640440633197,0.003408505519642036,-0.007994388126907538,-0.01746860623629834,0.001297055429621427,-0.00952442569734145,-0.01764341136619401,-0.01210670863364905,0.0004373928857749061,-0.01203251531642823,0.006847542682508424,-0.007138858958439073,0.02234155685936468,-0.00449053119911736,-0.01141259523339515,0.00255433302473681,0.003443390924682621,0.0167855934584673,-0.006758110331326547,0.001218084040379489,-0.01654805620316854,0.001259193912095755,6.66518619947482e-05,-0.008901514292103384,0.001940323836093357,-0.008926987210338902,0.001368365035653653,-0.01124124506586213,0.009712601906741301,-0.002319611365952528,0.01272539961784521,-0.01272278859376739,-0.01477590940968146,-0.01804410011402302,-0.005044537434241424,-0.01030551685917133,0.006184325486702271
-0.02405374886581015,-0.007462184782750971,0.01614104337395542,-0.01576217136055934,0.01439524885099154,-0.006843660461395846,-0.003341231421759389,0.01144047547475363,-0.01466042505329351,0.001138633439907792,0.000395168014558097,-0.01924818993048238,-0.00146822797345085,0.002146976422909385,-0.004506541925505163,-0.004878411500834298,0.002686981489143154,0.01148323976234993,-0.02538087290747371,-0.011740369531384,0.0116275742933666,0.005490275826434924,0.01737249783245612,-0.0161471022969379,0.005472633382979844,0.0005776071690508398,-0.01939809992574162,-0.009034202692477098,0.00714040969357523,0.001049380370829322,0.001274135778184511,-0.009430419511988471,0.008420702463479382,-0.002410350486565748,-0.001658538230440061,-0.0009868370613828586,-0.008434804412279492,0.00205013453361419,-0.008232880302519624,0.0007201897011138404,0.01586500407887926,-0.02062073327495443,0.01466622314976208,-0.007908206951009475,-0.005490269494021733,-0.005111456339885762,-0.0004268482911514482,-0.008108972667440068,-0.005391575439907449,0.00484497897835476,0.0133444882313882,-0.02793341913520556,-0.002998156553670054,0.01047285598905119,-0.02128648414053672,0.005810683710098539,-0.0006084359425205164,0.002161050295615412,0.002974938084538702,-0.001217800264712164,-0.002638499181470438,-0.001952363224758488,0.0169314852021979,0.002647665446026141,-0.001611782952104241,0.002598970734726088,0.000907432762629106,0.000328582148099151,0.008875579043019196,-0.01440950443755227,0.007873616171715897,-0.002812723496889464,-0.008318322849744967,-0.007424071720547246,-0.01118746754780684,-0.01794575190849098,0.002600655000772155,-0.00750662414988822,-0.002226459424751745,-0.01689710534187419,0.006440057849324946,-0.001725761568356856,0.007851101520798761,-0.01223136760423499,-0.008474727148702678,0.002639656693989862,-0.006683432158838705,-0.001197582335558359,-0.01118408595121138,0.0004923619150045391,0.007621327843486922,-0.009134685248901989,0.004354525190851981,-0.00199969726647922,0.005752470789592524,-0.008805585448865836,0.0008425643059567333,-0.008022137576470502,-0.0001322993981498508,-0.001472505005691317,0.008836268039086938,0.01215317593915217,0.008467876739151713,0.006904787745141238,0.001648962014281589,0.001024592327758569,-0.001459177237698027,-0.002775057516966407,-0.01046578969411042,0.004799658355997369,-0.01437259127226594,0.01206500388731801,0.008310623434382108,0.0007066979690540293,0.01134936387242096,0.02365662539927814,-0.003995951220058723,-0.005324025224497952,-0.01496114241234786,0.01308167764792299,0.003571677868702146,-0.017510094949553,-2.527571365792396e-05,0.00729914694540403,0.003054411801450841,-0.0103300836917405,0.003733884669482621,0.01574628781567799,-0.003017113041809818,0.002736371164789385,-0.006936711088533614,0.001878546363033629,-0.01291075767693423,-0.006562074856187872,0.01188101455684522,-0.01096980197110402,-0.01740909928132529,0.01216018471318247,-0.01089570873871532,0.006351020738674788,0.01370430950939298,-0.002190974003130951,-0.01172560233843838,0.01099908905062988,-0.009668223173856186,0.003070567509566404,-0.02644187758036938,0.004360113784296346,0.001745063384474447,-0.0007920290024130524,-0.005441904616561812,0.008506828529519964,0.008524916338351448,0.01048721088519591,-0.005187108494210898,0.003152923321146562,0.00591590166905492,-0.01222948361112704,-0.01792821455130998,0.0164401698700923,-0.005211820357208791,-0.02327344844026643,0.008411048386309242,0.001510318766089872,0.007590591953331956,-0.01225185412628277,0.002479613020185677,0.01460741342747529,-0.0008520360276075845,0.008033511101718327,0.0008393380449893505,0.001120908338001308,-0.00963982532524128,-0.004308351500741757,0.01548266381509886,-0.005099718123144832,-0.002092231406491147,0.002926128338587675,0.004996500259093727,-0.001132629677142115,0.003524891299391861,-0.002236760907245716,0.004970933016733718,0.01329540377955256,-0.002702105356845999,-0.00172865416079744,-0.004747518207244884,-0.001310082003681705,0.003392401640073094,-0.009763928933955553,-0.003350898289324253,-0.0034454868323744,0.001306205434548594,-0.008602469796564031,0.001593078694283135,-0.01183181487778483,-0.008761762755760023,-0.00597101419131128,0.01185605614070546,0.007354555851072507
