0.006353478188125872,0.02086080849023793,-0.02131131892556969,-0.0006556172982250465,-0.002148368341009913,0.006814927669975957,-0.005853190771172616,0.003548378587280514,0.005197712710926982,-0.01515493659878723,-0.001873245650505868,0.00691191011183237,0.005356772043569591,-0.007771536829292087,0.01845141996880737,-0.002069256337489291,-0.004574474096061851,-0.0001745981566663993,-0.0218948688618551,0.002056312945769624,-0.02014166892295947,-0.02627773235156442,0.01430692211902649,0.01713704824703486,0.01639791743505172,0.0123234400118106,-0.00386992540433297,0.006842140788737492,-0.005274925427586626,0.01670395574530644,0.00858618396236719,0.02485230371669987,0.02129515704932529,-0.0008831985973649955,0.001355613606825146,0.0002783314996901471,-0.01443313582908684,-0.005258660029514337,0.01013834389555265,-0.005116929942791584,-0.007734397420350224,0.01329805974003034,-0.01001301428643935,0.01060360024362984,-0.006165507153541344,0.01419205670742716,0.001794704625236651,-0.02044424658675352,0.002856598935792856,0.003681255560541235,-0.01483126158491814,0.0009450923462018893,-0.01187567395044904,-0.0210812282872663,0.01590892813077482,-0.0009035708590317638,-0.003276594309431123,0.01164563242665024,-0.001963304763453091,0.003231523571724333,-0.01133224052494674,-0.0002573271128547609,0.003557759499973538,0.01401717419655557,-0.01826498687697872,-0.001779723049247498,0.004518775333807073,-0.005030671136968324,-0.002682239798509204,-0.0006108734513652379,-0.01332587628997712,0.002883591719469408,-0.006918463928704034,0.007719532562873876,0.005837029330929439,0.023628124200338,-0.02122561223758882,-0.001604843360076817,-0.005427810070930437,0.008631130792794692,0.007527412890300809,-0.01589550311284446,0.0005058089076550597,-0.0001506787790653602,0.006437748111360182,0.02446061361251418,0.005604128795299118,0.0008815849845882864,0.02755128530707627,-0.004773688636243969,-0.00838525749491525,-0.005572120384275183,-0.01172982572439751,1.140991909324702e-05,-0.01202973623082216,0.0005885274017711994,0.003468086853154937,-0.006269512205268172,-0.01258991080132664,0.01997837404159777,0.003335493214694886,0.001565890546373613,0.001066808548227439,-0.0009544044904370321,0.003711050144788967,-0.007914724561876542,0.002427934995603602,0.003069985584554837,-0.009095670867251725,-0.002626269857989996,0.000830230140092948,0.00525388199186203,0.008057804784180436,0.01314825974350533,-0.002485973987219149,0.005085495200888147,0.007149838091004686,-0.005201642258163913,-0.009289124929863658,0.02105815995459976,0.004472709820118645,0.01246054244353337,0.01665825020855281,-0.01985350379921557,-0.01945355363630286,-0.009078896924824439,0.00711973108437035,0.009126022892366085,-0.01685426508404736,0.0141480542161783,0.02403575821968975,0.01346060200066361,-0.01753403075356357,-0.008794779344061827,0.01408101008683004,-0.008245157340011326,0.001927417123717495,0.002055393295540391,0.01364784363725665,-0.007854598301640901,-0.02845561767751878,0.00355158424029125,0.0126859516666688,0.06400997289157055,-0.001844517897564998,-0.003243237802520059,0.006413792048496596,-0.01716335809162205,0.007963236259755218,0.01397419119364251,-0.007232260120995193,-0.002976768460955204,-0.003753048137032205,-0.01220810909370987,0.006778132981781719,0.003052636328568912,0.01067804643956194,0.007071881787887127,-0.006459225050752269,-0.004888902638040546,0.002333637370956097,-0.009719097165976949,0.005138641772425457,0.006147289437637392,0.009486699746905389,0.01031847365510406,-0.0004474943138430998,0.0007570653891479091,-0.01647465029501764,-0.01197347790043739,0.006738074227753157,0.01553837782344422,-0.007063536854118162,-0.007652003916227663,-0.0188922642522834,-0.009351137133357727,-0.00273832590583906,-0.0003902895814974855,-0.006654348518891516,-0.01173661496153913,-0.00567109957641605,0.0180070876169918,-0.01341361674422933,-0.003793021951847574,-0.0075368747261293,0.001012704190747054,-0.01414568915891087,0.004649303753070924,-0.01295800050710493,0.004432157761528824,-0.0009263143548983311,0.002239454946462312,0.009699119819428562,-0.002237495335369816,0.01964603163129031,-0.001093646452878256,0.00717462444581557,-0.003568760489529614,0.01292662812497643,-0.001794694640120522,0.00452750628492388,-0.005932284356129417,-0.004841119987322885,-0.00211068913625743,0.01069666392044741,0.01053814365919073,0.004516136038270083,-0.006586514261803506,-0.001393698631388812,-0.007803402883488668,-0.01160923330465682,-0.003368196111864528,0.007121354618262255,0.002553097622144381,-0.005351136882864653,0.01070310745184816,-0.0169099294683909,0.01072330587272963,-0.01118603813363185,-0.01290790260153897,0.01875982652549678,0.009471210180681993,0.0129482889849592,0.001319710719674214,-0.005423138927767127,-0.001144553190580476,0.003654032265642869,0.001752522794303207,0.005451374845873802,0.01434143117561577,-0.01523075163433318,-0.01876971638200536,0.005557776286543799,-0.00527160607672795,-0.008060276769019012,0.007614999982739452,-0.008025466678423526,0.0100435785017732,-0.003239351932722206,-0.0005493032866291524,0.004861821366125359,-0.0006854728212586354,-0.01631490989016003,0.008175313709216613,0.001727583436398766,0.01687109208649641,-0.001834853917838877,0.01188133707860294,-0.0007996278605555728,-0.001900798897218813
0.003401223778696975,0.002562545719293068,0.008561291521464502,-0.000242121168463501,0.002037771714966699,0.00849034007806115,0.007933224949721278,-0.01303285777243205,-0.02573351524489071,0.007009725922719695,-0.005186197311167424,-0.006896185231663771,0.01762059822362519,-0.0187237407622932,-0.00521166969138752,-0.00832107708019194,-0.005032467743489625,-0.01931430521576264,-0.009943185921156216,0.001419966260322997,-0.001789565362495171,0.01072431536494824,0.009088404957288479,-0.006530227465544103,-0.01121605048349024,0.005208292802774283,-0.003210736447369123,0.00994808057333315,-0.0197850007619037,0.007751225104399464,-0.0149389249860077,0.001282212428165334,0.01015314864833113,0.01535921615630627,0.002176520793574539,0.004649175361786721,-0.01570150447395226,-0.01890236546515759,0.00401842740990833,0.006447849532378202,-0.002782668727433969,0.02388310980864189,0.008240158069378486,0.01203475313423328,-0.006047043569871942,0.008721639458006122,-0.006131148097497134,-0.006863980728322061,0.01671035404281074,-0.004310616438327987,-0.004936005809269062,-0.02461059620642963,0.003096259142374473,-0.01461299824578442,0.009125170620988568,-0.007606488982881171,0.003797670197525575,0.01232314948105815,-0.0007864616847239473,-0.02679968117732434,-0.01612698964685767,-0.008700051915799416,-0.003668552430008056,0.001660106334309661,-0.0006857799817995326,0.0144240347017536,0.01337521367939139,-0.01348963211823902,-0.004355439545291679,-0.005264864980259708,-0.01076352367897632,0.00334665417881211,0.006362622830358554,-0.01106805599026187,-0.01808180107932522,0.006342562082010959,-0.00829800534962504,-0.01365536621681632,-0.01441243940294482,0.0003620300787469774,-0.003718160731240193,-0.002207446926644221,0.005045334167882053,-0.01105154292537263,-0.009916923777878461,0.00136793044849509,-0.001008642428415929,-0.01254680968216323,0.01242921082082808,-0.006133242706253835,0.006235036237931136,-0.00228282793982813,0.003075257143266674,-0.01306075209620464,-0.0009095713331078447,-0.01688769092341968,0.002023708946681174,-0.03891161285570396,0.00517034825599168,-9.735015964791962e-05,0.0004608435705862094,0.003723419612643686,-0.008432613458978569,-0.009077685424905575,-0.001605351502018571,-0.002528793788472437,0.0007807410557859895,-0.005841871417254917,0.01118490633425316,-0.004090992023625368,0.004780898096808411,-0.00227668058254912,-0.008902989672790514,-0.01990238835621484,0.002064137458790844,-0.007165075938672458,0.008353138969042431,-0.0183373123786893,0.002562053550637351,0.0005691561724268514,-0.01113259034753908,0.007838052106064537,-0.001360611165025764,-0.001638312233838488,-0.007360301860911785,-0.00238510910758757,0.003450837014632752,-0.008478452697801144,0.0004371414730648542,0.0002721880950392911,0.00885526020725484,-0.01603614199988061,0.007893649816439873,-0.01727290564461174,0.009868171192604813,0.002415027791055625,-0.0004125754670971678,-0.008668677791418632,-0.006672047703365572,-0.003509313775759034,-0.004608858991797073,-0.001307720106435298,-0.00326800613587033,0.0561283554713775,0.01089964536221219,-0.01258201523908238,-0.01020247903722142,-0.008871423472229693,-0.009847205343149507,0.001671107786038497,-0.01736136154487852,0.01028915070507908,0.003179980297268964,0.006385340298038777,-0.006955333978364184,-0.01336838612153182,-0.008478446334557511,0.00239775386891612,-0.002849329549028751,-0.004457327479290037,0.01079357332712936,-0.009145301990684959,0.01362083005863079,-0.005669327893879327,0.006574703861068485,-0.01722185999056758,-0.002873257740978555,-0.005410987009510676,0.01762711809046759,-0.004114226470171663,-0.002881366694979041,-0.01069058472661287,0.009804274709187774,0.009952948137286087,0.01040642770209107,-0.01434953573784076,0.01494078000329041,-0.01484078699373381,0.003230050575396363,-0.00111641527964989,-0.01765912775749249,0.008233533024618324,0.005305999825785518,-0.007208449052704059,-0.009273983185535373,-0.0009822188529134315,-0.01524828631099612,8.755878943134479e-05,0.001467624128120679,0.01246634689677204,-0.00702766221644376,0.00187303012713079,0.00931996471420702,-0.01094023645387822,-0.007347262628967388,-0.0007186917713320674,0.009467018851428899,-0.01916628744378935,-0.003809683739156417,-0.001934750036805442,0.02010298405718467,-0.0017305976618362,-0.006835228460434856,-0.02124244174273174,-0.009055568382758193,0.002426342222524859,-0.003739293917576813,0.005666120729521809,-0.02048282739594626,-0.01394965965123562,-0.002940849087289353,-0.008346486938534098,-0.002384578420253109,-0.005140916596986387,-0.01257190756138701,0.0003614255511406095,0.002842682232216624,-0.00738353718318388,0.02174787441094994,0.005332726894941122,0.03364336268080189,-0.008520980805927158,0.01755776502606157,0.004056806914825594,-0.005494444383006097,-0.008002517029937525,-0.02307835177847261,-0.0006732929092051135,-0.0008307875811284123,0.01172584920747933,-0.00301179081806044,0.0004185431452257071,-0.01453685048782007,-3.346072863042858e-05,-0.004223079577705242,0.003021891455219487,0.001651053318296858,0.009095796219739969,0.01652288454751545,0.01235099201208442,-0.00460536335908775,0.00581864998473792,-0.009098117355270515,-0.003275961467088652,0.0003874628866477521,-0.00140705039217774,0.01198721431856126,0.002686245148877129,0.009303640317051866,-0.003485532048688053
0.002836468451535428,0.0137672163852281,0.008803756362928185,0.003675895418131855,-0.01027617219072458,-0.001026917233295346,0.004600380459535992,-0.00956370921687473,-0.003630669101066657,-0.02065222255375483,0.004875014464247303,-0.01057983131662176,0.01117920072646905,-0.02564074074170846,0.005837182087457139,0.008143731118989422,-0.007023189440568987,0.009409058825378049,0.001251218909078944,0.004919702872070079,-0.01696693831722817,-0.005548273612341902,0.01488511171285469,0.01587221212846899,-0.001841813551793206,0.01761627948432647,-0.002490097094314018,-0.009415624792190744,0.0002807413140966561,0.01660781015570443,-0.000742942625824431,0.00831616705066273,0.003810086614613597,-0.0001515702277282638,0.0117698729804931,0.02206644928454996,-0.01672845687178202,0.009442622689023879,-0.007144801694875802,0.009010550005147029,0.001271716343111045,0.01207553684153897,0.01395349962105799,0.0014214611068445,-0.007468812816334216,0.002449556752633783,0.001893778173798585,-0.003595643872186101,0.01674463429068346,0.006929667375721953,0.0003000255394960265,-0.001283932811113882,0.01510953862283838,-0.003127526904492798,0.003799675937251219,0.0002920209469348973,-0.0009061848266321617,-0.0227084802215861,-0.01726649310000928,0.004422222215454306,0.01839856413684855,0.003061231060412527,-0.01466309094668146,0.001634035247571547,0.001733455713972354,0.004725840749317383,0.001458224184647112,-0.001787014574959594,-0.001885219461629646,0.01125205749472715,-0.007523585939413929,-0.01172504594318099,-0.0173420784140268,0.009963334953212376,-0.00344212255021608,-0.0005667386605396245,0.007757407432089266,0.003016079814274906,-0.008461182725662974,-0.003685292352894462,0.0002728027353516851,-0.01029562611859739,0.01333330473772889,0.002088692317945268,0.01581239130135584,-0.0001131769033002546,0.00070393447247213,0.01130256660337314,0.02611655989435961,0.0103701180476319,0.004803918327363181,-0.008427862721583388,-0.01372339839607793,0.01441098827894831,-0.003797379613391966,0.005575347307910801,0.01564657146603673,0.004305738137884081,-0.01314981222066651,0.02103413125566254,-0.0111675155369641,0.01661883910668561,0.01292034463251091,-0.0109068888612256,0.0025372755304671,0.003164269771274523,-0.0170129899159353,-0.01643699650769744,0.01141728293939556,0.002308518669799712,0.01306289077943192,-0.009292728012625835,0.004090738256071719,0.0003461333291145082,-0.005776206963257407,-0.003326511342358136,-0.007947951366249924,-0.002385412086647545,0.005282020474240548,0.02822586542094422,0.007985607470401017,0.01360610754926347,-0.003322711406078115,0.003500728351469181,-0.008348817439214229,-0.01911454198559575,-0.007953946078335161,0.006186313183924683,-0.001737628878520862,-0.01524377969238225,0.006287028854869483,-0.009946874634920113,-0.009070494065923775,-0.008767908053936799,0.004596003792736829,-0.009353725093174689,0.01481404752809107,-0.01085007353220782,0.02348789338257027,0.01200116341683274,-0.00753124065449386,0.0106682122594731,-0.007409900698012462,0.03308090001886459,-0.004752113192509774,0.004217333514310381,-0.02317980181734408,0.008553712754759744,0.008611337196206213,-0.010408369081421,0.009152366667306393,0.000319163840360005,-0.009828528717122824,0.002050176807879377,-0.01232770950420813,0.0007197791624604934,-0.01067798107436256,0.001803516121425803,-0.001552427584499619,-0.01252906611551593,-0.01384670947486053,-0.01551989092730657,-0.01307352697714451,-0.006690993220635386,0.008588359886351852,0.002797698717945244,-0.003727924216361467,-0.001499936475567462,-0.00207400490493771,0.000846437844527441,-0.01772642455636306,-0.000465580952205462,-0.01470166307187206,-0.01672974829413953,0.009718994688363868,-0.004117137630303184,-0.02429852966877673,0.0021241878305804,0.01355778805876901,-0.003025732315009777,-0.01247148769169625,-0.00670652820830312,-0.00382172428361576,0.009860318400929812,-0.003146492608156802,0.01163039298603954,0.0063321557321003,0.003535364346219518,0.006268629575033776,-0.01446156159944719,-0.002365388422979666,-0.004554631843631566,0.02423805263519586,0.003291658281658776,0.01312118869644571,-0.004421730474039568,0.000850175107177108,-0.00874976981107088,0.00575960350451667,-0.006754743719249267,-0.0097684362364212,-0.002067707324651597,0.008996829055103954,0.01245812012870453,0.004146708466518377,0.009395278905328177,0.014761710753783,0.000381285796253611,0.005641852658956175,-0.003073144918971692,-0.005611325552779652,-0.0006240973409607219,0.01049696271076048,0.01022680519548446,0.008246041169336655,0.009089803177820681,0.006952131218119655,-0.0007009222197965011,-0.007702656279603913,0.01550496605827909,0.01985006408809654,-0.004839995863180274,0.01339988685389758,-0.01281927152086798,0.009143353586067047,0.007202797445853961,0.005358726322331728,-0.01639290010559651,0.0002007797457280506,-0.002397909524332339,-0.003858330897006292,-0.02349356588861314,-0.0004376581968538047,-3.259475547154507e-05,0.005667826286331548,0.01170854111328224,0.005256465829155064,0.002586897425020397,-0.002213001724663979,0.0008014662285923615,-0.0004524571414382744,-0.004480987152874247,0.004884006478568795,-0.003443067439548031,0.01042968794813383,0.002498297048677019,0.005937745832207702,-0.00280787944886067,-0.003199381587252558,0.005447963325849387
0.00445567639150955,-0.01452619890013567,0.002628832369579811,-0.00476428229130215,-0.008289721581129981,0.007290936612386276,-0.01233077929060128,0.01119988154902713,0.02056278988701757,0.009801559513625591,-0.001480668418816109,-0.00734910449617091,0.004697521662441118,-0.0005667264981854179,0.002440404665816999,0.007812409678186868,0.009729362466944023,0.005893907024942772,0.02699836584549582,-0.003283981610273039,0.00776387873549668,-0.00545194608977964,0.009179862294806003,-0.01026174569421573,-0.01027787855648951,0.01086344957710277,-0.003032238048203084,0.02340244226711735,0.002563445582757434,-0.005115652712958513,-0.004047630942358991,0.02206057546467935,-0.01271935645437499,0.007943308535755084,-0.01850961936111271,-0.004966707854104491,-0.009738996547642554,-0.002861172732551954,0.01347091559465559,0.005440908264602299,-0.0003625759612715413,0.01305614880200457,-0.003903611969048538,-0.0004438866769435904,0.01632463990431408,0.007919521119722855,0.008382275046570653,-0.009248346678705627,-0.01028632266372852,-0.006831753103949884,0.006519811791420746,-0.002031776670176183,-0.009651675126636047,-0.0003480759057837492,0.006490266377583407,0.01631742365836354,0.0006870726446499148,0.0182086136588694,-0.003396249952237519,-0.008851198204890416,-0.007122359088282374,0.00979291288590692,0.01241038081013517,-0.002847025589231424,-0.021461879944005,0.004503045412697602,0.0009708824570656022,0.004940793884649318,-0.003148328761508831,0.01411751684877862,0.01402796911117506,0.007741492651643399,-0.007545935290507533,0.00760974499471646,-0.006900344752516088,0.0005828194084474722,-0.0008929520550206713,-0.00695765348643796,0.005695609554332405,-0.0001171929315495594,-0.002372491272162647,-0.0150969149553226,-0.007104047182419878,0.0145788915674052,-0.001247328566150794,0.0176708042868953,0.001855242149324157,-0.01540513583719116,0.02458664761733196,0.001283848359853605,-0.008238775815785537,-0.01319139189369693,0.008359295255820421,0.01411183935543011,-0.008710983241875588,0.008169782215781036,0.00775290795028789,-0.002780458935163526,0.01171887624970409,0.0006747228341508454,-0.002391450643500998,0.01916516675013673,-0.01646644292751162,-0.01233005870291966,-0.001505509261497596,-0.001225808998625405,0.004694454034816541,0.007917426375834149,-0.02600645329733594,-0.01159556238513498,-0.008070092833602731,-0.003434104330246421,0.003979972009262426,0.006600723997157,-0.003073726458148849,-0.007897084079413369,0.0006443938348257131,-0.0003586777887488066,0.01024552299905049,0.005532089555948322,-0.009322391372248976,0.00910579525393251,0.02319722120380494,-0.001544529796764359,-0.0009251165096032957,-0.009964494931528015,0.02127642742352047,-0.003096112498532929,0.007378539309416457,0.01019179160571032,0.004066043132015541,-0.01731507473722859,-0.009825181972759526,0.01133947719250543,-0.00838255916545501,0.007102327094380269,0.004389325541409362,0.00746201186462783,-0.006430076217073357,0.002788624140378527,-0.007483054859759361,-0.01153199237773039,-0.0144916777719536,0.05471568630593761,0.007066480361583159,0.007193129817459758,-0.004517317736235185,-0.02041738804288785,-0.0002543917210632264,-0.006935996060015437,-6.211178757004748e-06,0.0122224912619745,0.009699869816705502,-0.005214180772964663,0.003015735232737201,-0.006419289429917091,-0.004511827650191338,0.00521787884734805,-0.01489259119301382,-0.007613250728581292,-0.006332567864707724,-0.009392443978870946,0.01180693081123003,0.01112275878000731,-0.003958229212734177,0.009035401078833173,0.005097199639384745,-0.01107869011448647,0.009637519208380706,-0.002066873590918409,0.009788481800348397,-0.007368078631661354,0.005028382564975804,-0.009100390459433026,0.007595796277580536,0.006718454531990421,-0.005258510497745407,0.007614650604517092,0.00517586080374684,-0.01782393172913779,0.003499577713084034,-0.005536185442822849,-0.009172526213397173,-0.004182698349918695,0.004345876494381296,0.0008023709147372344,0.004303844448669566,0.004960845492464886,-0.0156046819112245,-0.009772674835338854,-0.01137544598382103,-0.003017835783695774,-0.001079132061536113,0.01120010733740163,0.009640437826907346,0.01929254976448827,0.02170796369380749,-0.03351341057079795,-0.0003386887056462673,-0.00335940818482571,0.003893638471527524,0.01158418836856403,0.008213157425098896,-0.006132990650306066,-0.01380507859760649,-0.008530770403135617,0.003296026537198825,0.01324902133660696,-0.01102980465153711,0.005976247489743544,-0.004876084514721163,0.0009810648839291419,-0.008988180368107791,0.007027804102696351,0.005378300951918387,0.006595796061213359,0.01978844770346769,-0.003782482183417085,-0.01577050831749499,0.002384596053144614,0.01158225606301598,-4.256472028219493e-05,-0.007120429279740766,0.008070027107506409,-0.004362676605364437,-0.003467228262665932,-0.008556277820483104,0.00455304493040502,-0.02179113614657571,-0.002983265875768692,0.01300779150427281,-0.006080886600978943,-0.02107208295293958,-0.01808094863965748,0.005508863808438081,-0.01821907136061266,-0.01838376310496096,0.003424216369556792,-0.009602305718446729,-0.0008742709475489855,-0.001373952460019265,-0.007385317500955509,-0.007504062830232056,-0.01328536460461697,-0.005261921366811729,-0.01112886429899799,-0.003623412544809604,-0.002167888539337632,0.01408863262582198,-0.008014049304956678
0.02414738842326813,-0.01554522095240134,0.01769025499011417,-0.01232405455229451,0.0001246087715538953,0.009535988104488462,0.0008435068338518457,-0.008487127461611732,0.004478710314115592,-0.001715623495643614,0.02304320440939512,0.006437869656674772,0.01686772810379892,-0.007203482959889909,0.002579928502904877,0.007274791631594932,-0.0004129382061684516,0.008542257709379135,0.006590143744920693,0.01226973025038058,0.01424873444746833,-0.006957444954617771,-0.005491271737043546,-0.0268133736014826,0.00757041189821608,0.03145554350866057,0.001832645647555066,-0.01248133992531229,0.001869505271805386,-0.01152575309951701,0.005729645075333172,0.02304467435817336,-0.0109674738870498,-0.005088275459425207,-0.009147930596011534,0.02350253921909416,-0.01139869240159368,0.0110988962104562,-0.00940943275629464,0.003768925247092574,0.004443702964010391,0.02399045560849465,0.004828904008989025,0.002757922313157614,0.008275671854166578,0.004227261700671619,0.002380479440130947,-0.005779485355613861,-0.003470782055854078,-0.002727216304248702,0.002903457831104456,-0.006386466643103862,0.009058271985966124,0.01009082800998581,-0.004632992472225503,0.001358237453280005,0.008853075947009927,-0.006990710118505885,-0.01782464789989912,0.007912949372200728,-0.01184824312063946,0.008424781266311916,-0.007847736935054731,0.008681307569890781,0.003409359453214074,-0.004103386693299597,-0.003910674843873305,-3.858031223815241e-05,0.006561630678324589,0.007976640802228603,-0.008207642666056532,0.02823978270755537,0.02252239265077612,-0.004421064168619312,0.005087108959142747,-0.0118311955660344,0.0003306298261898473,-0.01259639176386158,-0.004837649758368262,0.0003485284857280889,-0.008688137582008251,-0.02019386822429216,0.01550513227223606,0.003284849266695119,-0.02158740644493293,-0.001782318116329352,0.003804051729591265,-0.02064760083705956,0.03140641615145925,0.01272593989364631,-0.0003585356476143844,-0.002053965812960536,4.530887921428187e-05,0.004316342899571456,-0.01366649489803919,-0.01315501638266496,-0.001863247659623171,0.003894733168625106,-0.0006198165575486117,-0.005860430440139557,0.00357626901994018,0.01862002123604845,0.01870096611718902,-0.01185886999040351,0.004103143554475957,-0.00171998503970539,0.0009190708447411806,-0.01372862017669589,0.01518559220181051,0.00504314868788685,-0.005085034902848094,-0.004657387687475149,-0.01108891474557644,-0.003765405711375143,-0.001565956722063827,-0.01134102063017342,-0.007080253544959239,-0.0001018691340080043,0.006327897881336023,0.001604598069248172,-0.0157658934911692,-0.006471756194226215,0.01196792607471128,0.003859219821220279,-0.006848367058099281,-0.0007554956390135472,0.005165535170292936,0.008053286107688851,4.933072200813952e-05,-0.004942572013695017,0.0002550766159429827,-0.02160341647409554,0.01353291587618395,-0.02415277233819221,-0.01136170137341267,0.006209385011974533,-0.01179478935207403,-0.006424836060004659,0.005609534395176813,-0.009416858721887956,0.001716732002560186,-0.009965903221881369,-0.005788900819784412,0.06136279415892928,0.005569063702015027,-0.00873442333516993,0.005419203331207389,0.02128953402844897,-0.004609678367172783,-0.01193858751043674,-0.01052919233035208,-0.003481904552197281,-0.02375311491520978,-0.008233179299435001,-0.004400962671010193,0.0006118728622339358,0.007065111661181207,0.001023441750366116,0.01588500269523967,-0.004459122419896764,-0.008553086484440971,-0.006018222202587352,0.00158713932537682,0.001563010008916477,-0.01298036592400807,-0.0001502146418066992,0.005801958958992988,-0.01932517812036196,-0.005063520875258838,0.007365167170379021,-0.006851842842516147,-0.001380844516837159,-0.02572615826662273,0.007095094626644814,-0.008026173421458551,-0.00495672983502472,-0.008128345506590126,-0.00333997422312524,-0.002138913956998826,-0.006023545672587015,-0.01558942680189599,-0.0004861069479097725,-0.01302257172715248,-0.001649619893862596,-0.01184459569891809,0.001954557103111761,-0.01962468276256729,-0.01664256562664166,-0.006275567051369811,0.01388761965954131,0.001733468461254671,0.009946116127829993,0.02213413453242684,-0.003732346135916007,0.002435263263398073,-0.00663094661808353,-0.007589061569597894,0.005512715451067375,-0.0157149647487233,0.008566853082117626,0.005016610982739502,-0.0251751143955607,0.0063076436069565,0.002613228469003536,0.007732561801136646,-0.005999120046162749,0.01096785887986556,-0.00646625804448821,-0.008065567183576476,-0.002708463015599303,0.0007534201393088573,-0.009601252732841174,-0.00383946955048459,-0.002184521913987715,-0.007857904678434556,0.005051267024779745,0.006943006434175976,-0.006165589467601094,-0.01993618484048701,0.01692798911422345,0.02646316707541417,0.01558303968867156,0.01062455678664314,-0.00578380266901425,4.296101083896883e-06,0.0008780416626074922,0.006161172585083536,0.002677159733933985,-0.004426259189984346,-0.0003868007012945525,0.006776131525990201,0.01326528680394443,-0.001049396163920225,0.01055595661638791,-0.003006712024422743,-0.01723693799710009,0.0002688253319730993,-0.001180717077739747,-0.006831379596093313,-0.003893505038116456,-0.01889868295732493,0.01305985554823678,-0.0117920200862665,-2.137543411078615e-05,0.002001800310294731,-0.010512335443926,0.003558076378344229,0.001528163727691161,0.0133726003960098,-0.01159875851705087
-0.008346772796291542,0.004610233431167753,0.001749820799943079,-0.002863487990470517,0.006740457681763403,0.006621291547585682,-0.01357528181657184,0.0004132850894561772,0.006398331894099767,-0.004299165362469459,-0.003980179975296701,0.001824868149689106,-0.002242492298105448,-0.01106751617457482,0.0008272064696689956,0.009819051194952959,0.008682587605531323,-0.0003962212088112644,0.006500475243545642,-0.00807812238126954,-0.004805085951272757,0.0025999251488048,0.01534068141659891,-0.01812993440964425,0.002088857615726,0.0223879249613184,-0.004553028635477358,0.0004436139764246873,0.0006604631095203413,-0.009211977224315583,-0.02133627742605721,0.01004932890833165,-0.006009520224154473,0.002121320203486926,-0.001092087670366646,0.00255469312682877,0.01026630879918599,-0.02293777394357793,-0.01346573208543301,0.007808945067401901,0.002266637620789046,0.01534205938984786,-0.008430939588508544,0.0239955150808761,0.005745644428922234,-0.008858580851207007,-0.007454473751217167,-0.008272992391121489,-0.01432315426917396,-0.0003495195496074083,0.004031481905911883,-0.0002426056245452991,-0.01835720968394582,-0.002678309624445457,-0.006199869875179182,-0.00623115253252967,0.002801670908621661,0.009413907860311965,0.0002607311476075689,-0.002888575276840606,0.01799075399667065,-0.0009909448030911579,-0.01304403287252433,0.001624741208768286,-0.004071881545192635,-0.00495008534647738,-0.00584662001946209,-0.004927712037738874,-0.01532312982379467,0.008763951339616145,0.02300237106564715,-0.01102366694265155,-0.004361790622229651,0.004671948815678005,-0.00477989671854026,0.005571028193962411,-0.006854122357296645,0.01434877285061877,-0.008418071940573937,-0.00111739294271226,0.01532835453353812,0.01668659881055906,-0.0004007589270816145,0.006522176297904561,-0.006499711029226244,-0.003353508787562318,-0.02440145541982838,-0.01748037817842032,0.03023538543326292,-0.01252290586054214,0.02124074885822538,-0.006514099622233013,-0.01533602503646159,-0.01124701880202526,-0.0005283156468294362,-0.006222175828692479,-0.01033585301587355,-0.001002679091811966,-0.004611144789287583,0.02005988805875134,-0.01052493272340773,-0.017878817785706,0.006925678386914622,-0.01612450562515295,0.01423065074816762,0.01142146865854535,0.006506426873953297,-0.0008784791967747273,0.02284396276138642,0.001095158962638967,-0.003838943616641854,0.01171468254726428,-0.002693984419653391,0.00905674397704039,0.0001206676401091232,0.001592513187862004,0.004033475106034558,0.00290187584525006,0.005526591903954023,-0.008966437970712676,-0.00339521401933999,-0.01662605921174674,-0.008303219650800553,0.001062280872310585,0.01302771692152242,-0.004168791406054776,-0.01400495845131864,-0.0008454059809536258,-0.0120346052657142,-0.001934752968334608,-0.01216733106555632,0.008278096968899704,0.0108778560949892,0.00983447705257558,0.003638804135260058,0.001282785243265638,0.0159286681365827,-0.007877402689485247,-0.01842272236732687,-0.001205716491087612,-0.01397278285640944,0.006365784914598707,-0.006235321099541879,0.03989946175300885,-0.009888112308068093,-0.008938639885747784,-0.006871946717979189,0.0007654349457285456,-0.0001230077699722716,0.003493527852022808,0.01106787568829066,0.01533339358880359,-0.0211310814554015,0.002815249734026119,-0.007423313349602901,-0.01017807495106021,-0.001701704222351673,0.00480826030318128,-0.001678762069828468,-0.003880664083813187,-0.004187958196713152,-0.01024812515885625,0.005687047447852514,-0.01415207481148415,-0.009699510846038812,-0.003418725414391494,0.01019077978755461,-0.01778657942086538,-0.0106594987150562,0.01559983578391284,-0.01156132412741859,-0.00407551508168431,-0.01459460099704181,-0.002712378264748445,-0.01289393238565196,0.008878621930153209,0.005821300539952491,-0.01566070068134652,0.003481635289142588,-0.005303238724599818,0.0002718259143473775,-0.003130707984655156,-0.0009771701773569584,0.01286496462497299,0.004693296605050214,0.005138459890680469,-0.007674800012845556,0.0002342297612801948,-0.01232447101185608,-0.002772030813147304,-0.00560363510253248,0.003558202623863703,0.00513777517794531,0.009649439030009872,-0.003041045537237149,0.001855237347576451,0.003818353664295114,-0.01027713459141267,-0.006135210380291457,-0.00582122240126288,0.002685140841578327,-0.01000499525700636,-0.0007816366306856733,0.003848360790573403,-0.003673303068884691,0.002827351066227834,0.005425044846962136,-0.00184592546285087,-0.01021017940398652,0.00494694326829743,0.01804191547153034,-0.0131858706524988,0.004927175494958555,0.003797019137365638,-0.008954934037239754,-0.002353493275909825,-0.008756753911722469,-0.000751091514412359,0.003360814025837866,-0.001623577949301353,0.009669436192634858,-0.002301194538431655,0.008887026644976988,0.006695729781347712,-0.0145494576934379,0.01685789213467149,0.007366578945707191,-0.01004863242060638,-0.01072123125174803,-0.007361146144715522,0.003112702092596166,0.009317696032178514,-0.003785985124572504,0.01020424770122057,-0.007458741527313346,0.01186248993285324,-0.002624691087885,0.0007764234148789221,-0.002804169864082246,0.009253291278303488,0.0002625669287465159,0.01506265284965996,-0.004912556418185766,-0.01144114463783039,0.01321531924475443,-0.01316848111588111,0.006650816391238715,0.009976994786309604,0.003220927572762668,-0.0004316740457593139
0.007307608496794204,-0.004334952062210908,-0.00768164739262747,-0.003680878561190702,-0.007447564800914743,0.009721508893610356,-0.003108585407663211,-0.0069192120463265,-0.01590443529424978,0.00221534775833294,0.003507700582779244,-0.01380362315127109,0.000637067471808007,-0.001817579861304945,-0.002089313423320222,-0.01385791799727146,0.00447973906908041,0.00972423234231087,-0.01070188490480704,0.002357716226953745,-0.00128491782994627,-0.01546305055814782,0.008812123740690915,0.004735938975798275,-0.006845600052123901,0.02005588754070254,-0.001412072755336328,-0.003400396263261627,-0.001928647421489342,0.01870209436343021,0.02372153257430783,0.02302685403083277,0.00504615651890753,0.02581675867136396,-0.02209005011351568,-0.004535000505088612,0.01027406864036991,0.01220943869074192,0.007698938451371392,-0.007638986852290605,0.000164871896550669,0.02601907695992446,-0.006350372386118868,-0.001254575243230462,0.02252909764428529,0.00414482325534726,0.02412654052047685,-0.008013004999974678,-0.002010584895169819,-0.0135500873398667,-0.003006293587659093,0.002087062812462716,0.002577729466401528,-0.007874349763298731,-0.0001375350714135715,0.01129597725115036,-0.003597943096541249,0.0111845486747113,-0.004627730459830245,-0.009204271037717929,-0.0128551340107276,0.01205396321918886,-0.006328853834621087,0.004048060540027736,0.001784425695125281,0.002043288328867447,-0.01448726703754781,-0.02601852885549366,-0.0144780238805194,-0.01618295545267292,0.0107473565522674,-0.004428078874919085,-0.004642287386167663,-0.01239617424790782,0.005600563631752343,0.005331122487649524,-0.003420028551268124,0.002643765657606795,-0.02555359272003745,-0.008614954145332778,0.001417047847651118,-0.007373261783105308,-0.01324037999081219,-0.000658765637153766,-0.02270421177931512,-0.005925327441409367,-0.004217565890713032,-0.008666520569935698,0.02271213416477507,-0.006298520200054116,0.01018936927989685,-0.01278461945769152,-0.02517143186526233,-0.009529833195396685,0.006575452447321762,-0.0004094098705683237,0.001055555099210602,0.008395800089300088,0.01669234853965005,0.03351422786261957,-0.0148779826806776,-0.002493536014888644,-0.01402492701502293,-0.0007039119283090308,0.001488366035599425,-0.01583767279432284,0.008541093020494087,0.009086679330185702,0.02261434052639578,-0.001222252773581786,-0.01901373395251526,0.004073379158983828,-0.0001634624687469968,-0.005293409050192896,-0.002072442019722994,-0.007927433236728103,0.01740145041189636,0.01127742709798181,0.001151172019550206,-0.01081697996733669,0.001918567663676073,-0.004078367363930968,-0.01988128465829971,-0.008617981120894078,-0.0178697273309537,-0.003171260874972021,0.003581835002797595,-0.003476021209057172,0.01412203363837487,-0.001748239827702861,0.0007608799797474351,-0.01766881044748617,0.006974345659614242,-0.005175050746707197,-0.009768667518673861,0.005935947616785006,0.003250001919071878,-0.009653723476714424,-0.01167784885575831,-0.0005503877431663258,0.007221271142763966,0.01511905296093119,-0.0217107935833647,0.06865652435344009,0.00787000744964711,0.01333944935919952,0.0006481535455686764,-0.007113404086699739,-0.00522069418983545,-0.02000395017983005,-0.005472095195875572,0.02310847217691491,-0.002421064970430052,0.0008167834373372996,0.006035019918307113,-0.001902553148613098,-0.008143364655918096,-0.000750279437918307,-0.01664401569987081,-0.001123622692266807,0.002090640982216405,0.004841454857224066,0.01426650779078766,-0.01560986312387246,-0.001670286758213508,-0.008270868582066156,-0.007710267916396028,0.01506777425189251,-0.01596014016654953,-0.002420528755469411,-0.005866322035082177,-0.005685509592117811,0.0005788555901833815,-0.0006502138789728362,-0.003590275206900811,0.01036732614702678,0.01542267754448024,-0.01155168608550025,0.0009545264641574725,0.01250823669306316,-0.01380705167996571,-0.001939141998325187,-0.01188452970413366,-0.0007649812503732092,-0.001268687073030478,-0.007513187397812139,-0.009174395243693009,0.005212175121106448,-0.0303229789306376,0.01658802052078182,-0.01752642153190732,0.007634321620234091,-0.002444457996271574,0.01633654962326731,0.003488778901176747,-0.01017451776947587,-0.01576486267847328,0.007226049644951713,0.007942526283203428,-0.01025204578698062,0.00184913062285346,-0.001775556266261414,-0.002024853706473117,-0.01534236033526608,-0.02089031303420533,-0.008684602062938127,7.665254272538292e-05,-0.004751742668102662,0.0002516603495985677,0.005086956726816983,0.006889252118810247,-0.008359391040763624,0.001710852559870439,-0.01570603744334821,0.007154390149651624,-0.003497370217619897,0.01513249740041198,0.009003622485006748,0.007425335951943283,-0.001043233786515148,0.01073010030251263,-0.0070501872744996,0.004261686440271643,-0.003183219859480797,-0.004316990351715818,-0.007030409243282909,-0.002238363274289697,0.008074104711080601,-0.01369873752260389,0.009138004263050109,0.0005123776904307734,-0.01635813221152543,-0.002812538704358125,-0.001646555893883759,0.01390689882542834,-0.005898230415113359,-0.000522679131209358,0.01856841940081964,-0.01703448461731434,0.01230328289772666,-0.001110650353539347,-0.02350378342706079,-0.002654097131209665,0.009933696944506498,0.005632113567119328,0.009688550060668977,0.01334323689049068,0.02319577387031372,-0.004350071709392349,0.000873334750577221
0.008001657958397931,-0.002956810490872947,0.007801634916332754,0.01970957728900889,0.01436487889502094,0.01543608511240368,-0.005925365993535826,-0.02311653293543403,-0.009937110267977067,-0.01757878570646698,0.005849939391169572,-0.01775178645996328,-0.002559976888724411,0.004315730780700328,-0.01928338016685057,-0.009103837861172887,0.003159101268139225,-0.01885910344857162,0.01282833336812182,-0.003774145761957115,0.001003137529660444,-0.02512073079709106,0.01994798972282042,0.002741360501005043,-0.007241967023167602,0.01233994671518676,0.005973452123837354,-0.003955922126254957,-0.007793376118860915,-0.005894149661335297,-0.009672250522736812,0.02201527855470629,-0.00333601673427559,0.006075751929778017,0.01224242060209035,0.01306480327954294,0.00156077712389097,-0.0001952722886633396,0.02015495458593075,0.0189607610322226,-0.01052981756278341,0.0192609449922407,0.006641532048583481,0.01587759344905874,0.0002607358435698007,-0.00547762320338141,0.001655553696505056,0.007144740595436449,0.004323642692642458,0.008848004880741734,0.007943912905349139,-0.001782373129701711,0.0104454418853177,-0.008297802369072363,0.01788333064927708,0.009456004441357045,0.003122068552723084,-0.005292856573749164,-0.01205687975362413,0.008444109520407318,-0.01076128320367118,0.006382027729750373,-0.01651557399985515,-0.001352039822913078,0.002274309724163999,-0.005323801266369259,0.01375695230056183,-0.0004213374383554025,0.001603309141819796,-0.009724354676026142,0.007744127507387989,0.00379910797287911,0.01122433842720432,-0.004977920780348272,-0.006264345156368923,0.01787063612838762,0.003798734118327023,-0.01230354764720333,0.004431236461553838,0.01548322898290605,-0.007811424382394005,0.01907822316123946,0.002560889788108097,-0.02706752312379804,-0.007228898376308464,-0.008820180459928198,-0.02824761680629851,-0.00232892178184061,0.01779488191883085,0.003159329754232295,0.009491018142723916,0.01289033553984223,-0.005352002212072092,-0.01772187165785987,0.002777043577682688,0.009518617233135553,0.004851998858743894,-0.0006706392344928825,0.000941844831807778,0.009655720611526822,-0.006906059616641846,-0.005403442978415099,-0.0152451056450058,-0.00220670247336502,0.01618903231115772,0.02171518391786034,0.003665218354808909,-0.01884267668455208,0.006081071364002367,-0.01550201399520977,0.002017993958686087,0.002657742577612408,0.01431098117769961,-0.01233926458740179,0.00956959819585949,0.0068347745974003,0.01684703402132211,0.002055276715911059,-0.004587799868859374,-0.0150944029270953,-0.01050496619458205,0.009209198443704818,0.006625159105015846,-0.01091115440471372,-0.007990320629429755,0.01446406153799668,0.01044815460769984,0.009548883146180343,-0.005062556798981609,-0.002153589795763702,0.00634551790031306,0.01284613264970696,-0.005795151077618902,-0.00383754245397123,-0.00199002070935185,0.016555561371613,0.007489937350757135,-0.000741580381139629,-0.008468241473425729,-0.003577310491635497,0.01734001171917009,-0.01733847664993128,-0.004439578149059296,0.04825925346105296,-0.009845413885104123,0.007115485990270227,0.01402851420849986,0.01352877157268392,0.005228896518408419,-0.001427181853336082,-0.003784709087696418,0.001880802051950388,-0.005729339010339523,0.009535047077347278,-0.0008553216945870801,-0.001595724212408939,0.004228346204319967,0.02036844420496555,0.01599391762447522,0.006435636511414129,-0.02720196158716954,-0.02144541313152586,-0.0108687796531055,0.008973168063478448,-0.00635638296277798,-0.001884339249609698,0.002754260063002938,-0.004283461930071974,-0.005933919879037014,-0.0002377370109055512,-0.003456876027535376,-0.01837193289813716,-0.01283346262631234,0.00372452804782511,-0.008607521956128718,-0.00990745587699755,-0.009578332010475534,0.008965854232724708,0.01010254830188565,0.00183635467814357,0.006785492879538047,-0.01055758385545786,-0.001772643172842552,-0.002904393588565369,-0.01211357142108976,0.01451336761037675,-0.01485106596824743,0.006231641127817981,-0.01179223577549702,0.01624791062922422,-0.02221330935134707,0.01193547344636173,0.01168833271450489,-0.01136565239243415,0.004604710531834763,0.01414285351726536,-0.01438082487083942,0.01614829084632603,-0.001602888657414466,0.007442765678716642,0.0005824670454474283,0.003724446646631477,0.005156512286969531,-0.004445052126442488,0.008438999207491422,-0.003987828503205069,0.01217552436599315,0.01124027309300724,-0.005453588783714079,-0.004046356375216557,0.003227762817258641,0.007949703051191978,0.002099238301941515,0.0003798068208909128,0.01605651832947938,-0.002132201894396349,-0.0009449986774554072,-0.01553616543082408,0.004915858917278288,0.02308715516095979,0.01622008845603705,-0.02038635771432399,-0.001295420720533321,-0.0009971150134013261,-0.01161131109374295,-0.008512577273336723,0.0002393715662960127,-0.002284018827888557,0.006003651714988885,0.007187488414633132,0.009184755475477762,-0.004186504279346589,-0.001967949008285664,0.004281313038217228,0.002309027688135972,0.005462290027571411,0.005941328544216047,-0.002182717759866512,0.008301902410535229,-0.006235264618957217,-0.006612657012056093,0.000753726898994527,-0.01120372808853233,0.01209167964223286,0.01221615404990195,0.006579565056868492,0.01595470477654048,-0.005275810870604677,-0.01100526667585356,-0.002402804960497992
7.146923309826118e-05,-0.005227861971457261,-0.0002229588493224391,-0.003213250738681056,-0.01756049350760935,0.02030200880072929,-0.0130530612599951,-0.005453391541277269,0.01542270469811928,0.01144219670693055,-0.00831239681893629,0.004712890595679277,-0.0007664698972964393,-0.01572941827066006,-0.0169404495760634,-0.01042800390471869,-0.000525821380153139,-0.01557320978595633,-0.005459170446890339,0.0004928747601266473,0.01339136913177605,-0.00513320272589965,-0.009347024965300259,0.001564912509105727,-0.003681897796902388,0.004693203452845711,0.006431856980836163,-0.006087058626144134,0.003560949623468297,0.005052766508444807,0.01135859043315702,0.01838030650216783,0.01275726969576296,0.02228490122633246,-0.006631224859596755,0.007356342102802459,0.00622130676977534,0.002692313609017799,-0.0007794688905824814,-0.002639544034976106,-0.01607410843073024,0.00284946909318644,0.001890858913711556,-0.006549251713023315,0.003774445905937789,0.002900791479267278,-0.009823575594569372,-0.0002826105840852326,0.006244261641960933,0.005224566295256161,-0.00797978423619017,-0.00283065383695228,0.006840914358376684,0.005826094536140605,0.008295103567041773,-0.008507868366645212,0.004520120673505613,0.006430740307517171,0.01915076142478805,-0.003008150909358672,-0.0003962916266035395,-0.003730314615801922,0.02271952539237808,-0.00793058124457531,-0.002983662834469691,-0.007251201068874128,0.002118121304959046,-0.009378050617290055,-0.009709992132105088,-0.01376068967503783,0.01453438637813494,-0.002501459207632466,-0.003407028167087822,-0.00397513791248268,0.005875609569429083,-0.002140256132329246,-0.01305417765806475,0.004363900120943218,0.001813243423117112,0.01114540109015496,-0.001249704924988884,0.008055647355216227,-0.002610145452332516,0.00952893701064586,0.01311781142959883,0.002840699491309091,-0.01569988878625894,0.005418820864968386,0.008306252775850427,0.008465706493326506,0.01423302013083101,-0.0135602884772867,0.009530820095396041,-0.006671427411564955,-0.008379974593913384,-0.00994708538311072,-0.004143594085147911,0.002975333927051956,0.001627404686073778,0.01219155954977931,-0.02071296513754108,0.006673093502576355,-0.01425437008776595,-0.002836631880938976,-0.007489009030982529,0.003365419760090518,0.005019399506384552,-0.01389607368948216,0.004192448197119843,0.0005105690997128878,-0.009958996285082636,-0.01546764754268367,0.004309326920158296,0.006164243640311966,0.0181399962373866,0.01826945790848233,-0.01121916791684468,-0.004501942361178553,0.008987506032434462,0.01197648490411004,-0.008318086383521177,0.01431227250222002,-0.01295382516607231,-0.00353566246718286,-0.005443080058388524,0.01177091386103937,-0.006839229458709756,-0.003917453353109429,0.002537241196881448,-0.004373036882623308,-0.001204865737489898,-0.006295346566689959,0.009298277751671413,-0.02365941739892102,0.00369630373446335,-0.00833499709880613,-0.02635880190796691,0.01301569446189516,-0.01505112446866352,-0.007971476993465669,-0.003502594158388919,0.02008931129348761,0.01664872409876218,0.0447763777237308,0.007028150827806074,0.00807287726242935,-0.005474265671923126,-0.01462317572947068,-0.01003433653181751,0.02622502650299917,-0.009602296635079589,0.01424115235064921,0.003762335433893762,-0.0008407123901088982,-0.004171833850454088,0.009167837709550156,-0.01235453462045643,-0.002948931817866011,0.01445565350059487,-0.001985207855424922,-0.01748083083467547,-0.006551957869255101,-0.02242687546210741,-0.009752079909049458,-6.600074854295232e-06,0.002850065618245831,-0.009750527654493742,-0.02707071232374337,0.003175630847916883,-0.01014603114442506,-0.0003121981749008547,0.003911213269151809,-0.005330480067408426,-0.0008150867013551631,-0.02281344646216908,-0.004830849951885067,-0.005435320288962964,-0.007554302559953678,-0.008575243580989564,-0.00912677431961975,-0.00445460920344291,-0.01727933122507179,-0.01416694673353617,-0.006419190045723289,0.01157597973990968,0.001419079854705595,-0.009042160005780181,0.001509212581629896,0.002008042685001162,-0.006295133020980686,-0.01867083188739104,-0.008473889742380189,0.01703367362322579,-0.02682322200842765,-1.971340893576739e-05,-0.01166129232749678,0.008344689244450195,0.009132504001365262,0.01185129502596743,0.02013061615610054,0.009227208220524785,-0.006889294894098565,0.01137753389549508,-0.01247788603582629,-0.001689863710841,-0.02347685153349749,-0.006722142570693033,-0.0175415388842394,-0.001374107844579665,0.0007064640039780444,-0.01653419348406475,-0.006373323687257687,-0.005757377280542241,-0.0005139502400083225,0.0005348156800147149,0.006341760889516756,-0.0174500602258505,-0.005783975620956116,-0.008348436813589207,0.003070718317508837,0.02133929890579105,0.003542791565702791,0.01329615124790177,0.01432611843890876,0.01290073584400543,0.008964023574888262,0.006780740866825924,-0.005201983820281607,0.008892393483995304,0.006286339366338519,-0.01235961420536101,-0.007417433329843647,0.006273485180158736,-0.006758699658452123,0.0009525402366890273,-0.007374605516809139,0.009663016565487535,0.01107717039878587,0.006710553863250185,-0.00385590041931762,0.001707110782480456,-0.02508822770443657,0.01984941744159894,0.004047340590161808,-0.002979313840360159,-0.008374323358870922,-0.009700749668108289,0.001721923109142751,-0.005316812096702877,-0.008418119893568643
-0.005125988650893858,0.01095625438833609,-0.0006273901363223073,-0.004260775499125528,-0.002864688773556368,0.009564441841378916,-0.00132210531328156,-0.01159952473913661,-0.01579881927798743,0.01477035379846404,0.002811796299102428,-0.0134188643162961,0.02673600665031185,0.003536149803654325,0.001230581401395511,-0.01791275187562393,-0.01111935998861978,0.006569519231461021,0.0002352451551053873,-0.01687111851330429,-0.007307339420982733,-0.003016960858567808,0.01925313969292858,-0.001926716415067663,-0.003839097944614387,0.02111908237227421,0.01366842972365055,0.01701280003571526,-0.02182709536454734,-0.003115663598019609,-0.001111260182317725,0.01970334256430508,0.01099902311715494,-0.00397737236797187,-0.001106974737526312,-0.01769366292549332,-0.01203365611849199,0.0033735166077479,-0.01221668753445151,-0.01769689445197565,0.004196914780893566,0.004001625160649476,0.005493735610923895,0.02524684837948402,-0.007490223085100794,-0.0111579999519663,-0.001836041193485504,-0.003121799060675562,-0.003744620724440419,0.0005447786599444058,-0.01098826806844746,0.006955704989076232,0.002019506280838376,0.006524748096008633,0.01362544947810976,-0.01501083600022453,0.02682846501532917,0.0005476957832470722,-0.003273136943070029,-0.007109945022352676,0.009967001849490028,-0.03782782868768512,-0.0001797495458457808,-0.01816116905306738,0.01260363201348553,-0.01604079409683502,-0.006612186387771896,0.007821524440911547,0.02045531470706411,0.007367478588026379,-0.01090742577873624,-0.01131436215954017,-0.00387806261117899,0.002520137761670348,-0.001930743810541793,0.006366424831667812,0.01068364823110316,-0.02356772697538609,0.00691600809499657,0.01749109872881697,0.01694657672243007,0.002892699018496596,-0.02500086258996957,-0.02392858078126875,-0.0102563204079579,-0.007883813277650026,-0.001465081784862284,0.01179717639930032,0.02264858687979213,-0.009497378815880898,0.01113624487321172,-0.01554169358054821,0.01196277083095862,0.006905136562982133,-0.005200720962040051,-0.0005714460154845973,-0.003580677612157615,-0.010208952900512,0.002374690060450347,0.005459138606783654,-0.005382674006063844,0.01102250653788861,-0.001730605472332737,-0.001701682756649078,0.0145810728975853,0.009106766037676604,-0.001752737588171418,0.001307359704702621,0.01817989883490477,-0.001488229742311839,0.01346294718877668,0.00187671283719131,-0.006218833174473513,-0.01745323438140993,-0.009265098129543872,0.002860796508107403,0.001652835034016868,-0.006003954986431398,0.004770931706445169,-0.01828340029058831,-0.000288836410477197,0.02422381989957017,-0.002046014726513871,0.00592265335618781,-0.001596557308746302,0.0010138538511746,0.003168571188925238,0.01278828565752952,-0.002937770764885706,0.005939217527831932,0.01159514333281932,0.0005928936431955413,0.002562227143108053,0.01072475822728836,0.008811063629737591,-0.01523674414321672,-0.0130298568354754,-0.002147542529152799,0.008070226127573313,-0.0005569476843162364,-0.01122095704913173,0.00157811417874832,-0.000804466117314597,0.03924030958237441,-0.01224103837944563,-0.008808266289002461,-0.00909398837985741,-0.01188709546220669,-0.002634302001517045,-0.005200138344948241,-0.00565284687508211,0.002462081899249418,-0.01175602240843991,-0.007764012565865938,-0.01309671490183125,0.005777438534810013,-0.01371406486475772,0.01723387708271793,-0.01250047584741486,0.005413850117690879,-0.0009627260624958679,0.001539517432064568,-0.00375609217798982,-0.001193966626860134,-0.01239749236520189,0.000733540657026572,-0.007905036579778675,0.003660975264389224,-0.0006877129138127049,-0.004520248985503885,-0.00272532403084827,-0.02743912765005362,-0.01638777510912777,0.01813620346310659,0.00311116850872424,-0.002615560452690125,-0.008936810855659717,0.002056819621872327,0.001610776290657574,-0.007772260431511352,-0.006047167040291757,0.01321855005855437,0.008507267146269851,0.01094836840948,-0.006585414687262997,-0.01115328980145316,-0.003367143566381763,0.008245657310203887,0.01358779194491628,-0.01032741134029773,-0.001354721834822004,-0.004819437382769139,0.0163845295221841,0.007498805215287676,0.01079677221970354,0.01292892754406796,-0.008458414611158803,0.005344686184593467,-0.01109899862334695,0.0008194678950355614,0.01884319172401575,0.003700858005770659,0.001919898091239463,0.01139947392925056,0.005607515873874547,-9.538038914055024e-05,-0.008611305339186342,0.0007452339510999515,0.0009246479406843278,0.004119800971973631,-0.008633467510485245,0.0002125747391838959,0.006817704115816503,-0.009158112208895151,0.003530787357930584,0.002368442074815144,0.0223002913017492,-0.01196369864632715,0.001089958788388436,0.01836138720904948,0.02946771307708733,0.004225186293676382,0.01398104968008043,-0.01864304029035683,-0.01436121009094608,-0.001912033593329693,0.01105667957336592,-0.01362739649903783,0.012226907866829,-0.006217741725684912,-0.01479345308307938,-0.005448817755496077,-0.01428171805766777,0.007657767491707403,0.003913472331554205,0.004692268001537278,0.01235395804053865,0.02504559745385302,-0.00991518694941433,0.005067153876337623,-0.003294349419907837,0.007234860765858639,-0.009919764489529347,0.004515251586584185,-0.01692480301559433,-0.01160884909002034,-0.007623835069598421,-0.0001231856276620762,0.01489917713835695,-0.007325813776023279
0.01294227030931201,-0.0004294578595252825,-0.001908196746482729,-0.01215306474471552,0.005750078376797467,0.01463442740825599,0.001945915633237901,-0.0178128262766561,-0.0009595378781498778,-0.003133747660965189,-0.01144096160931709,-0.006675464909515775,0.00307355986801004,-0.001411312222924687,-0.006558855070028043,-0.001210779757830586,-0.004515764778258831,-0.007469513266269831,0.01010649369170234,0.005393173277157161,-0.003974606634215165,-0.002423578596827727,0.01270730597287302,-0.00151448674529172,-0.0002485369496217829,0.01918318351754142,0.003701240838236995,-0.011141586061495,-0.006253353182327736,-0.003096872471609831,-0.01141946318083907,0.01775331193878729,0.01189114831052086,0.01280703229737391,0.007197035623647187,0.00598804473655402,-0.01809567515995279,-0.01269688321190802,-0.003713232371153805,-0.006005653533869325,-0.01355661125957987,-0.001092215947032253,-0.006368051622265314,0.01205925853912936,0.01088632596707433,0.005400115010631234,-0.001900788269811466,0.003610573244339295,0.0005973553717989315,0.01140202069287832,-0.003512533708799823,0.006424890415090718,-0.004072193601514435,-0.01521483329805511,0.01493400018736458,-0.005531513979836529,0.01072239221407514,0.02169129476086733,-0.007237188373997915,0.00430709226317815,0.000679670122992052,0.003807139713716342,-0.008030561117137035,0.01096608868187422,-0.01437846352747004,-0.0001587873987043397,-0.001792038004307025,0.01206424748212211,0.0005625713868576685,-0.002339640608790616,-0.007959420801768485,-0.002393051453356676,-0.01161698869262409,-0.01144178352252857,0.009739664731224756,0.02371237917864744,-0.009793272130488553,-9.735665726281161e-05,-0.004801752466362543,-0.01805055046429222,0.008333923180590903,0.0163594126487101,0.002037525119852089,-0.002340429368404442,-0.01241393943718048,0.00721226559222457,0.00186119036831419,-0.01940508947122878,0.02031248779009815,0.01539753188104544,0.01335691998733229,-0.003197719104497538,-0.002685271001284332,0.003722887891205448,0.01215351678628835,0.004127823222966188,0.00237912740171874,0.001472760850584661,-0.004799614308509773,0.0008182910603018824,-0.003560217725224633,0.0002864856027770226,-0.0009805816362005049,0.006674117759798331,-0.01105180222963248,3.365475777280272e-05,-0.007443629715084856,0.004788086531973474,0.02282574393553865,0.003177723973812818,-0.006664096455823929,-0.01071888106127137,0.009379887848732126,-0.004092217646265228,-0.00733964139406046,-0.000991170122468428,0.007540683296046798,0.01187607301494029,-0.007760060318095332,-0.008702335115560187,-0.02812384331914669,-0.001564635621535433,0.001090132641355455,0.000535903538599356,-0.006146204699270666,-0.008954341709339722,0.02000601848461942,0.00756576866468358,-0.002032012036564214,-0.00403794121382622,-0.003533589739593556,-0.001570597817839741,0.001477512278445,0.006137745908203832,0.0006447048717929938,-0.01547992203243602,0.006560083717781338,-0.01509667743673459,-0.02899659727723413,0.007205182293081799,-0.004844283860539681,0.00921385167664986,0.01300013794086955,0.05652066428145954,-0.002507417497224306,0.003223970907255309,0.003831963499439109,-0.005731919130787844,0.02197500879549528,-0.006953257414113111,0.00095396502028464,0.01257368095577298,0.006806336034000172,-0.01143965675589348,-0.009179081151425903,-0.01178133823284347,-0.007724107745967145,0.01621014337856059,-0.00966466237932961,-0.008051114566498201,-0.004321606420005221,0.003832202172853209,0.0002239223700513628,0.01311820879425111,4.599114228318545e-05,-0.005228007150632371,0.009614345698758197,-0.01177584022522579,0.001385817448218626,-0.005535938770389184,0.001152686542705919,-0.003760646522528808,-0.009335216844704538,0.004872870312518858,-0.002393701885672761,0.00792710878694166,0.01722438149700386,0.001631459234024593,-0.002416824691655576,0.0008109900339468928,0.0001787380077548599,-0.007052961722549783,-0.009189541661257947,0.005309749902634428,-0.007758833506669663,-0.01158066224655143,-0.01013348399659615,-0.001105550720028404,0.004210138047452712,0.01215468699266837,-0.01266272013942637,-0.005027680849582909,-0.003719915465541145,0.003381387213169725,-0.002874132858540442,-0.003625587659366524,0.009261648416578814,-0.01267682406660136,-0.01019159840087604,-0.00732855252287825,0.01374709451814818,-0.003432378554612387,0.002386381927058753,0.001282681824890233,-0.003904393034052306,-0.00804050206746754,-0.01186898131680404,-0.006690542773166072,0.007686006582833531,-0.0003158261142766926,-0.0189260279299464,-0.01071911201641729,0.009974033123124417,-0.002161941146911021,0.0007743020165405597,-0.004398761178707068,0.008885927771616323,-0.004475336981220393,0.003031955601198992,-0.01170659658175181,0.002576829055684687,-0.005988330241795821,0.02454742071729297,-0.01020243153435081,-0.005616405361243429,0.004478509647353371,-0.001660074812706545,0.01773674763964948,-0.00147791975060237,-0.004004967064659545,-0.009029193107943494,0.009225562687210656,0.01745015764367541,0.003513410396347657,0.0009257623962418389,-0.00151671532938842,-0.004352933817698322,0.005776621557264571,0.0215535092752138,0.001557390857966404,-0.003495877366871174,-0.004659485690591857,-0.01261749684291999,0.0005834779166277082,-0.002095571218958301,-0.01139300659819953,-0.01074568915976836,0.01014791997209302,0.01757879519033074,0.005984720355797912
-0.01000567930536864,0.01642343799736334,0.002879650403981865,0.007395210076388322,-0.01216498591498939,-0.0003268565996316932,0.002955191921193431,0.01144729979870872,-0.009966913686742136,-0.006989114089722332,-0.004298302430296561,-0.01060887487930475,0.002802651943967081,-0.006674012069867186,0.01533230500645401,0.006062139587164043,-0.001166226481746452,-0.0341768116364033,-0.006948868199657184,0.00311971774844537,0.01628645126996922,0.02037793767432369,0.0330289464310572,-0.009869149990572642,-0.01098847827803446,0.01283411791448449,-0.005473720345003735,0.004092803789705348,-0.009035827263016992,0.01987647789464985,-0.0007458742197635094,0.01545393900028671,-0.002267741154501264,0.008066286283713052,-0.003551510228466655,-0.007793969788469073,-0.0289439906738806,-0.005615501430391502,-0.007619698010977536,-0.01093520461188537,-0.01943285410053501,0.02942454916272657,0.004714207597309998,-0.01310344544948527,0.006006452359331301,-0.02416645750765815,-0.01800526138103128,-0.00959215013239652,-0.006644567690145226,0.01369335819105288,0.001498297220730945,0.01314064323319858,0.006514326259635304,0.004567657686341585,0.006975653792393207,0.01042227759087439,0.01012320184278654,0.00095117913703421,-0.00645301740761793,-0.01569961748185972,-0.01009554407029871,-0.005748555927248905,-0.008261122547496171,-0.006166110685077379,0.002059502983174511,-0.01309149649765896,0.01308073818212466,0.01534450452584467,-0.004495921593141617,0.003645358540947334,0.002311304562153784,-0.008131080239725405,-0.0005471949568922891,-0.00072090093225647,0.007404988283106503,-0.01643018535685507,0.002578507079485474,-0.002356920091761296,-0.009674356200264529,0.007764939403531549,-0.01061844382299591,0.001235924069428244,0.01579461244079683,-0.002682816839569857,0.001746583465037178,-0.01494325435232808,-0.002665932619229771,0.003420156690291867,0.03179965197094568,0.005943151823821396,0.001361474431877117,-0.0005884511521769209,0.01851855213169922,0.006676899751938155,0.01071494981268318,0.006175571739081295,0.002244307560602309,-0.005167450600611888,0.008424556638103153,0.01793820758919238,0.01008787615139229,0.0131123430937731,-0.01010007907670297,-0.003566911240452996,-0.001382763113411205,0.001486300576885244,-0.008103456780613756,0.002867295578466955,-0.006934593230742258,-0.00809845328430174,-0.002822511970407271,-0.01213947635568341,0.0007855126625137882,-0.009393457155865363,0.008179767921385108,-0.005135032934793178,-0.002940818004496838,-0.005662419534742172,-0.01146361766979534,0.002988730736550263,-0.001353078869062967,0.01962484711581329,-0.01043736315016315,0.0006888541148759803,0.01724866778529011,-0.01328056802298091,-0.006014922326020451,0.0092229087734434,0.004468393439734312,0.0003653897592216804,0.01790376982003114,0.0133600668769877,-0.001914008280212285,0.01343723165756868,-0.001737208226943522,0.02651758560457765,-0.001756783393799924,-0.02045952379064429,-0.006809007856348331,0.0007393840492502019,-0.00649790400241284,0.004103840934923573,0.007431020948555334,0.03835511576622278,0.01679476144953227,0.006497604325279748,-0.01198796268250109,-0.01814971463993876,-0.007215996054610969,-0.02036982203374306,0.005320389326574868,-0.005096254079327767,0.01143591222104748,0.006751266446428718,-0.01106692937796667,-0.008295513734460434,0.01674193816505625,0.02273988697341205,-4.189786540528969e-05,-0.001046052171720406,-0.01780654855781227,0.001870765895512069,-0.007676664302756582,-0.01102955484501501,0.001958528127241234,-0.002596874620231561,-0.002940361591544141,-0.02444487084170019,-0.003705686528557689,0.00833298348902016,0.008060454566582154,-0.009262353965015549,-0.004763892701028683,0.006000645658555672,-0.002844553673480112,-0.01442097186137729,-0.007625470682936591,-0.007898640276395544,0.0001299251868040485,0.00657815337752266,-0.004828079309677264,-0.003260481466854295,-0.004712796623299627,-0.01520589636563679,-0.005395387253977615,0.001763433508962766,0.002101058350994292,-0.01224203378197231,-0.02390187929158069,0.004192370258526832,-0.01570713223783672,-0.005492339605051411,0.02137863363611596,0.004906424084762655,0.001746117919154806,0.002943484575832888,-0.002430883466507733,-0.005588742839980308,0.008882345664576442,0.0001387051976245849,0.003325773696873854,-0.006291281372534232,0.004848796436329251,0.02167672441907492,0.0002979308849353105,0.001882802949773555,-0.0008499395512146214,-0.01112375652868754,0.01668874134969578,0.0130209803770382,-0.009653305208422785,-0.001641690348325599,-0.00611283828062195,-0.0105904211457148,-0.01384010700970306,0.00124860127263869,-0.01229722889611815,0.006112967683672747,0.006178078056684753,0.007705810504006814,0.002288161610667317,-0.008917829099206834,-0.006051312041812274,-0.01279337755844666,0.00990691243003515,-0.02484592539101029,-0.002136542401488473,-0.0102590119700898,-0.007311811575043728,0.01041365562469099,0.01084640760630067,0.01440658645382116,-0.01184457714010404,-0.01055033572818294,0.001705844713307795,-0.003589326800715592,-0.01199266548532489,0.01062356480333143,-0.01966405461127461,-0.01005139886260669,-0.003768362112070016,0.00849778323001517,0.01294686099611566,0.002803372477164806,-0.003740869105641456,0.0005797861130832959,-0.005874804439077643,-0.005174616138982651,0.0186712427923529,0.008709475393879828
0.01535261251547337,0.01155172505355684,0.006472851625225737,0.02445631967808289,-0.002185681687347092,0.001642158822884615,0.008933608074115865,0.005527755078825873,0.004861277945525953,0.01428898639776129,-0.01544694694903152,-0.00877492623132739,0.01596721680695472,-0.00624041656356729,-0.0094464908377958,0.02220815925568006,-0.004537238614564752,-0.01316867502704433,-0.002719161292213815,0.007345111295247754,-0.01373648506019014,-0.01311957007206182,-0.004329467014728612,-0.01408077569061316,-0.002011473411795855,0.01938616663695252,0.0006463088246888444,-0.007760240524943106,0.007854234018703925,-0.001169817057406793,-0.006473069374390199,0.03234949176497583,0.01058533585673039,0.003290432286525637,-0.006323603610995323,0.01181721277047653,-0.006323345745473356,0.01106697884896018,-0.0242176144433786,-0.01323737176627135,0.01314408206632815,0.009777428667877777,0.004899040474408677,0.01655550052571597,-0.004196649796733277,-0.01086026608820498,0.001091557914037454,0.009540405556670788,-0.008510376787497866,0.000457882749482707,0.007939371241943702,-0.01043593603270301,0.007737448049703048,-0.004503587368301916,0.007533635907130781,-0.01162756786470984,-0.003783644227230754,0.007465028806073275,-0.01170940502685942,-0.0164306707731159,0.01009081951509741,-0.008619848940544007,-0.004076569779029138,0.009575272974163404,0.02638818392719815,-0.01701244612437462,-0.008889374248115282,0.01283243187204863,0.02126372285549847,0.002536769061317819,-0.01097653677960706,-0.01482616346930457,-0.01343091551933717,0.01910701444788973,0.009622481077891782,0.001523890974603146,-0.02627698509039116,0.01914746897223831,-0.002486487206723904,0.001681317848558131,-0.008929231336778322,0.002819701794666331,-0.006857659424281811,0.01093867770609169,-0.01156469321857619,0.005753588803318868,0.0003140099944611047,-0.008792940632464264,0.01939095400228911,0.004923032709052754,0.004588102218956934,-0.01968993753362228,-0.004510690037196128,-0.01676330504473047,0.003431822594463191,-0.001273971605530939,0.0105903071203811,0.001400237752827689,0.001433002000769731,0.01723620131510431,0.0113059367598071,-0.007042049363468555,0.003585982209712058,0.007290393498786828,-0.01159448731464256,-0.007883248436615004,-0.01128289190235774,0.01067477068636498,0.01706269267244362,0.01031143845142392,0.007172932961576249,0.009447102978960757,-0.01601054172566879,-0.003793743373562663,-0.01045715700833453,0.009349082685095026,0.004718551529957561,0.002238170969546205,-0.01652292986283882,-0.001516847703793784,0.01097079009647981,0.008627930289923093,-0.00842271654203053,0.006523604487020444,0.008763999764125766,-0.005878086509347581,-0.005788407105809126,-0.01338495897201773,0.01131770797217927,-0.008080222959820232,0.01641956499841701,0.01448608346724141,0.0111949653430003,-0.007741105888357082,0.006055652017355291,-0.008716963167416625,-0.00487646210441379,0.001915644291546155,-0.01165432621301805,-0.004393473619740384,0.006041133020501467,-0.03465075176204358,0.0007178737968253578,0.05474931471262481,-0.004933530619265832,-0.0007794401596556847,-0.001866598334746023,0.0008660754372066511,0.007799360329716265,-0.003242504116918052,-0.01809321828282619,0.0008903076164478679,-0.002878072658388885,-0.01334117313075571,0.005159905577096099,0.01098357513628469,-0.002727269700563297,-0.009107014680506276,-0.003613844734110601,-0.002470683875074311,-0.01043724997727568,-0.006566858979960598,0.003474933711111254,0.02981638258854518,-0.01590408853089862,0.003223188387030162,-0.002233452377975567,0.001206070079349638,-0.002007489903943615,-0.004051823337395158,0.02317877121060937,0.0003048891813062876,-0.002669871085533536,-0.007149013761613822,0.00509420265639728,-0.006319651414020531,0.01022985877206473,-0.005071935294331854,-0.00748807843792404,0.004318528728828881,-0.01822629698868435,-0.006849047803240348,-0.005924016556060153,0.006447461809767971,0.001164114601851941,-0.0118947676849605,-0.01169068308035351,-0.0005606828065556231,-0.004789161926175256,-0.002411406763147192,-0.006642310700541832,-0.002483334165672607,8.764200054369505e-05,-0.01042135099695054,0.004951513339618053,-0.01102592966543642,-0.004550031588762069,0.01860288909634348,0.003373832258204678,-0.002332082307828016,0.01275714277433271,0.02621902460570505,-0.007161140944685934,-0.01534038487118696,0.01319894298044544,0.00232744487327791,0.01494577585613254,-0.01617803691302513,-0.01198419871854717,-0.004091206824471567,0.007850957699074668,-0.009623631238311291,0.001610606498530546,-0.002852463389509935,-0.006507205979409832,0.002540456513515408,-0.001784864025012563,-0.003776055348244457,-0.01857307088628035,-0.01266838163126813,0.005281955168258278,-0.002044950155193896,-0.002778612019833108,0.003754909537320203,0.003007667804281842,0.0001822513926347098,-0.01983125919835445,0.008687974065737248,-0.009980185037639398,-0.005156437148175109,-0.01260580751852262,-0.001140217993557443,-0.009072716724340976,-0.007139286203288323,0.02422367404234533,0.01083198766301658,-0.01285437101108827,0.009112760908747334,-0.01209022945511727,0.00441025745985673,-0.006844794545638384,0.008583523809059676,0.00757209041979643,-0.001374045919300385,-0.02057883346462071,0.00149869987473118,0.000928917999405488,0.005709572779535332,-0.01291997682647614,0.000834827990661285
-0.004116972565068805,-0.001849099017536948,-0.01382906659419338,-0.001587549160276124,0.009932145187626877,0.001231060352534592,-0.0114016788711498,-0.005229006877628257,0.002671686423469029,0.00224435134396723,-0.01095092812371343,-0.002933265423416488,0.004422553726168722,7.036563837392053e-05,-0.01239511884458822,-0.0185220619519471,-0.01181373147313733,0.003438058790805274,-0.009650237261602537,0.004911514893483038,0.01399291857197023,-0.0031591071849451,0.01218170345583791,-0.0101816625879985,-0.00506142981321265,0.01830433145511267,-0.001235228600440036,0.01394635759857538,-0.01583916644997326,0.009305996261691808,0.0116994484240374,0.03194593363047445,-0.005018479092505585,0.004420520594964818,0.01159328635408772,-0.008833952404911255,0.003492524227775884,-0.006807546176767648,-0.002985103068530641,0.003427104725484124,0.003124434770609673,0.008978955854072726,-0.01082684640667764,0.006839676646616929,-0.01910692760652856,-0.00717981321057481,-0.009785018292170225,0.0141144915982432,-0.006511669714001397,-0.003653875252005344,-0.001234043680424427,-0.005298688025528957,-0.02028895767270654,-0.0006687233505434807,0.01478679495671253,-0.002137152288874861,-0.002929639071164405,-0.01270675612524876,-0.00583780037713545,-0.004977363751862908,-0.004117228406041472,0.008653412112093504,0.007824054525352821,-0.002367636305405518,-0.01110899237610799,-0.01349433467062575,0.01314319033634822,0.004181413676687737,-0.00773347873426255,0.002319911277974956,0.006206488901939576,-0.005626910303500121,0.01191267422191391,-0.01331914941135007,-0.0109271530521038,0.009873354810948833,-0.008966711782885113,-0.01009807955382503,0.002408675808124872,-0.01382413676439681,-0.01351413189434738,-0.006659767067725607,0.01005958371959836,0.00973513071900233,-0.00375789130696777,-0.007797332462133871,-0.01260265649630024,-0.03011705206516537,0.02971949356949678,0.002044620728755423,0.004278459782775228,0.008127883910893521,0.004200320911368614,0.001291233668979032,-0.002196329922224037,0.008296806373388799,0.008411540166996212,0.004095207004149776,0.002131210048167261,0.004461523400712604,0.01153769018202232,-0.008189223526285481,-0.0107302647566923,-0.005391761732025392,0.005846853734112567,-0.007883780671344768,0.003031003243424079,0.01090272272934551,0.009302748709797554,-0.00435322211924185,-0.001186801418621832,0.01409251860274644,0.0105285540551951,0.003298623138734662,0.01009331480074422,0.004476759240940325,0.008799765381762217,-0.0176952931313363,0.0096158571545695,-0.003933308302604736,-0.005191040127118142,0.00211851067219097,0.02061042371885401,0.01212863635460096,-0.0007151856106333059,-0.01075939483278177,-0.002759311597550114,-0.001945022618405467,0.004284888317208372,-0.02286635170645298,-0.01757009868614524,-0.01860306872275017,-0.009136715063302936,-0.01220670504400997,-0.01008137616500198,-0.003372382283553886,-0.01265246660300266,-5.118125707525981e-05,0.0009432515379010051,-0.003619655175979978,0.01734567601661917,-0.001845986888557852,0.002502678164181859,0.037097419906382,0.003356815615377962,0.00628566156938914,-0.01794262373615814,-0.009052733878577442,0.0004551746310495907,0.009210237636839255,-0.003594012159117605,0.004518718767614161,-0.008463354371309753,-0.002362266792538793,-0.01189416312343712,-0.006744733108466101,-0.0007878782721008755,-0.01265422738331269,0.002390671294571389,0.008695049538368624,-0.005964317295524582,-0.004996090132322678,-0.006438239396965291,-0.01460649498670648,0.004511964553590465,-0.01963547317366234,0.006274551672812232,0.003344227790225637,0.00662416229352763,0.003310273576009278,-0.003749336333511357,-0.008142198440380543,-0.003580220660779099,-0.008551035029377433,0.002017747544623533,0.003511645711270022,-0.01911848332622487,0.002085631705238283,0.005782267005104234,-0.008945187617191243,-0.003363001554069276,-0.01516959406264684,0.008298583938501438,-0.01649688544584066,0.004722746558042784,-0.004458954960200393,0.005451768762993275,0.003923265116713356,-0.006323388501869891,-0.006074563132257247,-2.733381652098498e-05,-0.006470838471213288,-0.002793614992063494,0.008834460361527321,-0.007506717474779272,-0.008761573984362543,0.01256494506308961,-0.007396633120708084,-0.00877560699775301,0.002561465373174803,0.008276252075206839,0.002498294743448427,0.00905641175449168,-0.006605633785462993,-0.01166683181215905,0.01044476817248314,0.01149331636346629,0.006923487212144299,0.0007097476350691668,0.01065305750320355,-0.01110349375209377,0.009271941233589657,0.01372243676618958,0.001064131828038736,-0.01168203196033157,0.01033798525568985,0.00502982430509987,0.009013544384895848,-0.0006005314519658893,-0.01249313365663204,0.01002612597383745,0.01059165913156651,0.001149542045242692,-0.01411681638884913,0.01534453536941185,0.008123813502225331,0.00310794268463062,0.008260958069037969,0.004811444672897222,-0.0008705078004805194,-0.007980838143352261,-0.01861217864448432,-0.005736722761275491,-0.007244302024936995,-0.004505509732542004,0.00201302388710142,-0.006475464738667475,0.001702004460236637,-0.002093671031881291,-0.007516411280289677,0.004872009920873981,0.001134828314496839,0.01249659250156557,-0.003230628329035866,-0.0009079299109185212,-0.01280997510479965,0.003909977967552133,0.002165146447031239,0.01022152017636691,0.004118394040299112
0.002219012560524298,0.0063494101906116,0.004634810219238449,0.001770045858429896,0.02050365040196588,0.01915798778181773,-0.002121958566614934,0.0106939969065463,-0.009234463427039123,-0.007147642942917492,-0.001312136344015192,0.01304770823734669,0.004046166704400057,0.007439387136893887,0.004952248437738782,0.00868511388883888,-0.01565964416272104,-0.002320005894954523,-0.01456052153810473,0.00447534497492315,0.008859464131884282,0.0004535124463299577,-0.001666441071785639,0.00597369184559692,-0.00518602970483738,0.0159410648093384,-0.0007488814427879202,0.000277599306512607,-0.007257334818899932,0.008246148080198166,-0.01406872876387837,0.005405407910057653,-0.002619367675169595,0.01707866130760001,-0.005443809833931086,0.0071945087708996,-0.002654799765851553,-0.005789626198330925,-0.01633233796113185,-0.007659844586708923,-0.008073003401964521,0.01781724163146915,-0.002231648506942753,-0.01619350543598394,-0.006480111699588486,0.00586333370738971,-0.00571683895397284,0.002917175019452762,-0.01366995385187315,-0.007285296697525505,-0.01271574892914916,-0.0127707792280536,-0.01615724734977792,-0.01219933804884702,0.006348158937770682,0.004024192448629493,0.03292312067208465,0.001973126507812497,0.006416315366534035,-0.009946636819800396,-0.01461336084510028,-0.003043936482970462,-0.009565933581483794,-0.00420179451790826,-0.001454357702751124,-0.01308976769455791,-0.01137779706012542,-0.0005387313888545686,0.005104317545333408,0.004753822681326935,0.02237950835641771,-0.00490404207347362,0.00579785458163173,0.0008630499391534355,-0.001588362464242378,-0.01240361333594615,-0.00443075233641643,-0.003428076242565108,-0.008973788781172607,-0.01170086133197825,0.003344708438522082,-0.01272298805159347,-0.01618273707138245,-0.008095033907303213,-0.01843290164614281,0.01946483061149119,0.01433278230676302,-0.02108981270245278,0.005446718398628014,-0.01062393485602637,0.0215911162004981,-0.01042931745095688,-0.002110865504264029,-0.006007392533225677,0.009457107284039531,-0.01765731728060677,-0.002533200232283786,0.004292869582327914,-7.932729024995484e-05,0.0003823559109268678,0.01960884954466753,0.002853805446471389,-0.02675550986521581,-0.01691088910734909,0.01101432463601759,-0.01539476191955722,0.01124926164719469,-0.006413940386926489,-0.01006258230783989,-0.003908316856360857,0.01374970380033903,-0.0002840836305738693,-0.003217721764026939,0.01074017690858382,0.00406901501811232,0.005142425119403443,0.0009293927813031452,-0.003531942519585073,0.002641687408265992,-0.008816518657691112,-0.003095127208040192,-0.006906004118789132,0.01528465191350495,-0.01034428941823887,-0.006903978984969316,0.002613392601425465,0.009443007300617094,-0.01525518304056471,-0.007188125936652047,-0.009503691539717217,-0.003527029621266207,-0.002939859724335334,0.001037414131383875,-0.02320300407679379,-0.001537017335157975,0.01331456438976541,-0.0008954979465113216,0.003006444324130259,0.01187770841816715,-0.003560066879807317,-0.007742300509292342,-0.01887317548032498,0.01564801058711109,0.05098864044079797,-0.01337840653146522,-0.01162775175978315,-0.01596636423004523,0.01052301872599817,-0.001541866307214319,-0.004480035821922509,-0.02171388698078097,0.01456801552970205,0.01406408984696334,-0.0200381322773743,-0.01030969117232371,-0.009332513543378829,-0.009053088841616161,0.01879272952333644,0.003287509295955487,-0.01622307908263721,-0.0006119224481413752,0.01476633548699432,0.002133101987621627,0.008189448279452585,0.006228782214976301,0.006394009956184231,-0.01542701801360596,-0.007862005738212587,-0.0005299751782259101,0.005374651222983576,0.001432549705858226,-0.003355537115281964,-0.02250518477695429,0.007814706101426981,-0.008577180564611995,-0.003368284590067611,-0.004930605918083753,-0.006478404476371203,0.01259288510023652,-0.01541154892859266,-0.01564176388210668,-0.01334066319147916,-0.001144467638242482,-0.03414624160386816,-0.007730813547458464,-0.005449293027213358,0.006619439625801901,-0.005036977808353653,0.01830970101719923,-0.002352592294578161,-0.004730490237787265,-0.003865356381974042,0.01846790169560323,0.00355031757170595,-0.0136272895681029,-0.01200148433833259,-0.005616228004458393,0.001537983093564111,-0.005294031841041062,-0.003111258540202361,0.01449552901180061,-0.01198432653742904,-0.002196198227248476,0.005427420315001326,-0.003195092004761273,-0.003763238656506067,-0.01422152302445655,0.01081375225684132,-0.001547771079368524,-0.01097900852067068,0.006741994405369519,-0.01905921934449888,-0.004972396482157252,0.01437045453258053,-0.004435916160964889,0.004070409954312164,-0.01286022867676649,-0.003160914040993411,-0.005585266533052073,-0.01067832861230637,0.01505716322614099,-0.01042352488273417,0.00531083599531329,-0.005806560773847267,0.002102087640560388,0.003212141821636112,-0.0001294777416246715,-0.01672461242190432,-0.004558259257842514,0.004392670079812148,-0.02254758649423904,-0.009119107818659938,-0.007902113421289615,-0.009017321648577971,0.009671775546695134,-0.002687743335083405,-0.01442641927272919,0.02449944306203696,-0.01339686079178093,0.003082187427658326,-0.001556562928245736,0.00161619802941465,0.007646648968478231,-0.01251976490274134,-0.01963558339854298,-0.01245048652006217,-0.00108403280995762,0.01003562398120125,0.01540409017846433,0.01148453577553526
-0.0002792210698271977,0.002610074561920711,0.001577353660235839,-0.002483879535380178,-0.02659742976655275,0.008515094539936268,-0.001168983189823011,-0.01429176810625211,-0.005548674797400113,0.0009471435357550538,0.003882282727387944,-0.0009488138356765804,-0.005592470480163685,0.007804030508595977,0.009787189676696345,-0.01282370855997023,-0.009144355994942129,-0.01468120690206201,-0.009925762740221819,-0.008961950145524606,-0.0001023758017577265,-0.01161571440930147,0.03171438494357186,-0.007333778027261008,-0.001905342836552295,0.0375092980458251,0.003019949555223335,0.01024685812305585,-0.005008457255944077,0.003482868703841265,0.01683583746205194,0.02426457000982712,-0.005386705230073961,0.01052182723340163,0.01863917056180494,-0.003801814323138809,0.006250736405517878,-0.003216715905301531,0.01061311312569199,0.02237976950412131,-0.005892287164574714,0.02430139391186586,-0.004669381991946412,-0.00525707162403831,-0.01517593445593898,-0.008762001514200255,-0.004109393569078871,-0.01935031376951281,-0.003194809955878376,-0.006047386732466679,-0.01014949474921646,-0.01064670248881528,-0.02486390613052021,0.001942596074914472,-0.004302669857032596,0.005876418957263652,-0.006925739692527321,0.008452621415743919,0.004817070049745357,0.002430604578268745,0.001595448826506482,-0.001101586200830403,0.001851346862920039,-0.0002390371648571526,-0.003223505982741669,0.00124645785262442,0.00704540815334255,-0.009152531203284917,-0.001128094200067302,-0.004301928029662599,-0.001790098988256041,0.008138588598122365,0.005853497143521581,-0.00474524916179471,-0.0156397457668617,-0.008138351158371986,0.003488999895200059,0.004951724518165808,-0.005634182718267489,-0.01111216835692181,0.01959343290604885,0.01718412343995313,0.001196312729223272,0.00644485553979934,-0.01252746184392215,0.005231150166069402,0.0136139789661638,0.003626838950697437,0.02851320700026277,0.01931094609279905,0.003850613725412348,-0.02094821495349372,-0.007458866000274643,-0.00151539514566542,-0.005711698465061299,0.01138702147763532,-0.00308796547572504,-0.01174253673356464,0.00846612465095724,-0.008644742878802609,0.0104079323967607,-0.02099373748543247,-0.01422495966237479,-0.00463198551898451,0.01350297188726706,-0.004137833742302105,-0.006510502584418571,0.009413759455992982,0.0156810682492723,0.0005864660948778447,0.006697876822776313,-0.004043121545685635,-0.002577946200569944,0.001370924340402915,0.002638918929768535,0.006867298942710749,0.006690040672986819,-0.007586941838843748,-0.00827496678081638,-0.01504430408280326,0.0007476779909933966,-0.003279987914648873,-0.007240363655768584,-0.003056304388528942,-0.001986906287501674,-0.008120830873539479,0.002376509649974467,0.002350330999741582,0.01259150635358789,-0.01487776905497215,0.005646906343521022,0.00946390962895194,0.008934945954098258,0.005934122702587479,-0.009042732949631664,-0.002390303639327792,0.01153935391977396,0.008781600418237012,-0.01974120959712285,-0.001609585319240766,0.005204264535750285,-0.01131743955333863,-0.01185174664967863,0.04903805320449428,-0.01763361582177975,0.009140899752580719,-0.01078245316486618,-0.003992482881369814,-0.004429478087843507,0.0008102981431441502,-0.005374915674069372,0.0114477276121133,-0.002196424332278579,0.003850757389161779,-0.004328875350215847,-0.002222099940720697,-0.002080311051914557,0.0052492579518022,0.006496976235859136,-0.001488114047222799,-0.007018194992295368,-0.01206280950583349,0.005435139488217189,0.007733816331753495,0.008540469598600609,-0.005543744426597913,-0.00343872309132483,0.0009768169320350075,0.001590273292853239,0.002606110877412198,0.01343392113960157,-0.02054484854733066,-0.005561112302275601,0.003408989890783605,-0.003303762903921819,-0.004443582578301887,-0.01210450799822174,-0.001421247132954321,-0.01159424988686269,0.005253480286668619,-0.007113171298923505,0.005294282088563712,-0.004709385767222026,-0.02279299458553682,0.008381825175746776,-0.01191200633668999,-0.004349855300167134,-0.00043682618727784,-0.007884497633241991,0.01219896910574911,-0.002056655833753868,0.006685628778353702,0.0119582110251854,0.01080862464795277,0.003647902408709077,-0.004303134465473421,0.008330791443833602,-0.006514678171748664,-0.006483261193615501,0.00730457660297138,0.009253024102469844,0.001463463980749446,0.02064437478187064,-0.001037790115358001,-0.006524984293255155,0.01000778807564473,-0.0004729601600152419,-0.004728482943794365,0.003474192846311724,-0.01522776888069526,0.01390530608465585,-0.001868291657189812,-0.01397826313725377,-0.003727422195231225,0.01466652062288221,-0.01569584605070454,-0.01091415628720125,-0.007931185266851732,0.003869882150859022,0.02368683744272804,0.01247547986955858,-0.01509235018736618,0.02292569893442874,0.0008809645834968918,-0.002284673683780402,0.001731870322590311,-0.01433438482266951,0.01167414483013601,0.0005338712599712391,-0.003282135946255382,-0.01406167819022177,0.003269159617402188,0.005273837900293243,-0.001571565316985783,-0.004915947250326833,-0.009195448429508916,0.00171719852201704,0.007450824877952353,-0.02356581176195155,-0.0006400380235914284,-0.0037774058663128,-0.01323289225942863,-0.001535866181740619,-0.003156926650179217,-0.01130353402657919,0.004084114231703719,0.009844740583233251,-0.005169368957016853,0.01326121801174406,0.008661742965275561
-0.009753095733937808,-0.03014382725189649,0.007334395488205609,-0.006780157731786664,-0.0004395604074256181,0.009763598564368758,-0.006636005074846763,-0.0003074998468925696,-0.004616848863647454,-0.003137629732182912,0.02768404433136846,0.01553955545755742,0.006226813268183661,-0.004698719394974985,-0.01240980926855824,-0.01332116411785408,-0.005969820823493078,-0.003931204095604437,0.007654425542881646,-0.01190433600995798,-0.0112900709242773,0.01324839680135742,0.01280793749390616,0.002179013141525498,-0.008281829302494022,0.0316988425240556,-0.02177232556250904,-0.003543755643596384,-0.007928136585651264,0.001492634579132697,0.001384109345820647,0.03002868062670537,-0.003776056785564279,0.004655234889675064,0.000905398863823404,0.003657235961719582,-0.008564442956438666,0.0041703336405152,-0.004808331336134727,0.007474818126950375,-0.01116192147885104,0.01533216699743901,0.01452384404910382,0.0003627662182550215,-0.01990375054960817,-0.00808500826080614,-0.004365140369688532,0.01882296384762841,-0.005277239268647592,0.009260194639389794,-0.01694011275827143,0.01981766517012575,0.0107466301066642,0.01483079610856044,0.01784342312105645,0.006299355525658103,0.007433178558555337,0.0009853684782033317,-0.002908490524486444,-0.01198180394263324,-0.003193905640399205,-0.001532176604222786,-0.00860435741789173,0.002798309959119848,0.003864923845824712,-0.01198282059089872,-0.01892025066694943,0.005968059596110501,0.01174636342609707,-0.01050958895732105,-0.0002104953227883414,0.001486560066855334,-0.007000560116499209,0.00678611467109197,0.01149412890000002,0.001946150805143767,0.003157110848529527,-0.005605886531967506,-0.004192563476966872,0.009483837879357922,0.02191792540647096,0.002026353313428061,-0.02020240205133601,0.008572818001681991,-0.00376239070497844,0.02104453289356508,0.005609386877794784,-0.0009946139566679301,0.02882962278633921,0.008656552229373112,-0.004588424891954184,0.01285091515251393,-0.003708499067632866,-0.008238259153079271,-0.01140852427242708,0.002095593883260507,0.002619505114757951,0.001021285785003887,-0.007288013444265296,-0.002956420074420356,-0.02794679193202509,-0.02243233831685817,-0.0006314259287631249,-0.008396905562937478,-0.0133722931958535,-0.02417970809609842,0.01009960501369564,-0.01167611573277611,0.002413094459954166,0.009714490286057751,0.005239695557823164,-0.00210108914782924,-0.007314743508876982,-0.01348124209468841,-0.008259133469121485,-0.006775811438797727,0.001411263259786918,0.005571887172497381,0.004862543465254873,-0.00286276509827882,0.002080416041489337,0.01697696467762508,0.005618999616061922,0.005045094625997259,-0.01226587311179059,0.006316502723587902,0.005047751215288143,-0.009032124758710906,0.008398579267679897,0.006414678388737249,0.0009290065796339108,-0.01122931052322306,0.003355379946801217,-0.0138743290132924,-0.01323974534522402,-0.008828579889006644,0.01739221590532218,-0.0113093724940491,0.001800512908509242,0.00140274901651246,0.003344438460632153,-0.01445837765455791,-0.0005644089950208308,0.0507859462440706,-0.004889705809760359,-0.008415099784641842,0.002389379556477087,0.01619025096971767,0.003457051892578602,-0.006728270776400591,0.0156444471716456,0.01280576960216859,-0.02921412320260368,0.01350052253737373,-0.003469190838622353,-0.01799885128303455,-0.01035127266501948,0.002894665554910197,0.005527529213876544,0.0006176065466070244,-0.00291848227867655,-0.02912440634667454,0.004687036191270978,0.001609608637173564,-0.01292994107202634,-0.00343935560803047,-0.01123473349228757,-0.0001580318425267274,0.004405855341152473,0.0120025632078081,0.01918568383743983,-0.01486319517289147,-0.00762353637760606,-0.009511590855529913,0.001749465367584402,-0.001666510590862794,-0.02858108419153049,0.0005045382081399649,-0.004993972696592299,-0.0004697578495564262,-0.0195744270181533,0.01995555629207112,0.0166450538131726,-0.01855455575087141,-0.01101547249386912,0.002692926143203275,-0.01860377861149739,0.01686397948915226,-0.01398147073240519,0.01540868313274852,-0.008753883661663299,0.004070216970172515,0.02407793127997476,0.0006050689632868486,-0.01080940468666149,-0.00888354225939425,0.02501450337678982,-0.01000508894806305,-0.004146703894331405,-0.005861813923301397,0.02112037736286158,-0.003165982995044865,0.02125131240226188,-0.007154705925555798,-0.009746026888299618,-0.005130268456257484,-0.00118697603217178,-9.608711590691332e-05,-0.004187712411301705,0.009269496049742717,-0.005391458406769185,0.0004115646605554631,0.006691079828779919,-0.002311540456264595,0.0006945025414294729,0.008261057847763398,-3.255232673716546e-05,0.003164279931870883,-0.009289802806906017,-0.006969858686521423,0.01475220246168241,0.00146815508976641,-0.009711026765132151,-0.003786458665323835,-0.01613533551768445,0.02023168856055016,-0.0007218793101257351,-0.006635598862544227,0.009197290318195887,-0.01061209284233618,-0.0009345099972510286,-0.006795476833295308,0.01477667528134756,0.0002591012788011386,0.01178517691144036,0.008208753987498579,0.01301335229744522,0.005860823500163578,-0.007717301394666759,-0.01695886812752425,-0.009525021560349173,-0.01984950708121303,-0.01343474027094598,0.003352529013409248,-0.0002899035094610463,0.01142943764292031,-0.00845635830067059,-0.01319923225159742,0.00845191981536675,-0.01269734395271275
0.01943009769201343,-0.01147863691620552,-0.004779869449060664,-0.0007347223439598228,0.01006552736763028,0.002487148296415239,-0.02324368772263128,-0.008446807722230562,-0.009359177091480252,-0.007384802927527222,-0.011409281105824,-0.01506464085240314,0.01447897624571099,-0.01051719705184802,-0.01259927050183981,-0.003093739372252689,-0.01302635981921284,-0.011349780743973,-0.01140078894542952,0.003457879018204935,-0.01800352462160779,-0.01114234255170205,0.004796362324972942,0.01171178108051542,-0.008185856500233721,0.02916831491362113,-0.003118725556099568,-0.002809510038624121,-0.003344440884659047,0.01876271867435129,-0.003217014849691102,0.01249669338895368,0.01803732666310046,-0.01165800959082201,-0.02147950729144095,-0.003129725758809663,-0.01260284798896412,-0.007757572533617639,-0.005939434267904749,-0.01095918890406856,0.008380013934406768,0.02386353746064162,0.01560879454222422,0.01007478733001045,-0.006462832652967728,-0.01673005119286686,0.005594780028719947,-0.004642270473701557,-0.02692379730594184,0.002850471328179585,-0.01476335797978006,-0.008243313496480227,-0.009185120091885804,-0.001741225685839916,0.01664353476389762,0.003415284733487525,3.455499188037678e-05,-0.00963624330159376,0.0005825812536827957,0.008720565325601911,0.001136054745350761,-0.004191761624443914,0.001371390904676357,-0.006214231240937198,-0.003227691389546992,0.003724496750889625,0.02106878813379733,-0.002309989722977324,0.005486951222535294,0.002226333960097134,0.006435509587103674,-0.00606491007729237,0.007561170101621387,0.001560165421725405,0.009221184543542893,0.005438159323879779,-0.008279352772297546,-0.01258077759928444,0.004175279814864583,-0.004409080656244647,-0.007308122153232502,0.005384284397823783,0.002559592923334013,-0.0080021652020472,0.01166490009801628,-0.001704642423865302,-0.007755056902039948,0.002160564866987802,0.01147822072521484,0.003590446047157652,0.01445018263737888,-0.01373396215551378,-0.007534894598684177,0.01481829227818968,-0.004348895377237834,-0.003353941973799166,-0.01644320339708511,0.009010038957471343,0.006650291862428269,0.0003790110539936318,-0.02296971379263872,-0.0009781717126667747,0.002337722617262828,0.001769097184567978,0.004660314634085804,0.009856004239856641,0.01137423744584481,-0.00593297794379443,0.003332219715786878,0.006817615340570981,0.01121829191952188,-0.0005392092205314007,-0.005886734903979569,0.00864246994635005,0.003567919337478455,-0.002900983074513076,-0.01385580721478418,-0.01077541475087994,-0.0007736519247347561,0.006746893785173443,0.002829330066210344,0.01418455582532146,0.0151223079685589,-0.002027115581003737,-0.003844888766668716,0.001854321444729904,-0.008804633810833523,-0.0003862190135607964,-0.02950588813248903,0.002379309316584914,-0.02038703475725931,-0.002937025058049775,0.003578273506361642,0.007455735762388433,-0.01821579502765187,0.01700207965630111,-0.003776094260395906,0.0166221953421107,0.001245680845914016,-0.01760084455051885,-0.01576047221986585,-0.000798001710004551,0.01899438034735419,0.04303794613290635,0.009966569810098852,0.01106905737534528,-0.01673963517367279,-0.009406876260104391,0.0130574426415661,-0.01098272870119806,0.01028590715405775,-0.000394914798806446,-0.00287623004652559,-0.006454066924412216,-1.586921699396474e-05,-0.01235918561178464,0.0222857623567626,0.01418384546393275,-0.0008388422398753669,-0.0001845296147963301,0.005977430944727398,0.004267495378785898,0.0007845819037952806,-0.0009163700572154223,-0.005545291861429233,-0.001623327224459771,-0.0003731506333390067,-0.007298331382763667,-0.01389427175739962,0.01180377601769171,-6.128495309832703e-05,-0.003547411789210298,-0.01313010674698389,0.004588229304320488,0.001316554491998071,0.008665708595401346,-0.01088584750794373,0.005817714869978278,-0.01257717943771282,-0.003226029040050884,0.006615384779460076,-0.001536577186240389,-0.01395295781893831,0.0008190054725542704,-0.003719385846373512,0.002466954547035348,-0.00836311408595793,-0.01052355568683372,-0.005848243080122199,0.01106885160781872,0.002341973565760921,-0.001635407540823353,0.02000601142464351,0.007389840461971389,-0.01078049448124047,0.002889540208210663,-0.004378587601676002,-0.001322492660078858,-0.001249048987189254,0.005914716087609918,-0.005691173707007119,-0.01939884751569239,-0.01043677071098577,-0.001702858552983494,0.009148359183183401,0.01214297895232858,-0.006114061484215574,0.00220987602481331,0.004751645304512171,-0.002099270191844872,-0.005637772546174593,0.002996884047837174,0.003956676271182196,-0.0004430372472070444,-0.02159167445997306,-0.03263287426978139,0.0004511284919854042,0.02336288646302771,-1.476343485988366e-05,0.004526843479472965,0.02012085407764927,0.0002457884202345601,0.02446304818030864,-0.00609405608648533,0.01020073834742632,0.00756156803900108,-0.01393419979993032,-0.01926237616319761,-0.003647134891097275,-0.001437379986992935,-0.007777937984391083,0.01136563715253586,-0.001961801052161019,-0.004164888601183399,0.005768757980869592,-0.0009666941416831717,0.004608053312704633,-0.01839900743018781,0.01216835878620938,0.000910264678842448,-0.01345185611554092,-0.005727842334830384,0.01456836819350749,-0.003529207058344165,0.001167072354510419,-0.02125820048024017,-0.01439738379176668,0.004329702457065062,0.01811546205408416,-0.01575565549249814
