-0.02149437943593151,-0.00641771077109095,-0.02555972545203061,0.01285574745910505,0.005616817552167148,0.0008961481667203493,-0.01255486440502153,0.003671684998423724,-0.002273485769838377,0.002287724304429994,-0.006031222820940286,-0.001419544974924485,0.004753599441880624,-0.009747405695143327,-0.008739166899828413,-0.01136786073508721,-0.02358788934738024,-0.01810544645881106,-0.001677942616561726,0.004379280590825001,0.006417436042322011,-0.01048609578291072,0.003573774047071112,0.02230091719274645,-0.01489213103901103,0.01182214851003076,0.008021587731599489,-0.004964469989532487,-0.006646405969530867,-0.0004378372716380965,0.007420163710277476,-0.004674957949437351,-0.004045467799298709,0.01837579697493904,-0.0104238196552965,-0.007475269922137896,-0.007817629770370149,-0.009038776855154621,-0.01280012536516471,-0.002046424544532353,0.004525181265895801,-0.002973775613798362,-0.003368638459357612,-0.007989024088924211,0.01080872612423137,0.01215914284654613,0.008465750208464854,0.005133314379803435,0.002217245500596868,-0.01087420302589459
0.0264014941101244,0.02628455912017013,0.005154205773576068,-0.00460079084526842,-0.0141207759733514,0.01045323862152977,-0.007443157972024834,-0.01412249054064559,0.004689096213409133,-0.01353228646611667,-0.02203136665845979,-0.00905939896584042,-0.004112613180254871,-0.003579310355852591,0.01017349984777499,0.01115755467691645,0.003288320352357745,-0.01023687241427436,0.00205216729774317,0.007836484023978133,0.003821891141291452,0.007941560900864992,0.007700413508558457,0.01212536222299843,0.0007874549668583584,-0.009733678329510203,0.01339340889433577,-0.002258212427219619,-0.01149702547606956,-0.004966579125639146,-0.0168940876451657,-0.008797969007433699,-0.004543014969023465,-0.01107167505214009,-0.03622023480416417,-0.01356848165229953,0.02282932878102178,0.006022567665489426,0.0006616647604943978,-0.0001519091438996395,0.0004466813224967994,-0.01505383139737023,0.009857683409004165,0.002991303385917279,-0.0005192001502270955,0.0008042809968944594,-0.0126143922445488,0.01471498566854995,-0.01300647414821017,0.01465705744701472
-0.002520887933106783,0.01571029112906747,-0.001769217221941563,0.007544664344224406,-0.001922933777925701,-0.004676224747559043,-0.01518137655666754,-0.007769347929932294,-0.01355057363623425,-0.005806995714280242,0.02034112783996158,0.006000748723260216,0.02379193407369445,0.002278275820119762,0.004331454772917328,0.01291816851805856,0.008914329179637902,-0.014608011747062,-0.00864905553287011,-0.008572404091553255,0.00233264871606427,-0.0004496542185968197,0.01114872664178028,-0.004855326218279013,-0.001403373833136947,0.004376230342236786,0.003426801841193091,0.001542635840284839,-0.01046245541079427,-0.02344342176814787,0.005758889150884166,-0.005659907056078241,0.001234839071024835,-0.007308362023732653,0.01473509587441725,0.003887591232781929,0.01436368069232941,0.001065449088874407,-0.02274328990232549,0.003895137622354358,0.0001758410515011765,-0.005362945239506713,-0.007634915368292113,0.002287904821044282,-0.006765182890325214,-0.003679598076854598,0.006186180944073525,-0.00993708966988336,0.0111739233613159,-0.007977634019546428
0.002725953239006671,0.00533710475540989,0.002150417870363506,-0.006272681809839901,-0.01242924466327068,0.002995106864216088,-0.005689567908166603,0.01274567311752618,-0.003041637503322454,0.004524587149665529,-0.0009769708229939804,0.008657364257097504,-0.004751265136383612,-0.004256634746555357,-0.009514178943904267,-0.0001031789874477734,-0.001503455176287918,-0.004559974627172204,0.02406016824348562,-0.008141041393897644,0.01316374962602832,-0.0007804351863443018,0.004548080414532915,-0.006850622985796579,0.004186531998200818,-0.004812770052300078,-0.01151232732952544,-0.004126068498002043,-0.01036405581572056,-0.00170931235048828,-0.005196075877184786,-0.0007868101937204331,-0.009628114654476105,-0.004044406193544313,-0.001805177189880177,0.00867152294805258,0.005928404670692707,0.0007999593717914419,0.01027971324795581,0.003808803346398013,0.002010586023621619,-0.005525637584037705,-0.01479762442631872,-0.00596217075476602,0.008239193939311726,-0.0003391305011378322,0.01501568132646579,-0.01107327690456261,0.003458298991202792,0.00245648932608412
0.01023484826087952,-0.001086874157190323,-0.003122861087322235,0.003506701290607452,0.00664328396320343,-0.0003441305458545685,0.007054336667060852,0.002863131165504456,-0.003702448904514313,0.01352444291114807,0.006795231699943543,-0.01162896513938904,0.02257791757583618,-0.002687674760818482,0.01277048230171204,0.001681538224220276,0.01950048804283142,-0.009118187427520753,-0.01173568725585938,0.005089572072029114,0.005224629640579224,0.02384909152984619,-0.01064541101455689,0.01221442461013794,0.01841624259948731,-0.00190464586019516,-0.002124153971672058,-0.01663113236427307,-0.005401292443275452,-0.002940622270107269,0.01235790252685547,0.00299159437417984,0.01242721676826477,0.02734959602355957,-0.008162978887557983,-0.01666054964065552,0.004869339466094971,0.006298251748085022,-0.004603426456451416,-0.003488612174987793,0.002216090112924576,0.003950001895427704,0.005860899686813355,0.008665453195571899,0.01062355041503906,-0.0111138653755188,-0.0162573254108429,0.01136198401451111,-0.008973518610000611,0.01505010724067688
-0.002145587643501489,0.0138054575369894,0.009771199257639789,-0.0001603297580467649,0.004824003308545776,-0.001801436582068302,0.0009565930386589671,0.004446103870435267,-0.003685194901019675,0.01380894589184912,0.0006111518997529498,-0.008396314429850003,0.002162361995663279,-0.006674714784765586,0.007189523748165411,-0.01723867172096621,-0.0136359751849841,-0.001031558209444503,0.01046632024201006,0.003313449541430292,-0.004712087864200236,-0.01190647187442697,0.01488856196319859,-0.001609354874892887,-0.01749780856127363,-0.01055612581072324,-0.01105287773300697,0.02425369922570778,0.002794794115818906,0.001850423780689344,0.007146415769597176,-0.01121712725589585,0.007512586406644729,0.004752388856740216,-0.00550774235776461,0.01524525040894396,-0.01176883317188709,-0.005635623754991783,-0.01737608806410964,-0.01037624901210564,-0.01881896400143028,-0.00975820314241134,0.007551534418456224,0.002697670675121724,0.004026886285602719,-0.00148696057183993,0.009018170717488241,-0.01347603831631824,0.005618062918215843,-0.00558092590796263
-0.001404915560792069,-0.0117015645270773,-0.0140696637633265,0.005263060496232948,-0.020468703174056,-0.0005393742026110948,-0.003754312991948605,0.002845756784067587,-0.007826447557386118,-0.004513455986537509,-0.009425048958274279,-0.001136286208662145,0.0006630958116721448,0.002469881995290806,0.01567036361335763,-0.008988117532885715,0.009733887868531592,0.004540185051396373,0.01637699220303004,-0.008362385881331081,0.001784819207205284,-0.009010613185948681,-0.003218011436332739,-0.01212188596648165,-0.006872188889431729,0.01172324056543285,-0.00558360404665455,-0.0123602116869177,-0.008280832058294678,-0.004571742956124241,0.008174093004651783,0.003618384061963098,0.002775593892772555,-0.01321659973427757,0.005816665116820028,0.01080034264838654,-0.005818678240771448,-0.009523438556986077,0.004247053118600478,-0.00083476378870768,-0.01182387593519274,0.01173381741122232,-0.001261712155505377,-0.00987443341327441,-0.008223807998038967,0.002652921546138265,-0.01395577071165782,0.001215447394613378,-0.01742272049820204,0.001771420893022644
-0.005368574699213712,0.001853779167902095,0.0217467726155893,-0.006754808872638402,0.006263397827020804,0.0047212345943039,0.01400023069075215,-0.01047085291464598,0.01224555906072368,0.008670711515805184,0.001055938605576472,-0.004218531658411444,-0.003170755044689672,0.009460184838794296,-0.02123211483236248,0.00381383447065023,-0.009639239385493454,0.002847988641867113,-0.004296609513052017,0.007148303860272834,-0.003966697414331614,0.0004229071741626272,-0.01222745996820814,0.005936375813683488,-0.008547922065879964,0.008286490695560072,-0.007825396473801996,0.006398037980743949,-0.001767755001525735,-0.01079603840019648,0.007227335686859188,-0.008793799363366618,0.001078652763861128,0.01006921415454438,-0.006069176903632715,-0.01646442000995782,0.004979240712988636,-0.01004574359667843,-0.007476505288606486,0.001732788394811196,0.003759334208146148,-0.01326975468286153,-0.00449585464977976,0.01096955203648746,0.001544997105890814,0.001325003780254036,0.003162358748325519,-0.009461765613983352,0.01813500046164811,0.009570369508617699
-0.007515477538108826,0.006348633170127869,0.00292981743812561,0.01222585678100586,0.002905333638191223,0.002608899474143982,-0.0145968496799469,-0.003451772928237915,-0.01373749017715454,-0.001483810544013977,-0.002468936592340469,0.009005077481269837,-4.440102726221084e-05,-0.0001553129870444536,-0.001851805746555328,0.0002583905681967735,0.01016872406005859,-0.005622868537902832,0.001550365090370178,-0.01005958199501038,-0.01358747243881226,-0.007629473805427551,0.007390612959861756,0.001640562564134598,-0.004079330861568451,0.006843192577362061,0.01134354948997498,0.01020919680595398,-0.01278230667114258,0.003479136526584625,0.002533574402332306,0.01470586538314819,0.009329572916030884,-0.003609493374824524,0.01184208631515503,0.01160558462142944,0.00321577399969101,0.008127621412277223,0.01539827585220337,0.01797513008117676,0.01719339728355408,-0.01025532841682434,-0.01915237903594971,0.01744858622550964,0.006244800090789795,-0.002665458619594574,-0.00052292600274086,-0.001290591359138489,0.008483189940452576,-0.009194641709327697
-0.01401945233402324,0.004540580630131335,-0.01975180119579201,0.001511772982031411,-0.01230637722354096,0.01483537400495848,0.01292071761992073,-0.009796704473738298,-0.004994843963614084,-0.008352406828668795,-0.002042444468600746,0.003924796077329097,0.003468914813301665,-0.01519363607755479,0.00425188883800743,-0.01088550054948147,0.002408919137557611,0.01941650706371769,0.008029902440573562,-0.0008746384287122824,-0.01466275468565376,0.004419883906755494,0.002360107641967811,-0.01050639928294092,-0.02039926187066808,-0.01912432893916231,-0.0008770129755889078,-0.01139399824385019,0.01050892436459049,0.002796484469813996,-0.002022456383644625,-0.0004312915622146398,-0.0006529354635947994,0.009869192887241592,-0.001674960027447267,0.005651175267214086,0.02003456476046537,0.00326504264535191,0.004700224195438364,-0.01166257083303671,0.002555173972607055,-0.001287076822256914,0.005056187687640673,-0.003163297197322428,-0.00321660712020921,0.001473286839430472,-0.004567983094138784,-0.007209478842250805,-0.001107764499490343,0.01198682183117312
-0.007185374267016736,0.002113818457465015,-0.003680238641301575,0.006632780670499099,0.002527202056035025,0.01048039548225364,0.003648375520970008,0.003668583946300168,0.002780095165649723,-0.005679220349256743,0.007200024889140689,-0.004431134398275654,0.002176711937452078,-0.00248265566970988,0.003622129004414594,0.006827542526747177,0.01530632490731563,-0.02535274590051886,0.004454263998469593,0.00832437257854134,-0.002749974412075947,-0.01317449388768637,0.005933650015260229,-0.001065833693038762,-0.007684295540792546,-0.001286412070434445,0.01469732287696157,-0.004318299622810435,0.01271703006502788,-5.121375250301842e-05,-0.01072669675569539,0.006229928729024874,-0.006218246832232203,0.006509868887258677,0.01014879835685775,-0.01531621989411422,0.008612688937673111,-0.00187066755660775,-0.000475824036394935,0.004711099810684794,-0.00603637846616994,0.0004543030811525201,-0.01826997723404815,0.008401064850862292,-0.002892271397130117,0.01159326161492591,0.001790032187941792,-0.009440740553030989,0.002092282790831949,0.0009722253916953659
0.002964204251766205,0.004284595251083374,0.0001881495490670204,-0.01289207935333252,-0.005529983639717102,-0.01801140785217285,-0.0123626446723938,0.001782996654510498,0.005137302279472351,0.006933348178863525,-0.01577349185943604,-0.00859449565410614,-0.00626029372215271,0.005456933379173279,0.001228688508272171,0.01007473349571228,-0.009136060476303101,0.01192529320716858,-0.01409376621246338,0.001520759165287018,0.007959152460098267,0.01643692970275879,-0.003135417401790619,-0.005286502242088318,0.00524882972240448,-0.00270492285490036,0.005116734504699707,-0.0003661188110709191,0.01278524875640869,-0.003421131670475006,-0.00514280378818512,0.01112800240516663,-0.002959755659103394,0.008531438112258911,-0.005264230966567993,-0.01244447231292725,0.01496654152870178,-0.006458402872085572,-0.007618949413299561,-0.006637251973152161,-0.002414029985666275,0.02910131216049194,-0.00188094362616539,0.01314074158668518,0.0002653697319328785,0.0164206337928772,-0.01848414063453674,0.009780266880989074,-0.02057458877563477,-0.008354159593582154
0.01194917561703705,0.01145866656117137,0.01165614341874471,0.002030145199060265,-0.02461030306519964,0.01063380535001176,0.006353235995643577,-0.002954569955808078,0.02050577372054865,-0.02065055097795491,-0.002109827873392205,-0.0006395639296872687,0.002766790724469171,-0.008868016091719989,-0.0192641346185519,-0.02538419494184342,0.01973460836057132,0.00438036280013179,0.004934177220444366,0.01259211939011215,-0.000588894994132469,-0.009570713865933035,-0.0005214432794594967,-0.006761300199574103,-0.002397484612986848,0.004057910732982309,0.02845934345598656,0.005421182572542954,0.01217315295362945,-0.001730653995598039,0.004336461209641183,-0.01539744468376441,-0.004215906225377601,0.006109317435838858,-0.001629248345925107,-0.01603319621980816,-0.008356407000093409,-0.0105804231542962,0.02105971766226768,0.01455210583202937,-0.013835634673241,0.00260576881045571,-0.02008065634955309,0.0001955232552467471,0.002560698525354727,0.01252396559072849,-0.0003025992731712017,-0.002444406594074304,0.01206575842688387,0.009427579353101375
-0.003789433823433466,-0.002107118152708753,0.01160574533872672,-0.009826682457099755,-0.007310810642307679,-0.01542493495954649,0.0009559851659515365,0.005876392314202271,-0.002114457277980478,-0.007169801551965776,0.01493056973598484,0.001232212899440791,-0.01029038058821113,-0.01301997226126361,0.005559469768332965,-0.01194826685495324,-0.01195025442352089,0.0153002511989115,-0.007938057131251661,0.008831547959005013,-0.003007383603336252,-0.004573215427452574,-0.0006680688208087184,0.01152934704484589,-0.01491203232009133,-0.01625783500240858,-0.002703082040650263,0.002436198626297489,0.004607882194416781,-0.006347292573479747,0.02255621132598039,-0.006655539638485555,0.01637452520382587,-0.0042502222019477,-0.01313471836130252,0.01660625419824379,-0.01516105731725445,0.003547654953669073,-0.002088905666503628,0.01445598780106446,0.009176532956644381,-0.002138056200762464,0.003894762112909121,0.01250852409832169,-0.01223567626603598,-0.01583841453002326,0.01643138642143289,0.007155344444337248,-0.006027912812724506,0.01241284597193585
-0.0007456114156840762,-0.001283437016088239,-0.0003040879923706022,-0.003574616189590484,0.007752300937172086,0.01995975817932564,0.003214441744064078,-0.01118645374859792,0.006465871380826991,0.0178171376420258,0.01631210961152521,0.01169221685007352,-0.0121148476925455,-0.003831008981271604,-0.001312539455457019,-0.006263923853343744,-0.003270356863890827,-0.002474304574286645,0.00174886820657725,-0.0003902973993628019,0.009062868013516296,0.002486135878346513,-0.00405146982062538,-0.004820450072792182,-0.005387142857003511,-0.003416309687417648,0.006254603394780265,-0.009600282652636166,0.01218602403321645,-0.004763297678099231,-0.006998615379424099,0.00962051846237464,0.003410889710611374,0.00971359738179103,-0.001290990611912643,0.002595335585626169,-0.01928540433980626,-0.0009361169415040331,0.005218376187568572,0.003319161947959481,-0.006773022529439642,0.001870325360845621,0.01099454678566599,0.00762075580554241,-0.007383102122508683,0.001877201741610907,-0.01260818509162027,0.02141782555772883,-0.006984336970325418,-0.02959085926936566
0.003553386515032222,0.01240010239649424,-0.0120656632198613,0.004188783717386835,-0.007362084636440358,-0.002960236606020836,-0.006835876601454515,0.005937462568598158,0.004055504553099845,-0.01848340149862678,0.003288902540521836,-0.00127360470876587,-0.006126958876234638,0.004076310628854808,-0.006255676240862288,-0.01085713230411081,0.007047038572724702,-0.007130731812286593,0.008309386604307347,0.01815090364274967,0.004673526442476744,0.006625174792006932,-0.002939000311773184,0.0007115910067399802,-0.004682640266181888,0.01766645920018384,0.009140983836677543,-0.001332449572545293,-0.001772695610059527,0.01279719476415177,-0.0008110175775001458,0.01446174423308785,-0.003577185281381492,0.01495425850930741,0.004027754740710801,0.001921368997448299,-0.01945914744581899,-0.00673497774479824,0.01835542709639016,-0.0122174079507623,0.0009761411580877928,-0.008190432207909082,0.01400770271073377,-0.01703168776752877,0.0007143018038159228,0.0002867107605723292,0.004371986800400844,0.003334558231284842,0.004846099149435235,0.005769055973979881
-0.00655259370803833,0.01460553884506226,-0.0008673147112131119,0.006129304766654968,-0.009590418338775634,0.02357815027236939,0.001303399503231049,-0.0149438750743866,-0.002278376966714859,-0.007104479670524597,0.0003291653841733933,-0.01801021575927735,-0.001387351155281067,0.0001600279472768307,-0.002673573195934296,0.00247018963098526,-0.001807797700166702,-0.005646739602088929,0.006376246213912964,-0.01496811628341675,-0.003683561682701111,-0.0033396315574646,-0.007726146578788757,-0.001885118186473846,-0.002903028130531311,0.002906782925128937,-0.01734372496604919,0.001994038373231888,0.007008838653564453,0.002404847592115402,0.008144919872283937,0.005884567499160767,0.001096246019005775,0.006859341859817505,-0.01724012613296509,-0.0001117447577416897,0.0006394520401954651,0.002673097252845764,0.009878114461898804,0.01033730626106262,0.001079453825950623,0.004507399201393127,-0.003496007919311523,0.0120723032951355,0.004247077703475952,0.01243247151374817,-0.004659556150436402,-0.006604261994361878,0.008613829016685486,0.004455434381961823
-0.00418412059545517,-0.002443449050188065,-0.009498252272605897,0.006156361699104309,-0.003597361445426941,-0.0128442120552063,0.009909194111824036,0.006586784720420838,0.004422627985477447,-0.0005791852995753288,-0.009780542850494385,0.003310193121433258,0.006108221411705017,0.002330283373594284,0.02155184030532837,-0.01546624422073364,-0.01848133087158203,0.002991431355476379,-0.0118426775932312,-0.001759304851293564,0.008215271234512329,0.004121080040931702,-0.01216637134552002,-0.008229100108146668,-0.005078670382499695,-0.005140036940574646,0.001897754222154617,0.008942729830741883,-0.005047488808631897,-0.002602507770061493,0.004092740118503571,-0.002391225546598434,0.007927662134170533,-0.003494010865688324,-0.0001854058913886547,0.01701388120651245,-0.005844250917434693,-0.0004944880306720733,9.386938065290451e-05,-0.00954719603061676,-0.01295665621757507,0.01011267423629761,-0.006329039335250855,0.008639611005783081,-0.01156906604766846,-0.01213725924491882,0.01052647113800049,-0.006624987125396728,-0.01424085140228271,0.01742956161499024
-0.007031906247138977,-0.01417029738426209,-0.006158528923988342,0.007060938477516174,-0.01130216360092163,9.3183983117342e-05,-0.01466058373451233,-0.005330263376235962,0.0008273886889219284,-0.002032003551721573,0.001827839910984039,-0.005276614427566529,-0.01156863808631897,0.0008954328298568726,-0.005851861238479614,-0.01205504775047302,-0.01845226526260376,0.001984579116106033,0.01392672181129456,0.0109569776058197,-0.005982102155685425,0.0009776095300912857,0.006269439458847046,0.004720396399497986,-0.01390775084495544,0.003009922504425049,0.004893047213554383,0.01159720897674561,-0.01115154504776001,-0.01107714295387268,0.01121711492538452,-0.00466017872095108,-0.00725200355052948,-0.01251841306686401,-0.003400608897209167,-0.008212581276893616,-0.002899618446826935,-0.002456133514642716,0.01180608868598938,-0.001178968921303749,-0.004797472357749939,-0.005141430497169495,-0.02444031953811646,-0.004361925125122071,0.01705075144767761,-0.004313155114650726,-0.009245750904083251,0.00169187381863594,-0.01739493012428284,-0.01123192667961121
-0.004392514426656301,0.02660205463143289,0.009191282158620603,-0.0069388966230055,0.003438724820316952,-0.01729807632247235,-0.00120324378627809,-0.001466406406560626,7.403248360106924e-05,-0.002989235348962397,0.01264458185687547,0.002325133820284475,0.008942118648457857,0.007005685301228798,-0.006815581773488916,-0.006533963683492964,0.003757560635958123,-0.004592879935229732,-0.01599674915484589,0.009410922068561547,-0.02181359637806305,0.01595217812910302,0.006756209497207041,-0.005290475660080243,0.01108055107154373,0.002880285507130371,0.0179357784827506,0.01027021682170842,-2.224269825190729e-05,0.004617316968352667,-0.003245710705025371,0.002802506264025682,-0.002044292627798866,-0.0001450668842147272,0.003516174774494065,-0.002064338963695202,0.001914752677152245,-0.006596398365713185,-0.005873568081442188,-0.003658574092256834,-0.002996005285977437,-0.00304610284280436,-0.001043422624343663,-0.01033565986279826,-0.00209732545661881,-0.01087718355285052,0.005882917329947151,-0.01025982843206144,-0.0119267613348198,-0.0007669373394681667
-0.001032411977648735,0.002946964502334595,-0.01187736988067627,-0.00621806263923645,0.002072758227586746,-0.01057077527046204,-0.00894406795501709,0.002339005768299103,0.003821558058261872,0.01637550115585327,0.004209005236625671,-0.003862625658512116,-0.01200496673583984,-0.00711774468421936,0.009104238152503967,-0.0006919693946838379,-0.009257328510284425,-0.012166428565979,-0.01018558859825134,-0.003137515783309936,0.003552529811859131,0.004768004417419433,0.007175374031066895,0.007619427442550659,0.01251398801803589,-0.008467463850975037,-0.002009762227535248,-0.005894973874092102,0.007429125308990479,0.005407091975212097,0.005965769290924072,0.006613205671310425,0.006069573163986207,0.008702927231788636,-0.005594815015792847,-0.001554710566997528,-0.01358241677284241,-0.02235038042068482,-0.000164228230714798,-0.0006728462874889374,0.00698506236076355,-0.006248871088027954,-0.002477708160877228,7.239476777613164e-05,0.003654688894748688,0.004549130201339722,-0.008555435538291932,0.02007630348205566,0.007339651584625244,0.005612390637397767
0.001909845441296454,0.002899136098316933,0.003431217052587727,-0.01695980014594071,-0.01731470362939545,0.004715470619350666,0.008632175442119418,-0.001982007529288487,0.00698993203177527,-0.003027411983910694,0.001809736637022599,-0.008545905574166329,-0.002538675720265519,0.01183667962513277,0.004034905363370743,0.01410713704877235,0.002637117672895387,-0.01019178005351085,0.001282263613425048,0.003807701938125946,0.0150512019699162,0.01575424688902486,0.01082833657858746,0.0008848014654417112,0.0122250538018105,-0.004710037022440151,0.007585744010555917,-0.0103221453738656,0.00608357688256179,-0.004599419236694612,0.008639509822814077,-0.003466018033895392,0.001140087053038147,-0.01573195295675072,0.001152846983194091,-0.006765489372578544,0.005954334803961936,0.004574567147192647,0.01509761233389168,-0.02241690479501294,0.01354239865110153,-0.01069402791914784,0.02032227063083332,0.02244194836493575,0.007969731496649691,0.001518639747259105,-0.004322318781242809,0.01144317809572559,0.006747486423877303,-0.01105740348546275
-0.001080819352192654,0.003351553879173182,0.02823410900005615,-0.009817242353960016,0.004265504085518352,-0.001825914606052714,0.007044565162972452,-0.004313616973295853,0.008569406266626535,0.01103891777346361,0.0004466935062074556,-0.007790900623605072,-0.02081297068798128,0.0003380039617416825,0.001060513750466988,-0.006814344610207371,0.003711501444075084,-0.005619128830898178,0.003229428501554573,-0.004318547127085601,-0.01762278492081943,-0.009718226250137612,-0.01572784212247217,-0.004442852970502852,0.01634695339639773,-0.002764611103101868,0.01393454483568629,0.004002437230304093,-0.003232461359799285,-0.0003619689220893356,-0.007058562186376575,-0.004820881979339792,-0.00768060293590879,0.00586568701901981,0.01160933329132686,0.004780694403932262,-0.001035524221555643,-0.01006962884100791,-0.002623200809375575,-0.007904455252679824,-0.006832060965539196,0.0004439026368277478,-0.02006664068019475,-0.008068292134622521,0.009546205796723838,-0.005999833088410322,-0.01334241087773477,-0.0059859916701469,0.007115105365540751,0.003259756944373123
0.01483216524124146,0.004827988743782044,0.008510807752609253,0.003468148112297058,-0.01816057562828064,-0.01600802183151245,-0.008480698466300965,0.004738213121891022,-0.01568222761154175,0.0006416741013526917,-0.008607693910598756,-0.001542169749736786,-0.006647785902023315,-0.001240288466215134,0.001295527815818787,0.01848757266998291,0.01998065948486328,0.008571462631225586,-0.01905012488365173,0.008679504394531251,0.002889949977397919,-0.01356967687606811,-0.004741353094577789,0.01184890031814575,-0.01084178328514099,-0.002832253277301789,-0.003065335154533386,0.0005881736055016517,0.009123103022575378,0.009670842289924621,0.001120997965335846,0.009827529191970826,0.01364611387252808,0.008306111097335816,-0.02525891780853272,0.01090298056602478,0.01359216570854187,-0.0001664103008806706,0.0002927296981215477,0.01503976464271545,-0.01231256484985352,0.003176838755607605,0.01289370894432068,0.008579816222190857,0.001655847281217575,-0.00151882603764534,0.01679483532905579,0.005403587222099305,0.01095416784286499,0.007288915514945984
-0.001694258906021215,-0.01043747139065403,0.00257778441951994,-0.01048797742486287,-0.006616719235352055,0.008075362657799167,0.005166973639237916,0.01100424495856221,2.460581167205062e-05,-0.01348966234343097,0.005352973616909795,-0.02265508653952182,0.008200025297495498,0.0007587712040645388,0.01455461132163745,0.00165805755971411,0.001513411563977628,-0.006668533078026624,0.01087164664499895,0.02476755894681935,0.005285796737483138,0.01778885844957234,-0.008260665804149281,-0.00123103284784547,-0.003923450476671347,-0.01019614973015024,-0.001827864115069941,-0.01539289251960557,0.008769072899603721,-0.007455186954963654,0.000279705265272768,0.005656579726927313,-0.005131121822839272,0.009183091011467562,-0.008035858410086539,-0.001449558492114107,-0.009606045769822298,-0.002253641389542446,-0.001564984503761858,-0.001626239527042225,-0.00834973497918169,-0.003913629956702068,-0.0205977584766751,0.003028549444357341,0.003093276549806431,-0.01203669817371467,-0.01650574457078929,-0.01068653851662433,0.009348387359619393,0.006155711636483674
0.001792521387362454,0.008320669368520803,0.006784043031074684,-0.006219816095513476,0.00715183198646327,0.01060359991030954,0.005116471057385898,0.0035012426266955,0.008889932749689702,0.001451484208563889,-0.005264338550820459,-0.01420320943109742,-0.009659252298618172,-0.005025194030159854,0.001711892109710912,-0.003951742529245988,0.0006259485937287774,0.004816950279186586,-0.01474870813397368,-0.005412465825428579,0.003138789777978988,0.004456718036617255,0.002403407729856999,-0.005429580679494662,-0.01017565445385504,-0.003036071221914636,0.007635185682827275,-0.002261746189908476,0.01719221989427105,0.006268972735828217,-0.009961450043086077,-0.00689505007150441,0.01098963081365593,-0.001903452256297813,0.009098368468325922,0.01918871123001948,-0.002647087192080913,0.005345925595885137,-0.007549191960511992,0.00400258742257923,0.006675699226358288,0.01050578471815221,0.01356419113778442,-0.006328232722925176,-0.0005850838932751026,3.544363029731886e-06,-0.01482929791555818,-0.001713929907814632,-0.0143151940760131,0.007912642289279867
-0.005580295587092274,0.01346518731860227,0.00777365065357886,0.00411993895109739,-0.003157425146501624,0.001339705531710619,-0.01140079207506118,0.009343748021980538,-0.01179903091005398,0.00811469939615332,0.01069275263865006,-0.008297647440854639,-0.01373021660049748,0.01861718251993456,-0.005735899804133042,0.007302663228875043,-0.007292158111862026,-0.003487536762486879,-0.001973530275129986,0.004052338797282877,0.008151906437869482,0.003857157400766661,0.01350271936267339,-0.008716072792803672,0.002397130919891008,-0.008193913550137264,-0.01493183095677473,0.009140471290444815,-0.008533599213315399,0.0151926422380518,0.01669271903838291,0.01410627923466491,0.01887300423784778,0.006870806129135959,0.01303298918099153,0.001471013270939676,0.006305715404043364,0.00697628178443143,-0.005814235727930811,0.001549821279292136,-0.001020291495124649,-0.003707344672029037,-0.008173006305351416,-0.01468265881759248,0.003337921605905445,0.01289750473358741,-0.02700494423694607,-0.001240422436852393,0.004924240658136211,-0.0007374949493629499
0.004826232105048035,0.009934230266021448,-0.01642308039856562,-0.008674656131440781,0.009574233917667492,-0.02111691360416054,0.01652754027621569,-0.02311105756739415,-0.006960165819681658,0.01398446031546963,-3.745581619423326e-05,0.004911759436666887,0.01094988770871179,-0.004191668076350416,-0.002848104007662947,0.01394103618363957,0.01274531937805696,-0.01166439694405649,-0.008794647275545719,-0.01096339808102001,-0.01436793615908081,0.006388491814359459,-0.01516578600721838,0.002209763469728987,-0.00285224756400627,0.007630980688586726,-0.01070175393964275,0.0050278761329542,0.007040650053247575,0.003743586735291609,-0.00214037780252166,0.003722159545703759,0.005336030648051215,0.008366822326305305,0.0006155856983519063,-0.003069512081380493,-0.004116335315545619,0.002581297537474397,-0.01569572587012638,0.01260376212966514,0.005579889816981942,-0.007478977770661711,-0.01852549848586425,0.001675149769482135,0.02052105142413679,-0.006805670095562467,-0.02605642147394074,0.006443517654155792,-0.007918720617957163,0.006825297895702545
0.007976130843162536,0.006069546341896057,-0.000363624170422554,-0.008118116259574891,-0.002139730006456375,-0.004891041219234467,-0.006060339212417602,0.001016282513737679,0.005122213363647461,-0.003551782369613648,0.008072062134742737,-0.007576425671577454,0.00345823347568512,0.0008554605394601822,0.01690264821052551,-0.009310531616210939,-0.006125616431236268,0.0007392963767051697,-0.003573024272918701,0.007222704887390137,0.0009966158121824265,-0.00231537014245987,-0.002635853886604309,0.004952194988727569,0.004332214891910553,-0.00159279003739357,-0.003110082149505615,0.004201954007148742,0.01028710961341858,0.01833646774291992,0.0006200971826910973,0.01613113164901733,0.01376731872558594,-0.003027184307575226,-0.004442903697490693,-0.02231277227401733,0.01190858125686645,-0.001039137020707131,-0.008620297908782959,0.002814810872077942,0.02076289653778076,0.001286346167325973,0.02387456655502319,-0.007444025874137878,3.80901712924242e-05,-0.009397184848785401,0.02849552392959595,-0.003099017143249512,-0.007986016273498535,0.003727101385593414
0.009989566549125617,-0.004511295740483505,0.00893422890356319,-0.002264371743388789,-0.004371564302487968,-0.006113031847499435,0.008970025589180312,-0.001490549278553415,-0.01484300499153341,-0.002423154392565815,0.004254881357490145,0.0009211625189686891,0.009185368057047606,0.002874257729434511,0.01854102148100967,-0.002472286480726955,0.01398060260673084,-0.007701271935259464,0.01612774324923465,0.01650187074647652,0.001735516521516161,-0.008977524660564449,-0.009190326204233875,-0.01757521215820108,-0.006442475403269838,0.007493678621024526,-0.01885259967948122,-0.007060436415763586,0.01305640092444828,-0.006203791872511079,0.01153926775662492,0.005765019788218582,-0.001596917599851749,-0.005201426347802962,0.03320681677313344,-0.0009222680872690895,-0.0001110202709440812,0.01538785323386137,-0.01379987268718991,-4.280536835498876e-05,0.01287575915183349,0.008832075849306247,-0.002813913901954465,-0.007177832170197577,0.002930680531953297,-0.002260382784806093,-0.01739171584217373,0.001171045101534954,0.008622174488606523,-0.003263289106331655
-0.004028527606300598,-0.001205449936550124,0.01563108003376315,-0.006274600844288746,-0.00449357003700812,0.01050878109623989,-0.0164044250322303,0.006219998374414545,0.01036400499477711,-0.00592204422742981,0.003593955196481271,0.000497785369791051,0.0006677783535255365,0.01502495803590574,0.01385534537767774,0.007020336213942325,-0.004257604932249762,-0.001803113880768522,0.005369153074875166,0.01004879104062953,-0.00912028070749636,-0.0084150982345813,-0.0111924637254092,0.00757079820347954,0.005357360094918038,-0.006055007096748104,-0.009659918875626445,0.01545826402270859,0.0009832879724314555,0.004427418562993532,-0.001079846797595633,-0.009342667908211304,-0.002555415540251002,-0.008733263971383654,0.002259627174936928,0.005001365042830621,0.008490837118127557,-0.0259204347217024,-0.003323402444870941,0.01037224538909053,0.002894422361107542,0.003734154329407232,0.002724836498190123,-0.006142461993221368,-0.01070843831830053,0.01883696634903862,0.007636444310698313,0.008908952985689566,0.01903426992342545,-0.01215459493093097
-0.01221008781591499,-0.001870702616033058,-0.01350879726942701,0.002594879402548757,-0.006131981861941636,-0.02354562137066111,0.02684641112834954,-0.01676747493192809,-0.002059977035922829,-0.009374204497847139,-0.0003901415774511961,-0.004643784404006284,-0.009696914696035187,0.005838600548569659,0.0002387393110560576,-0.01298200167290226,-0.01188366317300665,-0.002445100714205982,-0.008992271338079965,0.001015305018741539,-0.006345942143454428,0.002865520642023687,-0.01505303845604914,0.01299236891707009,0.0003419812812174096,0.01163117568052325,-0.00317619720498304,-0.005555124945229357,0.005442538696249461,-0.006377444604785188,-0.02315265089274955,-0.008870914532776638,-0.0003665054474771675,0.005312119566952587,0.001495988901498677,-0.007517575190016884,-0.004033125440029745,-0.006446913241820596,0.003940423116225739,0.002810693830499604,0.0008668708896849671,-0.001344317047922334,0.00946445324386253,0.01164744603019063,0.006814240759052222,-0.0152472242835867,0.01370137720901376,-0.002363903888272477,0.005154093606177664,1.45333671220757e-05
-0.01638567084010449,0.004367175279778928,-0.008884815495919995,-0.01221756951459648,-0.008338732678623683,-0.003637151253496772,-0.006008382931710015,0.004176118349111789,-0.001449987737409261,-0.001099363483667969,-0.004663079275998861,-0.009280345612857342,-0.002962807946599145,0.01235912827665493,-0.0183906421868018,0.01015881563315787,0.01174681781355714,0.001956463509531545,0.01169766659575797,0.01289150766328497,-0.004031129964003598,-0.006247651064433795,0.008591231697498815,0.002786278208725423,-0.008719324224625461,-0.003195241466560115,-0.004041080968999386,0.01344839661247059,-0.008476144665845002,0.0192992757560739,-0.02082364212004498,0.006839907077184636,0.01503194986675093,-0.009130972119434791,-0.01214398483136559,-0.005498052235805509,-0.005620409255517961,-0.00516958880360227,-0.01450152527960815,0.006575320415133928,-0.004427914303908915,-0.007910800733421406,-0.006398045210313091,0.006289853912268658,0.007372932530575758,-0.02723020292173325,-0.01507432947672403,-0.004408126381899152,-0.01167847704414432,0.01786604868502272
0.01253284972197938,0.0004607290196683655,0.001937192581944397,0.02555182183529933,0.001070073987151538,-0.005484975583777894,-0.005441639480065637,0.0184485507992811,-0.003612352944905072,0.007055704448612157,-0.0004881361675101956,-0.007489767910074488,0.01305001967510435,0.005404146740097538,-0.002157355317830912,0.002206926436805434,0.01650637354842477,-0.006885223379285387,0.01379201591066717,-0.00199354940915224,0.01764463917322148,-0.008562124930527838,-0.01661830331667275,-0.002480376137584014,0.005894411189826578,-0.002334216706427844,0.004523595357964186,0.01085999221012038,0.002838868888937737,0.01030925413142766,-0.008372101205672366,0.007159691088110358,0.003594279899097464,-0.006630342806448257,-0.01047918451968969,0.001094922462576221,-0.0006846774591760445,-0.005818430244635826,-0.00198511661665811,0.002998200721041586,-0.005858869116086908,0.008799426766741905,-0.01284291800056264,-0.007664557431143923,0.01691698561463692,0.01102113884756969,-0.00407498872829845,-0.02544536248936996,0.003228041979123912,-0.004668320976069688
-0.00241131572748994,0.005831240064507353,0.01001015772306272,0.005405704029914131,0.01060948540045916,-0.005765676395492416,-0.006385744084794664,0.01561947871515229,-0.00760089455645573,-0.001025755857557842,-0.01200048752445702,0.01319751174893471,-0.009889987583316119,-0.0121088608427742,0.002124602546382724,0.003163549600316241,-0.002751983927829516,-0.0166497985387331,0.00742303335137095,0.002839312924993012,-0.01569159702909372,-0.004822926320668428,0.0003759081429781861,0.01569626231677783,-0.005918043835373043,-0.006616714190794506,0.007686808873819576,-0.003727511550351053,0.00136048508475356,0.01145594805783949,-0.007678166063876542,0.002619222028117382,-0.008849868254094596,0.005382679018838472,0.007795796106521727,-0.009126831051542279,-0.005818481196373081,0.005226694260158939,0.002701096944510456,-0.003119470919612574,-0.001340667019374092,0.0004955760392455025,0.02471419502191984,-0.001560995414990595,-0.004690460450105379,-0.01015215357600619,0.01660521901643359,0.007930438558831864,-0.006945420674430485,0.001383411698575506
0.005213973328325064,-0.0006780461658120656,-0.01060823760669112,0.0006659309267834812,-0.01130594336244019,0.01146051413690041,-0.00411272445730041,0.01146121826821738,-0.008912006876482016,-0.002225934291260156,-0.0004629879741844151,-0.002123573546387611,-0.006105671077118372,0.01357586933554118,0.01027008083979927,0.0003410661418679362,0.006082992106102981,-0.00880942896073124,-0.003335458501857358,-0.009691640976473202,0.005134384946755353,0.0028260512335168,-0.0003356071007327774,-0.00130578093633719,0.0170640968759536,-0.001207011035405224,-0.006969994017271254,-0.002459803505902702,0.009026622707592821,0.01225051017142537,-0.006493906066362313,-0.008362661755915825,-0.003316127747317099,0.003756819184473646,0.0001318181721889493,0.005036778953985814,-0.001485399117299042,0.007335519435242659,0.0004235588794569924,0.007978913048336906,-0.00276284501163976,0.01046847259201931,0.003529644662802151,0.009451079124566188,-0.00443864571856632,0.007755063494890275,-0.005375722600195997,-0.005757871568869084,0.02974417149370411,0.008090816211501881
-0.007514077387598003,0.006247893785602458,-0.002354331599976479,0.00470735473787645,0.004842301040585665,-0.01421553858154345,0.007628617533390095,0.01521946984776069,-0.001785437476219711,0.004376206561213531,-0.01008740994603223,-0.004223078366773109,0.02154316480781093,-0.01244443484225054,0.02201939553381703,0.01375403610837369,-0.01062236780092684,-0.001817584801122784,0.002187034068072656,0.01407601087295266,-0.009843710125198002,-0.02206303095304524,-0.003650916040324211,0.005767901277019699,0.006112670547129956,0.010908524895372,0.008976283901700289,0.007513546184323683,0.003307959768764631,-0.0004023432710069689,-0.0004218276774681583,0.003703708999015787,-0.007548824426079029,0.009374735862971387,-0.004638769523193721,-0.001619111902882273,-0.001281441067436971,0.02794851101390514,-0.004832840640262976,-0.005726221609942476,0.01114439960243345,-0.01482463890917393,0.008545735199690454,-0.001083258151439306,0.002823315049470298,-0.013336699875552,-0.003186753713011397,-0.007787714392579682,-0.001338281814518948,-0.002847092264178385
-0.01244959581859186,-0.0009773451683601239,-0.002772306152872845,-0.006058394864280352,-0.002956027281540101,-0.01523785075167549,0.03847232802480871,-0.01354149081763472,-0.003738655455972675,0.02657580648894112,-0.006954403922804948,0.00753083519421828,0.00664452625417827,0.00881148267974672,-0.004157257749021107,0.001967719541543612,0.01295154493348043,0.02001736510991473,-0.004479076389421619,0.009369353701930155,-0.01741014730230895,0.003444533754121646,0.01424718830626761,0.001309720100141266,-0.01552043292796876,-0.01322373912452318,0.00704168658503159,-0.004148881745062542,0.01090991017800415,0.006080342171681216,0.01064742900816249,0.007757878624643492,-0.005267378306726732,0.00862405675511699,0.01886103900636614,0.01204959365214584,0.008781453547424581,-0.002745019665578316,0.005352022577660451,0.008047617718923804,0.000637184789679624,-0.003225819473674546,-0.0008832240662116181,-0.0141647690093715,0.006171030021581958,0.0006465031266778703,-0.01642407046863078,0.01590352918399904,-0.004133776750514822,0.005384355233057981
-0.000138248223811388,0.005494131445884704,0.00604499638080597,-0.01202182054519653,0.001344420909881592,0.005837141871452332,0.00493111252784729,-0.0009690272063016892,0.006972955465316772,0.007132372260093689,0.01196812272071838,-0.003882832229137421,-0.002224330902099609,-0.003711057901382446,-0.01519753098487854,-0.01318745017051697,-0.008496976494789124,-0.007194222211837769,0.006370719075202942,0.008554351925849914,0.002338623851537705,-0.003691569864749908,0.004850407838821411,-0.004427728354930878,-0.009701821208000184,-0.001485522836446762,0.01296439290046692,-2.207775134593248e-05,-0.01236397743225098,-0.001789511293172836,0.005171000957489014,0.01348981857299805,0.007184162735939026,-0.009278874397277832,0.0005069952830672264,-0.002978659272193909,-0.0004888653010129929,0.01500460863113403,-0.01492967367172241,0.005855377912521362,0.007595239877700805,-0.01038688540458679,-0.003584422171115875,-0.0148976743221283,-0.006220815181732178,0.004932549297809601,0.005060077309608459,0.001494535058736801,-0.008865196108818054,0.007140002250671387
0.008130930630104326,0.0274831807705085,-0.004498659850845296,0.0008710643386317645,0.00751229555453806,0.003317539637711915,0.00359559585894056,0.01491230367139601,0.001756452932319135,-0.004658791018986446,0.003109357133220045,0.02135673132559501,0.000486714771920186,-0.007323905462459075,-0.009942636802405065,0.001774658333096383,-3.164032098104417e-05,0.006955678899206117,-0.01255744818276774,0.001318536874778328,-0.004560501016263954,-0.000488483019387667,0.002542539924590448,0.01174662659169485,-0.01768110426627919,-0.00203747498259979,-0.01485422978777246,0.01113436853154366,-0.02273436784223647,-0.006859260334731263,0.01442583768001827,-0.005942980100651215,0.01609520477762738,0.001966607208940527,0.008744404735374214,0.01726796155316126,-0.001724005902412762,-0.007253639015400895,0.01122261291404112,0.001660094427374588,0.01323430790162346,0.0001146434707849017,-0.0281283966468807,0.01846472274147813,0.001187132831279012,0.0008612375634334604,0.01096438362566931,-0.003061096218640175,-0.01140366009680998,0.002145725925509012
0.01024435766811971,0.002170890884276079,-0.001494973045340102,-0.008938321195082687,-0.004597664819560536,-0.02399019121181192,0.001765379814977466,-0.007130334682789645,-0.005885021599313849,-0.003480923887967078,-0.002012556932195709,-0.01729456178437584,0.01168527168897804,0.01119087719709913,0.005002523329818875,0.001431749767010918,0.002928028984822118,-0.003761347273270034,-0.002449750856469325,-0.001705388941172402,-0.006009160052935124,0.007482793246197192,0.002642318359375296,-0.01307605770035366,-0.005000822307149843,-0.0004392970675971283,-0.01557086884259958,-0.0001058011555120558,0.02055428016173855,0.00455877731869527,0.0008056575169735604,0.0300112313986258,-0.003226087858776052,0.008935098567649749,0.003012653179071562,0.02241593072986726,-0.009558246865001334,0.02077801801342381,-0.01175448858540996,-0.002695990440568347,0.008104569332579244,-0.004603589343975796,-0.01142196921084325,-0.01899242958693638,-0.00759931282958464,0.004082429216789775,0.01203800535852406,-0.008623848467490966,-0.01599781934165313,-0.002987035479910619
0.003361279823614997,-0.01648992557283483,0.008608399197788308,0.0008502907499426981,-0.007519486905812394,-0.0001064109104306514,-0.00326006926534615,-0.005849985712116762,0.005869474028772781,-0.01649425492583355,0.0120669892216512,-0.00904507698463981,0.01052646332601844,-0.005032695631146867,0.01177315191050218,-0.004302974076577426,0.0007879715957419979,-0.002297640172360614,0.005354683869661247,-0.006723891195731441,0.01023642445492252,0.0003574651104052868,0.006343781683884025,0.002588893317304614,0.004561863948067266,-0.002526555893315054,-0.01498006062926225,0.01414507885620369,-0.01729842337159797,0.004726854047435488,-0.002640563501141681,-0.0003675023684972798,0.004396900640595424,-0.0005969005105873541,-0.007068452870289507,-0.01358797862746488,-0.007277391117293927,0.01530562475501725,0.003926019886411176,0.004912340720650895,-0.001261128515109794,0.006564986209795185,0.001944108763130925,-0.001772082318921052,-0.005505325162098488,0.005641105370417136,0.003007101868823358,-0.005847636925396677,-0.002442520114869954,0.01545875353550365
-0.01358697647580506,0.00149316925023655,0.005979651799478989,-0.003293138918614475,0.01920305877521519,0.004974037083134711,-0.004897803852080817,0.001053024168068336,-0.005734002529903554,0.00174011259645416,-0.01742671075176213,-0.00325208169099338,-0.01103920532210984,0.01506161291308136,-0.003977556792678737,-0.004054820444725612,0.01116643688168078,0.01227400042309564,-0.002998747041863,0.002697847499086784,-0.00364597286043616,-0.0005224163415307712,-0.00431758093910397,-0.01678460906743768,0.001451683979082092,0.01918349655910176,0.0218707738462635,0.002062868423119579,-0.01476605871204121,-0.008949597477163635,0.002929145660436201,-0.01100835050693985,-0.001593368538920344,0.006158855779321012,0.003704946071521065,0.0139624903852515,-0.002013402837767312,0.01825071309619941,0.003441115190297543,0.008315836755522974,-0.00045160965114491,0.01918584360182484,-0.003158593057979826,0.01405780579494428,-0.01458746055686785,0.01943598114766601,0.008006372050295616,-0.003426904127222919,0.0002752116584436092,-0.002720431625637116
0.004061258893849177,-0.0001040581985208315,-0.00362871509857791,0.005705342549589576,0.0005186555860809598,0.01030675886419804,-0.005730615559145587,0.01790458327190008,0.001711744589224763,0.007201713189932514,0.0155673118918107,0.0003110494370640049,-0.009532586916469521,-0.004467317866877625,-0.006222872353056844,-0.01149172367928242,-0.01110385869157727,-0.004890628280916976,-0.003104991103685148,0.001751172147165815,-0.0166506024796115,-0.01778509238484063,0.01483537176266353,0.005296764530538909,0.007203446054546318,0.01297221992235534,-0.003402861469500534,0.006705669190934966,-0.0121247030522579,0.01246350809355095,-0.003862590083930741,0.002362394022965825,0.003697714904127943,-0.0044149431678554,-0.01141687687183961,-0.007477235940408481,0.01007850526038502,-0.0002679809330983667,0.0008543827176523366,-0.004264285718793679,-0.003812104127956306,0.003271726684417473,0.004415855963033024,0.003188367644543164,0.02481667784456529,-0.01220749685647469,-0.004395475562243434,0.01037757258576609,0.009262378244311689,0.02072264704322071
-0.01874937295913696,-0.02012241125106811,0.01336041212081909,-0.01533981204032898,-0.003840046525001526,0.01941632986068726,-0.00155738890171051,-0.001259895265102386,-0.002608596384525299,0.000598946213722229,0.01475390553474426,-0.001761149913072586,0.006071628332138062,0.009852030277252198,0.004539011418819428,-0.01479021191596985,0.007737525701522827,0.00421481192111969,0.0002410794608294964,0.01153550863265991,-0.004852460622787476,0.008031288981437684,0.0007465223222970962,0.0099641352891922,-0.0005780796334147454,0.004212605953216553,0.01678904414176941,-0.007047089338302613,-0.007893031239509582,-0.0101752245426178,0.004721013903617859,0.01277202010154724,-0.0163840651512146,-0.002619518637657166,-6.501483730971813e-05,-0.01699798464775085,0.01350295782089233,0.001188922747969627,-0.005629281401634216,-0.001704098582267761,0.002897917926311493,0.000649278461933136,0.004861884713172913,-0.003207685053348541,-0.007457960247993469,0.002881061136722565,-0.01135817170143127,0.02647937297821045,0.008436847925186158,0.01586546063423157
-0.008084766467783121,0.005751789481986576,0.0003079755364663951,-0.01138744849757813,-0.003983768616562204,-0.00470531087550843,0.006051078901857876,-0.02013434748748932,0.009999651944504029,0.007954043588359837,-0.01572995661257421,0.003097681182581434,0.00247947825206178,0.005216105406833516,-0.008244946373985583,0.008158129759031532,-0.002931542186811936,-0.007826516257750637,-0.001494475179100134,0.0008862523343063994,-0.002217857072576458,-0.001232065688612986,-0.0006228215239261611,-0.001409251935666249,-0.005783121104192624,-0.001830504072570224,-5.55661407828994e-05,0.009476097842736659,0.007210111174115198,0.0102031330655164,0.007304884484508554,-0.001182783204781111,0.005055672959453645,-0.004436169369288455,-0.002467674910096756,-0.002346004536910083,-0.00363543118679688,0.008074127916531962,0.007373444770759075,0.009937877145242148,0.002208793724771594,-0.02453854760159317,0.007225680377500694,0.0003323641370354905,0.002468174700101015,0.009958285922644954,0.01007828223877773,-0.004578871809974178,-0.005593677967592699,-0.0094619133612476
-0.007386295449818107,-0.00516146988622755,-0.006048618044676095,0.00673986761437722,-0.008471317864263656,0.01937737251752228,-0.001895641400989377,-0.001481672168236468,0.01711827960073387,-0.004077913079296191,0.01087046705546701,0.009384296352733525,0.01536443673807213,0.02006268851711311,-0.01348539165589336,-0.003982772902382624,0.0001895328574946974,0.007115387841048933,-0.007666199096735324,-0.002635547313063905,0.006549693199559451,-0.0006522831068914459,0.008188612506049679,0.01155658669901977,-0.007737158364192562,0.006012736175289072,-0.009523596981952466,0.006443174657385795,0.004350452132457107,0.01139257035921132,-0.001110708176823078,-0.007027067581526596,0.000338249632236142,0.001835434305982664,-0.001927074942812414,-0.01326155763314867,0.006675755586882837,-0.007599717051328974,0.003164969240799804,0.007151874126707168,0.006162624452325058,0.004618144425980663,0.01603206148787834,-0.002824366741784577,0.001390995020932889,0.009858661374771033,0.01514201642632027,-0.009601954872935577,0.00635898407383518,0.01545664957014253
-0.01360869884490967,0.01439364552497864,-0.008768038153648376,0.004158623516559601,-0.014261314868927,0.01235064387321472,0.008150886297225952,-0.008612235784530639,-0.007068102359771729,3.213620046153664e-05,0.00953395962715149,0.01164125680923462,-0.01213167190551758,-0.01071890711784363,0.01001892566680908,-0.0005462992191314698,0.006084127426147461,0.0112240195274353,-0.008117639422416688,-7.982573471963405e-05,-0.01065223097801208,0.001424946635961533,0.001014023795723915,0.002039798200130463,0.01517181277275085,-0.007191841006278992,0.0133284592628479,-0.01478218197822571,-0.004626146256923675,0.01177138566970825,0.0003675062209367752,-0.0112435257434845,0.0009693148732185364,0.008067578077316284,-0.002160567045211792,-0.006767312884330749,-0.01304030656814575,-0.01430201888084412,-0.0003270029649138451,0.003153759241104126,0.0004289340227842331,0.00675861656665802,0.005520197153091431,-0.008590596318244935,0.002237692922353744,0.0102248227596283,0.004242287576198578,0.006127996444702149,-0.008727143406867982,-0.001298741698265076
0.005373565302236641,4.216883209807158e-05,0.006409679333898948,-0.005220744776401646,0.02980280165965445,-0.003218353953373954,-0.02076407264661067,-0.00590329662010251,0.003762960312900313,-0.006328388609327369,0.001944242635691932,-0.0008545356848344241,-0.01492753056492676,-0.01640651394075126,-0.017015343951957,-0.00692621918925285,0.007094233197223843,0.005461295606320667,-0.006425810138503301,-0.01385399392608377,-0.001188103872597296,0.01622576948400982,-0.0053412116590374,-0.00997679861092984,0.008231435344590424,0.003078196706778203,-0.000119814386842719,-0.002129526303511767,-0.01713881143401197,-0.001584031374343487,0.008032346141738011,-0.008167193094544221,0.004376423250939833,0.002805020425673585,-0.01849027749120229,0.006646456117472578,0.007111459399793918,-0.004185000912605237,-0.009315276863383515,-0.005738846990628137,-0.02129485892584546,0.02461752482750173,-0.006602186145503339,0.000368149245912398,0.0008532901772954277,0.003803095183382488,-0.01408006930658496,-0.003657576211640561,0.01052182908385446,0.01128630752923426
-0.01336249378817702,0.01076798579992261,0.001537539467873801,-0.004211688990318101,0.002579201315710298,-0.01500265557838117,0.01011970274114709,-0.007518225485987049,0.004314183807265691,-0.01162298696815149,0.01478822987966219,-0.009265905215263355,-0.01636586406538648,0.0004618681431520732,0.00245797205497972,-0.0113472208094451,0.01295293770612955,0.0006647068610891986,0.004037931633469671,0.004506043636885066,-0.003756491020511407,-0.002177295684262017,0.00241096365438127,0.01470311276871217,0.007127005915594358,-0.01294496088925806,-0.001700922237276488,-0.0002844810709055412,-0.008913765111181303,-0.00990851698032775,-0.01330658209732853,0.02123855591893894,-0.02169988467134185,0.006442842536127913,-0.004023263096108538,-0.002086960194904214,0.006461060913634649,-0.00129408832814797,-0.004501702478978633,0.01186889291315216,0.004940549096236518,0.01212279915405548,0.01457760156819308,-0.004196400869093492,0.003451975393144498,0.003551167956089618,-0.0005968140557470373,-0.004580277820055282,0.002886989723907374,0.005871024804352502
-0.01152085153413608,-0.008582083487380742,-0.01022620943202878,0.01072951551594206,-0.002289527136283602,-0.008748401197067558,-0.01405117936229075,0.0183332660589614,0.008521187814900008,-0.02320626766641315,-0.01300820051791369,-0.000216235646393461,-0.02260673304811469,-0.0001111787105659288,-0.00247419244545785,0.01166769976363077,-0.003993923176602892,0.01197647538523404,-0.005840772937654152,0.009871432032029611,0.0001284871565829051,-0.001544048263148813,-0.0006670688067938206,-0.01185705607438984,-0.01102525613308609,0.01332655016436433,-0.00894759935590919,-0.001467707942777061,0.005439556459869715,0.01349477921600371,-0.000281893030371932,-0.001889416087198459,-0.002268918688035453,-0.001743518769417436,0.01123596277525106,-0.008382967100577288,-0.02017015261018645,0.001194741930847258,0.01420970465274134,0.01397979287678774,0.009106690812228787,-0.009089440672221779,-0.01597876886134557,-0.0109283033156049,-0.005079155249459127,-0.002475403617681986,-0.007245748738528624,0.003543462469983716,0.01699275981136496,0.0003650771035299384
0.003855420649051666,-0.003065555095672608,-0.01056816101074219,-0.009353078603744507,-0.0009471805393695831,0.004637376964092255,-0.008417686223983764,-0.005575681924819946,-0.002555547058582306,0.001400971710681915,0.005048022270202636,0.009752399325370789,0.002931285500526428,-0.008357920050621033,0.004336281418800354,-0.01938926696777344,0.0157736873626709,-0.005405693054199219,0.004251275658607483,-0.01050030708312988,-0.007437912821769714,0.01283047437667847,-0.006348617076873779,0.01604483127593994,0.0085530686378479,0.01247305154800415,-0.01103683710098267,-0.00258579969406128,-0.002840251922607422,-0.0001217263657599688,0.008568689823150635,-0.0005350251868367196,0.001168789863586426,-0.008298952579498291,0.01150696158409119,0.02014136791229248,0.001270321160554886,-0.01007997035980225,0.003531997501850128,0.002083041071891785,-0.01712350845336914,0.007084795832633973,-0.02240978002548218,0.001179754137992859,0.005601317286491394,0.004408471584320069,-0.01233093380928039,-0.02600217819213867,0.009599317312240601,0.01044972538948059
0.003966098427772522,0.001942044347524643,0.001947914958000183,0.00140259861946106,-0.003729402720928192,0.01605720162391663,-0.01047096490859985,0.01209735751152039,-0.002993576526641846,0.01271106839179993,-0.02387636661529541,-0.01650701522827148,-0.006470063328742981,-0.01375170230865479,0.003961686193943024,-0.007836301922798158,-0.004029859602451324,-0.00617948055267334,-0.001978064030408859,-0.01504075407981873,0.001335471719503403,0.01002186298370361,0.01013803601264954,0.0007189157605171204,-0.01526801943778992,0.0009050909429788589,-0.006669475436210632,-0.01696302890777588,-0.01168497443199158,0.008993547558784485,-0.008496134281158448,-0.02212565898895264,0.006509709358215332,-0.005297932028770447,-0.00821587085723877,0.00813569724559784,-0.002628099918365479,-0.002597685158252716,-0.01251598119735718,-0.01053540825843811,-0.01245553016662598,0.01156705856323242,-0.01395320415496826,0.002414954006671906,-0.00524512767791748,0.01388579964637756,0.01086421251296997,-0.005331920385360718,0.004118997454643249,0.007528212666511535
0.002678486813309379,-0.001541815876128975,-0.009389170265236706,-0.00784794070100869,-0.01495941440099441,0.004557144434052789,-0.009640558623768397,-0.003905908378126381,-0.001731403794079292,0.002453948929479147,0.01653056709220886,0.0001276190490811957,-0.01090592963018347,0.02184954308369594,-0.005453151390352785,-0.006812214323980582,-0.002972688889867796,0.01029583679665091,-0.005133069006141288,-0.006604639795702652,0.005805002936112341,-0.01386669918422381,0.004148716029483851,0.005013076174565858,-0.008346521112014995,-0.001356399326290707,-0.005995770107039606,-0.01944713340981883,0.01410708408045121,0.005672185726461116,-0.00356976036574199,-0.01039820113969183,-0.000748105651783959,-0.009148067519364199,-0.0002514808176070957,0.004005858708166338,-0.00464375434408131,-0.01360427777805554,-0.007738455497134289,-0.009817941976708671,0.0005714445824991506,0.01027271034490672,0.001611467578763091,-0.0006708217502139813,0.003408560162162068,-0.0007681513801868644,-0.01366771245172627,-0.01599699922432549,8.674622568197511e-05,0.00141902693462266
0.0004139756628021358,0.005991106422521774,-0.001426028097447697,-0.0009597592827250281,-0.02738521292695228,-0.006906127161525949,0.002896947231193956,-0.0007232449799843495,-0.002378943397052374,0.01158222714531592,0.01249447628428783,-0.003253418197597227,0.008109338257677927,0.01391255090106191,0.009178600211537401,0.01391707534040652,-0.001059776288023053,0.0201753473571586,-0.01339130746104747,0.008586399293223253,-0.006433759405850193,0.002601885140782031,-0.002008150847540512,0.01094444701146903,-0.01540846620434089,0.0006936396261464531,0.01443415548830867,0.004848350420494379,0.007032215140496199,-0.009798794032379031,-0.001754482139205339,0.009938733687109822,-0.003949200110128582,0.01437810005113281,0.003005224064376243,0.01241062816564527,0.006309938477145831,-0.009722599516423664,-0.01412061169040103,0.000286138826166694,-0.003612935441430065,0.01021379587868049,0.009361055133601314,-0.006472404366665424,-0.001425932174934416,-0.006904361192711214,-0.01045272061072847,-0.004775321227506651,-0.007954914563462229,0.009663945177225918
-0.008712368190289749,0.01492943580927156,-0.003626844763478979,-0.009756811207879456,-0.02003698415431353,0.00234494390178553,0.007025197788852403,0.005160702790533726,-0.01521540097727129,-0.008450090937889509,0.001916257819811407,-0.01195177120315144,0.01360624725707515,0.001750964930208858,0.01036904409338217,0.02872376345657345,0.005052920390944268,0.00459008563635563,0.0139110499405439,-0.01129940897015019,-0.0141429517458652,0.009579171513904486,0.008291013163194015,0.01528854835445373,0.0243873928130114,0.006136812009236376,0.01329644093440837,0.001441804722633845,-8.443228237208864e-05,-0.003995685306878856,-0.005285140023799037,-0.01061135643784279,0.008294225193523783,-0.002426538253731435,-0.008006567436888377,-0.006565622229303969,-0.003964828596386631,-0.005863615428062563,0.002320752010222919,0.004040377927063817,0.01791250843452787,-0.01461063130373491,0.005438542808455573,0.009392044434565171,-0.006176973881721785,-0.007082481542683141,-0.0123691120957459,0.003409461404381503,0.00427192066630866,0.006873762057668638
0.0129746435577507,-0.01334079250672851,0.002713524400997852,0.009180005000091326,-0.00114362270890925,-0.00146044849410217,-0.003098134643315483,0.002718444104822923,-0.002892532688528551,-0.003455591014941156,-0.002115229986908294,-0.00583702559490553,0.0002649763359013313,-0.0008414723690113016,-0.0134486410863555,-0.00221769152327959,0.01070937470517211,0.01816627206307331,0.01176560078445574,0.003234482695682683,-0.001141172855567177,0.006126364212610905,-0.01683046132870193,-0.02021041764704819,0.002676980793426795,-0.002786012383171308,0.01024497789752073,0.005991811316052744,0.003235238634035189,-0.003811439528433021,0.002227469061213989,-0.002582906844668607,0.01016678330088396,0.00386782949812226,0.005355482011770141,0.007226819792548665,-0.01218493591243759,0.0008724983857228106,0.02440661171892133,-0.008253222199355075,0.004269234767063149,-0.007229758082963167,-0.001354961862726274,0.003608440903174344,0.002352641789571532,-9.081168825732896e-05,0.01375144952044193,-0.0009460509485984356,-0.02101810583922102,-0.003572025757157822
-0.007727427256651373,0.004541938525702405,0.007452708471373347,0.003100603839813245,-0.01748216107461822,0.01513299252802014,-0.02818080143858199,0.006478444233159502,-0.008099283329072008,0.02173193652615592,0.008881944699640515,-0.009607539325904911,-0.01625174088791424,-0.009470646796686548,-0.002516946880312044,-0.002059032150635287,0.006437278743672344,-0.005207698898148785,-0.003581312754226165,0.00945059458215166,-0.006447600640150867,-0.000520285037166043,-0.01481865836884327,0.002376996911159712,0.004235802311474241,0.005445408160559107,-0.0007051528082677739,0.004840179788230831,0.01105471780897507,0.003500537751752478,0.001562790273105873,0.004637662670347818,0.006917518428350983,0.0009122742661376143,0.002621027165931165,-0.009787989003472943,-0.001114224243972529,-0.01907088547596304,-0.001169885248080952,-0.005942099265115505,-0.0171350023485499,-0.001840031045581101,0.001777123145459707,-0.02264488326782974,-0.01414637971437101,0.000263430556571424,0.01071198051370492,0.01011135391976819,0.0136761860783925,0.01506291014717191
-0.01563283276218795,0.00447945934574263,-0.00830971767714323,0.004264275026811801,0.01786588944957583,0.002147069476983294,0.0005208874833472609,-0.01104931071949658,-0.004310036763355654,0.009212184553661943,-0.01714459844292177,0.01941712478037323,0.01558179313861514,0.0004526283494093324,0.01345327893924302,0.005257091434501297,-0.004766638280828979,0.001155143237941908,-0.0005806672450433602,0.007504514132460527,0.008592692115791351,-0.009805581918411119,0.007067909154422955,-0.004655340830260227,-0.003240368293901167,-0.004916927564001796,-0.001393325404990725,-0.0007128527923072019,0.01373278880548802,0.01126876039562522,0.0124101390392795,0.008719044533243264,0.00926136844087686,-0.01027284156238367,0.006254904577004271,-0.001410263014039056,0.0006770346166446157,0.02131385130326908,0.009866542608373802,-0.003759277492629378,0.004122327078875107,-0.01241121974751799,0.003524710876483407,-0.01357536840844042,0.00163434923624169,0.000824549216438492,0.0009049749870269113,0.003011267245900152,0.01581422469920214,-0.01834010084071636
0.00739279547940332,-0.002851203377686018,0.00307403163963659,0.004620959560797953,0.006753651356621161,0.001255667553849388,-0.006838280907448567,0.01966270094793001,-0.00612771314298721,0.001838084653693759,-0.01027009674429374,0.006405056200137186,0.00179282485994363,-0.0005284032285637755,0.002249984249595924,0.01737022505587122,0.01636991345991433,0.01047552297881332,0.0003041421513869335,0.0156317548349822,-0.005144976206430227,-0.004330918243005197,0.007771041402493975,-0.01683347782810394,0.01336435710567967,0.004873247322987714,-0.006040234547629132,-0.007226958478963836,0.006865851940146697,-0.01715807997875848,-0.006476303407611987,0.004881179814270344,0.01286365846214193,0.008534746655285839,-0.006733025945199986,-0.002220109541204138,-0.006837918656733535,0.00706687547776756,-0.002581631436169605,-0.0004541768778361087,-0.0002008660576342903,0.01416191526020503,-0.001490427738405896,0.007142991559172156,-0.00208912900852841,-0.002041233087014032,0.002422058322087339,0.010000961867294,0.01371833234133064,-0.01912132613539549
-0.01757275493511088,0.01831888060668896,0.01354671384722179,-0.01032452955779128,-0.007199360783387211,0.02057105137986781,-0.001269146318905937,-0.006097123023792476,0.009988682664720132,-0.01218131787315522,-0.0006498313080090737,0.007993585191724616,0.0008367784464605788,0.003469231459241206,0.001751493453843605,-0.009356285942076895,-0.00264022936957663,0.002679753626108968,-0.01466393129983633,-0.007856857601000777,0.005809416056251794,0.001338797255085251,0.00396322588718309,0.001861695967408825,0.007175067152862941,0.02299755422620793,-0.0008616683795120918,-0.003686924707062954,-0.003690888632032761,0.004775097505159722,-0.01058532037604367,0.008356187479290641,0.00134166117892975,0.007830586065805185,-0.01642107802451278,-0.006991947770012104,0.01282261600783216,-0.002987335277794566,-0.008266283360750372,0.01343787349354832,-0.008590065219874595,-0.002636806026746811,0.003432123139625675,0.002646051025229703,-0.001482451571141435,0.007410561031844514,0.01645229726979357,0.007382676312891715,-0.005265349407739523,-0.01733591407414945
0.01400684461840387,0.02584820302913043,-0.007224826408681388,0.001069493362566216,0.003234268258545337,0.01700786308208211,0.003495911229527941,-0.002019893822756239,-0.01645059704578302,0.002171823779081623,0.01785784173351767,0.01168351515368454,-0.00190465981328743,0.01045024327097933,-0.0006358892711670018,-0.009685856817835861,-0.007703784312601428,0.008640653924816276,0.005137486679860719,0.002103405651404494,-0.006302345122632899,-0.01139371685743716,-0.007611948716013468,-0.003064137604973265,0.01306672722822463,-0.00618092646500311,0.001377239661577416,-0.0009374259704427979,0.01413719644387345,-0.00451687732469431,-0.001950680478044645,0.002078619189683311,0.01033624041673422,0.004339381808216334,-0.005721319194420084,0.002350243779186052,-0.007190427657792639,0.0209877141658541,-0.008568822215674126,0.003150764016393609,-0.0160959972324131,0.01712581032770889,-0.002252084223079419,0.000513708404142864,0.004588832459027923,0.009486860889903815,0.008705800740018147,-0.0003494558189878519,0.006577759335595287,-0.01235384945307731
-0.01018518924713135,-0.007036159634590149,0.0109814465045929,0.009830229878425599,0.01223673939704895,-0.007960472106933594,-0.007922472953796387,0.008955646753311158,-0.004730839431285858,0.005788857936859131,0.01144479393959045,-0.005970720052719116,0.00602138102054596,-0.00364260345697403,-0.00923884928226471,0.00551119327545166,-0.00469247967004776,0.01841560959815979,0.01242427229881287,0.01014552474021912,-0.009077450037002563,-0.008678020238876342,0.008322157859802247,0.008337945342063904,0.007016928791999817,0.02119947671890259,-0.0004044110700488091,-0.00130583792924881,0.001466215401887894,-0.01459492087364197,-0.0001685071364045143,0.005008172988891601,-0.01409099340438843,0.02129319667816162,-0.006210233569145203,-0.0005795528367161751,-0.001267017275094986,-0.002169343382120133,-0.01120046496391296,0.002988764345645905,-0.005545067191123963,-0.007779631614685058,-0.01460745692253113,-0.006310545802116394,0.00397172212600708,0.003584490120410919,0.01339951157569885,0.01578234791755676,-0.01413427829742432,0.00640809178352356
0.0114198140209157,0.002703082743978074,0.00130205362104592,-0.01130879132095725,0.01972639629124989,-0.01085965079646063,0.004008410729141874,-0.01125417883342607,0.0141808362487298,0.0005879315496020169,-0.005613185541848459,-0.003515031578612795,0.0160765294827189,0.003993526291765965,-0.00694696931288486,-0.01148935382833814,-0.0009893922953867012,-0.009340418234558811,0.002424182691931883,-0.002722839541374131,0.000163786101630036,-0.003881219521498299,-0.003953692427903982,0.008925956382575725,0.01512142363769542,0.00145669019386572,0.007551861748058638,-0.004365832872518592,0.009825964259994395,-0.003696491290260492,-0.01403866335428135,0.008693127346780022,0.005551664743461442,-0.009678058270505057,0.008096433753212841,-0.003012099628134055,-0.001617186953905747,-0.007067440482990499,0.01262995934871169,0.01238916291832633,0.0002769774264964682,0.02785026298447186,-0.00919267662429844,-0.005813641810593866,0.01119901734162539,0.003493285126437091,0.02493820214227208,0.01355260800499514,0.003113227605031605,-0.007425186507527451
0.0006894996165648444,-0.005556829973563004,-0.0003003863343115968,0.02570766512485225,0.004885608511528095,0.007436974136116466,-0.01233120724680171,0.008345130242050842,-0.000659361496416171,0.003477646068987853,0.003224502472074488,-0.002509988798679627,-0.01173182102651792,-0.003389975650918181,-0.005177831294105314,0.004648818387537275,0.001387321215196889,-0.008130759304873435,-0.001031066798726877,0.003454680933112213,-0.007788822943116073,0.006246645966396611,-0.001097022629040427,-0.00526474903215571,-0.007628703755185112,-0.01056905625945234,-0.003230484403057819,0.01304264770703061,0.008599975629959259,-0.01087438393632296,-0.002097400305110016,0.01694591324944237,-0.02200158908530214,-0.006133688539138279,0.01148752845597502,-0.009276337464155833,0.0126002442563946,0.01651200763683069,-0.008872019758591653,0.003616119342978266,0.006005075630703383,-0.004231232218812987,0.01066315400831356,-0.01342111644157436,-0.007096004412644026,-0.007024777322075094,-0.001208330238080447,-0.005765973941626003,-0.008529399747146876,-0.007891579195378492
0.006235135749993084,-0.0001499567152163115,-0.01470311514959216,-0.01715324377502512,0.01006962433909247,-0.01759944883388811,0.01403491841170929,-0.007106477020240043,-0.01277690218521274,0.0004183872917132411,0.004869031121440187,0.003738362220543986,0.004773698283438539,-0.0008272538590507511,0.002491380605829982,0.003599872366065705,-0.00310205953723736,0.005630110543408596,0.0008042993477636338,0.01074524965040517,-0.005009864078135803,-0.01820349170028538,-0.01488979947738221,0.005019825038355254,0.01103058587344761,-0.01148225597309973,-0.004994190276229898,0.003627650604434951,0.008666333514724308,-0.002670512974878891,0.01794681724649899,-0.001531542742594322,0.01244928413162367,0.006792854713953969,-0.01171551731528771,-0.004418519433305012,-0.001201964476522204,-0.001904427135855742,-0.003708863276374571,-0.008754046159361119,-0.00118700047315259,3.291870140388795e-05,0.01733314309441365,-0.00114869301116895,-0.004385543384735744,0.009598848941266953,0.004227468926135598,0.004496501099932783,-0.005738225991707175,0.02585018032296223
0.0004275811091065407,0.008634724020957947,-0.00529624879360199,-0.01232592582702637,-0.003846776187419891,0.0006814138591289521,0.000685400664806366,-0.006445924639701843,0.003845708966255188,-0.001270115673542023,-0.02359902620315552,0.003222494721412659,0.0005480479076504707,0.006690892577171326,-0.00328281044960022,-0.009243960976600647,-0.0008815184980630875,0.001687284559011459,0.01380048394203186,-4.792016930878162e-05,-0.02290384531021118,-0.02073804140090943,-0.001342219859361649,-0.001587548553943634,0.003537293076515198,0.001027427613735199,-0.006876305937767029,-0.007335358262062073,0.008973748087882996,-0.009768257141113281,-0.009346163868904115,-0.005231261849403381,0.007933689951896668,-0.01271524906158447,0.0006987647712230682,-0.003940902352333069,-0.0042257159948349,0.01815762162208557,0.002390590310096741,0.001723672151565552,-0.006670491695404053,0.01185032844543457,-0.0111466121673584,-0.01354748964309692,0.01507189393043518,0.01432330846786499,0.003197509944438934,-0.01028575897216797,-0.007301669120788575,0.009887993335723877
-0.0222678571375762,0.01756640107288185,-0.0119737412073055,-0.008861624944524592,0.01314570522636291,-0.01464363576662061,-0.0004924375432808837,-0.007627252720932281,-0.007072024938179095,0.02279462024717904,0.006531194021155661,0.007375989488516929,0.02267178903644548,0.001131013311271007,0.003067374495277417,0.008561708166553017,0.01146496993867231,-0.01579971219309837,-0.007250624412367019,-0.01260344724858499,0.01738464581179117,0.005149379015073727,0.008920979869367601,-0.006695773553517318,0.008685892405334707,0.01851963722674801,0.009549859761363201,-0.007926066711419211,-0.007487462532130678,0.0009839442898293797,0.0001159284557159923,-0.01616106499543966,-0.006517224770901818,-0.01060062588192921,0.02397044309769589,-0.009993292953469598,0.002837707807878981,0.007426363455049454,-0.01381736763195868,0.0006416858011717463,0.002010910248021297,0.01522219396504077,0.01544140902944096,-0.01145546291116026,-0.02127525485747257,0.003029367501679324,-0.008750230809350383,0.003077173373986167,-0.008303262225847199,-0.003387535304556541
-0.0001868724816605175,0.004743328499585416,-0.002182291160685904,-0.002605546754577645,-0.0009222314506937332,7.363970591101151e-05,-0.01175236758203885,0.0163974755186574,0.004960662027703385,-0.005233636816760714,0.01105033016835762,-0.001709947668063785,0.001683920935338661,-0.012406585453649,0.006420513415258684,0.001798416602718515,-0.0189511455646114,0.0140583640835257,-0.02415772069593087,0.009047404704741045,0.007489804623066772,0.01936348061734685,-0.01654672594481416,-0.01183543333601974,0.002228045604155103,0.01109041055258425,-0.006177443280903317,0.0009258471439313565,0.003207225077918958,-0.0009453985046691881,-0.0137730786628541,-0.01100476138797055,0.002344081958470131,-0.01030034412272444,-0.006096045497981113,0.002058121498032882,-0.0002547987629687309,-0.002367944878071459,-0.006917789017027836,0.01167506739393908,0.01229465501158385,0.0002022662233880291,-0.004877679419788087,-0.01450250463529431,0.00328458331508964,0.01112575642261413,-0.00472142526103459,-0.0177267524615718,-0.001635426492271458,-0.007114890471843017
0.01296583894664521,-0.0117021766149919,-0.007558807628412329,0.01758984979550422,-0.004471044082842626,0.009944378786333134,-0.001768799144183193,-0.008856686997653096,-0.004415361362916674,0.005311995751014651,0.0001661178742527376,0.006255381337625919,-0.004411114723480543,0.002018295761211128,0.005556087467639401,-0.01048177089087842,-0.002814887075925707,0.01557642130647084,0.003795243901788207,0.0002089688681067064,-0.0008015019091900091,0.00870878587924909,0.003513533160738531,0.004646044670441758,0.001067812635338571,0.005416014448379415,-0.01382547888739212,0.0015096469321095,-0.004637361685134649,0.005623350819786008,-0.008400725707023417,1.50149156758168e-05,-0.01348665196679606,0.004556988185704402,0.004514652927845923,-0.007982435593327597,0.005832058593256938,0.000104791897426966,-0.01550244685633523,-0.01124520062270077,-0.004652210541465322,0.008679551874085506,0.01695744598866292,-0.0151724213420037,0.01706246158497511,0.005300817213467281,-0.001812353150444467,0.001380019222712188,-0.00553558965907558,0.02066789753246426
0.01037889535171511,-0.01228106349676851,-0.008129774474280951,-0.0002467686790880921,-0.005138657781442723,-0.004874879446782048,0.0008893984778834622,0.01305236433857332,0.006850194860303052,0.00653271572527796,0.008011726969377558,-0.008462679928223429,-0.008029616683269805,-0.005791370664175474,-0.004332427710128763,0.007124807791400309,0.004275376833106265,-1.238356613355715e-05,0.002002583653845148,-0.01735237655212971,0.007557981657528883,0.007864428992009101,0.01643022551547313,-0.009255344229998946,-0.001295363176256557,0.005078069419059336,-0.007256236468940913,0.03208739821209996,0.0111152060431785,-0.002288915906438056,-0.008509031499236321,0.01699308674752246,0.01006028262670107,-0.01678986001628115,0.01537330848866972,0.002463056614304005,0.003001038467157711,0.01516767220189097,-0.004130926806771184,0.003262513157605912,0.01009838521953516,-0.01058731596748043,0.0001204571651772476,-0.0005739133079029179,-0.003011141560051929,0.004563594770346125,-0.02167667777207951,-0.002556961414199894,0.006016611062628074,-0.01274406580013035
0.01065687177547564,-0.01141901970570137,0.021210165481459,-0.0007499273248510685,0.01121894777265833,0.00215369859135729,-0.01536660570237511,-0.007651492389994209,0.006359727129141572,-0.0023753801104268,-0.007099205262670047,0.006153209266569865,0.01583404443237786,-0.02013361720078474,-0.007036040398096113,0.006375341298995616,-0.004183353190192938,0.008134355870501906,0.002351027810372509,-0.007460574004296134,0.002206462790360366,0.005831246121367621,-0.008504995711871279,-0.01373105827800601,0.001701929761261479,0.006367272004114552,-0.001248500687443097,0.0007052528161364807,-0.002743161576869079,0.009605395777949405,0.01819172321802749,-0.001736579311798745,0.001210182170928958,-0.006853731935996693,0.001533649645982262,0.01570531273393819,0.01541482649019358,-0.002541222526207347,-0.01936483916523744,-0.002079921444187746,0.006436433443337254,0.000299963958431356,-0.001324647706915562,-0.01968466451961772,0.0005268906574359394,0.01605092260747916,0.006462481277778757,-0.005964999861476956,-0.00902346962749638,-0.004503021633641149
-0.0009307217224339829,0.001647217263964934,-0.0004807599973405666,-0.003733209812751003,-0.00127454868580856,0.01694019719160322,-0.007313724690972499,-0.004094232517312349,0.002278295092710777,-0.006857205433273649,-0.003181501063840529,-0.00699889588864001,0.006271049038974066,0.001235039595751568,-0.007457556542397074,0.004863373192215574,-0.006697407726549202,0.0005868154429104086,0.01296824482137834,0.005931845242269732,-0.005645051725083434,-0.000504513794913272,-0.01480397358377766,-0.02003882789337042,-0.01034235709053116,-0.006216070833024803,0.004300407170792517,-0.001647711648571501,-0.01795203952886151,0.006813362541867638,-0.011213795260588,-0.01050408380978197,-0.005206943987186976,-0.01028344854054611,4.61271329979996e-05,-0.01354055615680172,0.004081958201360993,-0.005269920506192919,0.01000096977993528,-0.02283750964893194,0.01270775784039787,-0.002177579328608524,-0.01211897356702359,-0.003990369768101429,0.01514109827128876,0.008113724157935286,-0.003288604330842765,0.007861906845054664,-0.01283859701052385,-0.007789904450354987
-0.01039904860754078,-0.006479632588294003,-0.01644605477248265,-0.003054412121266835,-0.006988167176120063,0.0007670103297687798,0.0085127747046431,0.005554224546362914,-0.008791640098821753,0.01441271166427652,0.005321706113224386,-0.01090646108327782,0.00564084995014631,0.00366247107822612,-0.001977001812456353,0.004174900763875525,-0.004968717170773976,-0.01300633849221339,0.01148401796096764,-0.01199185872154354,0.0002866133696446965,0.01514524642823703,-0.008413590434808091,0.01269872957881803,0.005549439953927714,0.01603038629014007,-0.01269331526182517,0.0003575466442251735,0.01178748976506245,-0.004755895958726255,0.002380853680688291,-0.002729191183723005,-0.009985957522342687,0.001358442686855134,-0.00784141938275278,0.008201363444518817,-0.004116072246180033,0.0003377046355185921,0.02155015095948534,0.01096270614499384,0.005646483239173298,-0.008175114207249892,-0.01320927446033734,0.01031110490267106,-0.01422326865340915,-0.003269233053478116,-0.009769029715008764,-0.0006727739661258463,0.01236373297915173,0.0006242872155533435
-0.01451188226579465,0.002469403914070428,0.0003236910953595203,0.001509026712891134,0.01341759721185304,0.0104501599804273,0.01178500801805664,-0.005598101709306754,0.006612057882048976,-0.006460698700145436,0.008114128724826803,-0.01769959619348457,-0.007373383809258135,0.002598776599335811,-0.002805161960647999,-0.009514979130751342,0.009519044105663317,-0.009374745615042484,-0.02059926773190603,0.001567048301655393,-0.00135047726457411,0.009672584080112822,0.005482927168219009,0.01270167907751175,0.009280499608028282,-0.01146968250399328,-0.001168752020729763,0.002203815956779363,0.002196583833889026,-8.77927264622266e-05,0.005816064208192932,-0.002869317320454013,-0.01237457631518606,-0.01271888055562254,0.005534673702707991,0.002031885240082736,-0.004265195815353916,0.00573525200232223,-0.001588498452694688,0.007799072417419817,-0.006890643416490872,0.008989889431246557,-0.006871634123279506,-0.003448710599479507,0.007649079989776692,-0.01561592243155505,-0.004672618968277877,0.009113534182753914,0.01323364429232915,0.004821910738143026
-0.009734246692865722,0.00628690396570645,0.009962363714554348,0.01229828532905439,2.673985875697591e-05,0.00431723419605275,0.0006556532390130089,-0.005717391929455857,0.01777088114848793,-0.00235833088276808,0.02203768625730274,-0.001910977375312868,0.006470534543213847,-0.005302101323513218,-0.01404192066581685,0.002223794519984149,0.01029289564230687,0.006685565802265627,-0.002432023357079786,-0.001772398821566702,0.01318038273924788,-0.002461382384902118,-0.01629046752394462,-0.00792688071269486,-0.006239577933446872,-0.01758738515626322,0.006908148459472592,-5.699365852209987e-05,-0.0002046787710274911,0.001976687266361027,0.01231572032883502,-0.005009103542062325,-0.005305066295984523,-0.006292076252577909,0.01856277158014008,0.005409605760886052,0.003389589781867514,0.01728563588062696,0.007210022838214962,0.007525976874495838,0.01450768869215276,-0.006283030753798322,0.01365600321157123,0.01354521817651981,0.009840040567104026,0.00271078881657582,0.009402377872234996,0.002232966478328742,0.006727991421064508,0.00723776850090812
-0.009498751163482666,-0.003523631095886231,-0.006249024271965027,0.003428237140178681,0.002013185620307922,0.01453014492988586,0.01209562540054321,-0.008423920869827271,0.007335651516914368,0.001856681257486343,0.01746586561203003,0.00280532717704773,0.01804978132247925,-0.005463042259216309,-0.002445437610149384,-0.02780740261077881,-0.000199397187680006,0.01392838358879089,-0.01392249584197998,-0.001828112602233887,0.005497475862503052,-0.005018067359924316,0.017495436668396,-0.004860228896141052,-0.01572866678237915,-0.01862653374671936,-0.001850903779268265,0.01293424844741821,-0.007871835827827453,-0.007124812602996826,0.00610688328742981,-0.004921301007270813,0.01072231888771057,-0.003606250286102295,-0.006370891332626343,0.00724005937576294,-0.00558987557888031,-0.001944466978311539,0.003729673027992248,0.001323192268610001,-0.0189043653011322,-0.001819809377193451,-0.009516634345054627,-0.01233289241790772,0.01087801814079285,-0.02575632572174072,-0.001283724159002304,0.02185876369476318,-0.009101799130439759,-0.005917158722877502
0.01375105857849121,0.002001210749149323,0.002115307450294495,-0.003056632876396179,-0.0005466277897357941,0.003793129324913025,0.008451025485992431,0.01123916506767273,0.00407227098941803,-0.01218924522399902,0.01644623160362244,0.0007133402675390244,0.004861623048782349,-0.007496400475502014,-0.002365400791168213,-0.007869141697883606,-0.001163915544748306,-0.00145656019449234,-0.005495018362998962,0.009597848653793335,0.01255271673202515,-0.0008025795966386795,-0.0086726975440979,0.001742793023586273,-0.008552126288414001,-0.001542843133211136,-0.004083324074745178,-0.0148844587802887,0.002069340348243714,-0.008708362579345704,0.01442291140556336,-0.01108688473701477,0.005646328926086426,0.00712084174156189,0.0002928049489855766,0.00148868665099144,0.01905369997024536,-0.02197407484054565,0.01854165077209473,-0.006272947788238526,-0.01435481190681458,0.005304262638092041,-0.003113848865032196,-0.01288842797279358,0.01373602628707886,0.007280019521713257,0.004589435756206513,-0.009062272310256959,0.01057965397834778,-0.002057149261236191
-0.01412583236027782,-0.02413107241779047,0.005628383409062886,0.006621898238751097,0.003254507663441343,0.006881586930047869,-0.002151086652788943,-0.01655786167384849,-0.001174772766588195,-0.0004714231693997293,-0.01701360433493693,-0.01019500157993928,0.001714400714659614,-0.008281797074885387,0.0007590068248299045,0.02718359374151732,-0.0169088256795416,0.0160438797812837,-0.02392685990024521,-0.0096432286327285,-0.008363952176820157,-0.009291629699668909,0.005684656453962898,-8.010836566817167e-06,-0.01285656738396666,-0.005883501331075937,0.001542681474995446,-0.02123726979234925,-0.008048910615166299,0.005494104651875544,-0.0006853131263788556,0.01220361482225788,0.006250807541921897,-0.005268440938703436,0.006991043904595603,0.007046185704693168,0.007768153316220841,-0.00774125003509476,0.009620375068623123,-0.007024940495867348,-0.003790322189481663,0.003349100554427732,0.0006915100753274666,-0.004254175696692081,-0.00112547707031125,0.009849271690218996,0.005012621927686294,-0.006173837398930573,0.02584230985056847,0.01386979247551439
-0.0006881470442753939,0.007431646657818039,0.01161559738916233,-0.003702310960634175,-0.0161052297586977,-0.01076700210891344,-0.004624255638702906,-0.01238116698691057,0.005011014046897706,0.002322164066228955,0.01430444721116375,-0.008210308620240404,-0.0153803703494503,-0.008993538058276953,0.009239993880330267,-0.01851305316680351,0.00137971330937087,0.002912383340006096,-0.002066762241094811,0.002853823811957161,-0.003081744674602732,0.01276667474053533,-0.0116732179175542,0.009551171128991056,0.0007975118117481831,0.01950815107690221,-0.00540131919897025,-0.004738946410648524,0.002011029385495776,-0.007830088833411755,0.0001859423635402629,-0.01301956677336286,0.004770894451074378,0.004961714828957804,-0.002766267450624831,-0.007855121720245301,0.002376022519452362,0.008881986741942132,0.008936383425994369,0.01831655764256081,0.007936468389827183,-0.005081941127342936,0.0222628544534184,0.001247121257416943,0.002227248350115927,-0.01195163837628738,0.02349887300570882,-0.0004046803066484788,-0.0001822110129420195,-0.007366213081217668
-0.01122010350227356,0.00686261773109436,0.000785343199968338,0.0001725582964718342,0.006649915575981141,-0.01509822010993958,-0.009950653314590455,-0.01666107058525085,0.0005750332772731781,-0.004407775700092316,0.002299180924892426,-0.005276039242744446,-0.01168591618537903,0.01294217348098755,0.004865328669548035,0.0004247265309095383,0.002772536277770996,0.001620994359254837,0.00118067279458046,-0.001499392241239548,-0.002680952548980713,-0.003306829631328583,-0.01042240977287292,0.00282064288854599,-0.009184840321540834,-0.02236499786376953,-0.00157191663980484,0.003512461483478546,-0.007839580774307251,0.006269338726997376,0.003477904498577118,-0.01761253714561463,-0.003571847677230835,0.007086650729179383,-0.006395887732505798,-0.01648563861846924,-0.01223459124565125,0.01085510969161987,0.006579758524894714,-0.003178802728652954,0.004517165720462799,0.01311761021614075,0.003811908960342407,-0.01334335684776306,0.001592959016561508,0.004258352220058441,0.003338696956634522,-0.001173695623874664,-0.009500591158866882,0.006331617832183838
-0.002153652226122317,-0.003840365743986447,0.01730229395624862,-0.002669951377140775,0.01027396797372689,-0.004455976981515483,0.005584252514347555,0.01049747542950122,-0.001241966060795196,-0.004593818465951683,-0.004040527575241203,0.02326123141449309,0.004309038320553543,-0.002035982070524873,-0.005407892764533029,-0.009156122593208017,0.005635995582628262,-0.004170355757372802,-0.01052267700870585,-0.01593452596689049,0.01045157486904587,0.009166579128319773,0.004512194301274545,0.001911218704636827,0.002481141450176731,0.005792178803551883,0.01577649647797426,0.003944162958342393,0.02664206728654544,0.01255445988437035,0.004368255795109151,0.01759290816934486,0.001808024375156202,0.001817558293759407,0.01409229888955176,0.0002555184105371678,-0.01358202510014194,0.00950166105783461,0.001857779963629756,-0.006942125431175138,0.00269567398831107,-0.0105610140799743,0.003516277249612594,0.003559994384235761,-0.006771974892401414,0.003965375356112911,-0.001504766936359863,0.003132282324245372,0.005864739356930705,0.007811875606293468
0.01936354517936707,0.0005864144116640091,0.006384261846542358,-0.01460324645042419,0.003675225079059601,0.004678576588630677,-0.01048237562179566,0.00714701771736145,1.135810860432684e-05,-0.00295079231262207,0.003590022623538971,0.007781604528427124,-0.002525876760482788,-0.006735756397247315,-0.01264334201812744,-0.003351018130779267,0.01505321979522705,-0.006884062290191651,0.001774537414312363,0.006674241423606873,-0.005820754170417786,-0.01356310367584228,-0.01817548036575318,-0.01480676889419556,-0.011634761095047,0.008513887524604798,0.001889751255512238,-0.009466621875762939,-0.00451301097869873,0.01169495701789856,0.009257237315177918,-0.006969502568244934,-0.00227897122502327,0.005691251754760742,-0.009670550227165222,6.55674608424306e-05,0.005844263434410095,0.009625573754310609,-0.001095921769738197,-0.00121539331972599,-0.001820648610591888,-0.002088506519794464,0.01669187664985657,0.01770788073539734,-0.0008419774472713471,0.01337111949920654,0.004513519704341888,-0.003692086040973664,-0.01032379627227783,-0.001298982799053192
-0.01689457774162292,-0.008476908206939698,0.007436373829841614,-0.01820828914642334,-0.01437202572822571,-0.01434669733047485,0.0002217705547809601,0.009931381344795227,0.004662115573883057,0.01010462999343872,0.01836718916893005,-0.00872852623462677,0.003154929578304291,0.006818721294403076,0.006826600432395935,-0.00689774751663208,0.002173552811145783,-0.005238351821899414,-0.01644293308258057,-0.007520620226860047,0.005740715861320495,0.01499417543411255,-0.009284613728523254,-0.005647530555725097,-0.01250430583953857,-0.007034105062484741,-6.609316449612379e-05,-0.001416779458522797,-0.002227905094623566,-0.0006955818831920624,0.004535599648952484,0.007731311917304993,0.003427400887012482,-0.002973048686981201,0.003337444365024567,0.01145252585411072,-0.01336660623550415,0.005577169060707092,-0.01190820693969727,-0.01286271333694458,0.01375181078910828,0.007727271318435669,-0.001990652233362198,0.001212582066655159,1.479412749176845e-06,-0.01023911714553833,0.01319241166114807,0.001170150488615036,-0.002260375022888184,-0.009042544364929199
-0.004122142207459125,0.004263042266035969,0.009435557250261319,-0.01584256596341679,0.00313543356560669,0.004472153461911246,0.004108882015803656,-0.02446368485375841,0.01058211270225574,-0.001054651098941565,0.007026396936889018,-0.01786079258750795,0.003254456942722406,-0.004469019062184755,0.01295415431555716,-0.001914994339234884,0.01268434199918192,0.0003315148281902174,-0.01850409731505346,0.01772342933559098,0.009876190400213706,-0.007428611522349494,-0.009879355173251092,-0.0185261490183397,-0.0042706407332249,-0.005136062058091878,0.002888077823018035,-0.01242737220748855,-0.01090015264068828,-0.003319644236866736,0.004195165404360439,0.01808084733108233,0.008869673495316194,-0.004187470639862476,0.01380568932987205,0.007595544073916034,0.01383877996267163,-0.006244820069187661,-0.003369485189416184,0.01141078272441978,-0.008928800490573928,-0.001454049974771422,-0.0130429723871887,-0.03200991141640539,-0.0110047878427473,0.0005898667950374994,-0.01082833044474206,0.004136959757552757,-0.00701181028280436,0.001700664344587941
0.003921540327589926,0.005975370617196389,-0.005078323949468576,0.02074789596296513,-0.01311571511676,-0.003003043516044719,0.009009279428085187,-0.008091229073093117,0.0330791195139284,-0.009595254800815935,-0.002701599424123468,0.01528363589110229,-0.006996623341356558,0.006005862946666722,0.01228642178866176,-0.002203317206664219,-0.01493864193559445,0.01807698974798735,0.001399453189320008,-0.02048037635054996,0.01407155045032113,0.02234217872305386,0.0259298226892899,0.001495521371645276,0.006591565067238372,0.01846174893007249,-0.001635584748484488,0.008511671330853988,0.003982230185225331,-0.007995804154839574,-0.004961035481471408,-0.001620691201105039,0.0009381087180022382,-0.003635706345381075,-0.01491651358683716,-0.01635779449630936,-0.009677233753137579,0.001907284828411544,-0.01567323915759173,0.00199898022777394,-0.01618768806327251,0.00494269797740036,0.009002003305296479,-0.006668858219317992,0.006787556578460429,0.002425277985731592,-0.0007781038817038425,-0.01002831425659526,-0.007919093669244809,-0.01897732378065543
-0.0009851556271314621,0.009215944409370423,-0.005821528434753418,0.003111585080623627,-0.002931923270225525,0.005359442234039307,-0.0149134886264801,-0.008912803530693054,-0.01607470154762268,-0.003265220522880554,0.002527149319648743,0.003258333802223206,-0.009049980044364929,-0.001865784525871277,-0.001616619229316711,-0.0009051044285297394,0.02058590888977051,-0.006683693528175354,0.008165623545646667,0.009372756481170655,0.00169441431760788,0.009502549767494203,-0.0009680098295211792,-0.003043118119239807,-0.01947080492973328,-0.001688031554222107,-0.00750272810459137,-0.0110362708568573,-0.001843566596508026,-0.01543647408485413,0.005901656150817871,-0.001784824579954147,0.0275743556022644,-0.003615656197071076,0.01758125185966492,-0.002025259584188461,0.0110995626449585,0.0003695125505328179,-0.01391679167747498,0.008771945238113404,0.006044456958770752,0.0006317390501499176,-0.01293147683143616,0.0005071144551038742,0.003204049170017243,0.006784991621971131,0.0005981709063053131,0.002864494025707245,0.009907503128051758,-0.001925926804542542
-0.015251225233078,-0.02489036083221436,-0.0004418547451496124,0.02203020334243774,-0.01928941369056702,-0.004571851789951325,0.0142848014831543,0.009417136907577514,-0.001786995232105255,-0.007259981632232666,0.005603903532028199,0.0009652015566825867,0.001761150360107422,0.0008417578786611557,-0.003360618054866791,0.004516464769840241,-0.01379556059837341,-0.01976112723350525,0.01487361311912537,0.008041886091232299,-0.0151191771030426,0.01351370692253113,0.005925777554512024,-0.001792120635509491,-0.01605532765388489,0.007288498282432557,0.01619117975234985,0.009190412759780884,0.01171206474304199,0.01011912107467651,-0.002890879809856415,-0.01145829319953919,0.006918748617172241,-0.01165477395057678,-0.006403521299362183,0.007341659665107727,-0.00991806149482727,-0.01322238564491272,0.01052520394325256,-0.00678094744682312,0.007323161959648133,0.008202835321426391,-0.01110906362533569,0.01068535327911377,-0.003678824603557587,0.007540296912193298,-0.01482384204864502,0.01603001356124878,-0.006480149030685425,-0.003388083875179291
0.005832648873329163,-0.005771116018295288,-0.00357785165309906,0.01527125835418701,0.00132792130112648,0.01117088556289673,0.01527425289154053,-0.01154564619064331,0.00504170835018158,-0.006234957575798034,0.007046942710876465,-3.849790897220373e-05,-0.00215017631649971,0.01708682775497437,-0.006249532699584961,-0.01001628756523132,0.01798512935638428,-0.008637184500694275,-0.002828995585441589,0.01162711620330811,0.01114680886268616,-0.01490332722663879,-0.00993601143360138,0.01308961033821106,-0.009346508979797363,-0.00509740948677063,0.001475136876106262,0.01476873278617859,0.003077415227890015,-0.01166404724121094,-0.005495476722717285,-0.002284710556268692,0.008815036416053771,-0.0002689977549016476,0.009071457982063293,-0.01947685241699219,0.007812246680259705,-0.02160890102386475,-0.005952882766723633,-0.002057545930147171,-0.009784685969352723,-0.001306402087211609,-0.01170642137527466,-0.001156201660633087,-0.008809124231338502,0.005175768136978149,0.001240345165133476,-0.01919768929481507,-0.005090603828430176,0.01243470072746277
0.01286027270463048,0.007416372275008546,-0.01508961090521757,0.003021083967297842,0.01180281522441148,-0.008800367515425575,0.007288208682640041,0.0101423338319938,0.0009846664712226804,-0.005921067619473695,-0.01344905736904352,-0.005000030423778212,0.01523910312454601,-0.01653895650727502,-0.009550371801165978,-0.007202137587374698,-0.01093118828329153,-0.01431936906193191,-0.000789841598734246,0.01199273886789947,-0.01669347394855361,0.004350363346711581,0.00992213712631192,0.006503916466168711,-0.005485085899157987,0.003102309267156341,0.01264020294553075,-0.007281298561564566,0.005282035936941188,0.01138212196503152,0.01546995961200726,-0.00350365182189511,-0.004505099135944477,-0.009918579341334478,-0.01256426446383705,0.01678564821752835,-0.007615002477559387,0.009415317660898505,0.005488743062383233,0.01049131039502568,-0.002960720525119866,0.01197637252650272,0.003653486494040715,-0.01306067463010566,0.006413790076993222,-0.01183642604512147,0.009518256528520608,0.005300039035927886,-0.00265149808309339,0.01226800322237054
0.01147441339506488,0.007657942847057152,0.01159097077243854,-0.002312371503742471,-0.00980183807066864,0.01297976273942451,-0.01851045429594151,0.008031306048862161,-0.002739028561531004,0.01579184404070567,-0.007460890775987093,0.002246183828534398,0.008602354749929212,0.01669418329181523,0.01977134265520492,-0.004991317130681342,-0.00283815149418109,0.01706899536900674,-0.003574527269419753,0.004743250335892038,-0.005302691100911701,-0.01970322635272089,0.009931862932454754,-0.01805348883683172,-0.006164946039884333,0.003159114403762011,-0.01789533832898002,-0.01050105516821252,0.01465691917378031,-0.003654266655575857,0.01273367944363538,0.01722390763423368,-0.004182077495969266,-0.004329849065623477,0.01084232438022448,-0.001836989016470847,-0.001186955830042376,-0.005032423918560203,0.02396372247871724,-0.01118869859419567,-0.0008302678473375962,-0.02306650020397711,0.006089175607305941,-0.004846655562770585,-0.01375426621080753,0.008416328273849064,-0.01194392167190945,-0.00629431568173964,0.01096076407124973,-0.01481854664765076
0.001993411218598208,-0.007497891012847869,0.0004272593973273419,-0.003614634221507369,0.002275828816908629,0.0009532798354836648,-0.01426500826512407,-0.00080502054690504,-0.01128454434098693,0.01112447641060777,-0.002389821549403144,-0.0112922453175705,-0.01218252924341832,-0.003014862592462593,-0.001027563647895549,-0.01115232195360431,-0.01684633753977598,-0.007761762933030676,-0.001741923846678331,0.001260125501631683,0.001173579170613884,-0.001364162025499245,-0.0004000959278464779,0.003981485687081988,-0.008685734263262938,-0.004618656199233549,0.005598131400702524,0.006573060613796696,5.202269914140968e-05,0.01534328052002916,0.008354524693711628,0.007847076811363799,0.02735382606055779,0.007608444625830739,-0.009966769347801075,0.02829909412924526,0.0263740263247513,0.008151710726165082,-0.002946696927360898,0.01616572281856106,0.01010492358018025,0.009029829577013124,-0.01263690745815163,-0.004371858694015354,-0.0006474186332489389,-0.002471174016122376,0.005453357353827439,-4.101584517977111e-05,-0.01427908539665,-0.008036376240761749
-0.007536135389201165,0.006673141912055506,-0.006118138407005268,-0.007033395193839172,0.003874590400816461,0.02079675562988733,0.01997918506847775,-0.008650158314257183,-0.003251961013580796,0.003613366542829923,-5.765910174958472e-05,-0.005978860364239727,0.02317100887251327,-0.01228698479082861,-0.02036228807837638,0.002452006600174896,-0.01432436868883744,0.006180043550896744,-0.0005689302481144048,-0.01021245716512163,0.009789453169625624,0.01674911374268451,-0.002890046489783304,0.002827363824624837,-0.003417299645651726,0.001257456471087415,0.004066843145149325,-0.0149813467729249,0.008892640996208434,0.005314366739037311,-0.004476259272514776,0.002478177788799532,0.01349106786492713,-0.007784890968235021,-0.002892521173356995,0.004743313220597407,0.01025930404162879,-0.01359963927186772,-0.0003654196096108322,-0.003887262251815961,-0.00507747204631923,0.002380758317018013,-0.005809120699778715,-0.01345545694493705,-0.005527750420030632,-0.01518951728539789,-0.003088399328803664,2.616097688686291e-05,0.005401992185499936,0.004109834863112595
-0.001501802097570256,0.005234283440391208,0.0130783579588523,0.006319751122218257,-0.009154180686495379,0.009632169092662174,0.01315243011978997,-0.01128547425198239,0.009520927830354879,-0.01486106700096524,0.003858448657182625,0.005241025948475591,0.004150595743370089,-0.01011887404760305,0.02007706550802408,-0.01071504215200979,-0.0006092748550136474,-0.009318923510502765,0.006268114174658409,0.008863387118584323,0.01125501705983243,-0.002291262705236899,-0.02447121755471373,-0.005735355337867258,0.01618562426298027,-0.01483859018642577,-0.003934487944208506,0.005024377559192874,-0.008396782935195045,-0.001864232042393542,0.0008969767699836034,0.0145785437160756,0.003162794025319929,0.00913715359084535,0.01062204268800748,0.01654296842686407,-0.004237532624898171,-0.005190466120626211,-0.01093348425126765,-0.004074783297167425,-0.009377051955921761,0.002872312422533945,0.00768559092082333,0.0009841892161051452,-0.00580345097873341,-0.0138488308921972,-0.003399760464825962,0.01157930770880906,0.004004785765276698,0.009845965716873838
